tree
version=v3
num_class=1
num_tree_per_iteration=1
label_index=0
max_feature_idx=6
objective=regression
feature_names=load_kw_lag168 pressure_kpa_lag168 cloud_cover_pct_lag168 humidity_pct_lag168 temperature_c_lag168 wind_direction_deg_lag168 wind_speed_kmh_lag168
feature_infos=[845471.35809999995:1605192.0430000001] [994:1020.06875] [0:100] [33.333333330000002:100] [-6.4181137829999999:36.05188622] [0.5:357.5] [0:91.497500000000002]
tree_sizes=511 498 498 495 496 498 500 497 498 498 502 496 498 499 501 499 497 499 501 497 500 493 497 490 489 501 498 496 498 498 497 498 492 502 491 500 493 493 501 494 492 498 502 484 492 502 498

Tree=0
num_leaves=4
num_cat=0
split_feature=0 0 0
split_gain=3.22991e+14 4.29321e+13 4.10977e+13
threshold=1184833.5490000003 1066774.3005000001 1322128.4990000001
decision_type=2 2 2
left_child=1 -1 -2
right_child=2 -3 -4
leaf_value=1117853.8358444513 1163567.8977582285 1139077.8006611122 1192847.6209280971
leaf_weight=9125 4306 6548 3457
leaf_count=9125 4306 6548 3457
internal_value=1.14325e+06 1.12672e+06 1.17661e+06
internal_weight=0 15673 7763
internal_count=23436 15673 7763
is_linear=0
shrinkage=1


Tree=1
num_leaves=4
num_cat=0
split_feature=0 0 0
split_gain=2.09346e+14 3.21122e+13 2.44453e+13
threshold=1168086.6615000002 1310688.1390000002 1037637.9340000001
decision_type=2 2 2
left_child=2 -2 -1
right_child=1 -3 -4
leaf_value=-23208.631169053704 14185.915109858997 38956.760014491352 -6943.8801424014418
leaf_weight=6719 4771 3730 8216
leaf_count=6719 4771 3730 8216
internal_value=0 25054.7 -14261.1
internal_weight=0 8501 14935
internal_count=23436 8501 14935
is_linear=0
shrinkage=0.2


Tree=2
num_leaves=4
num_cat=0
split_feature=0 0 0
split_gain=1.35489e+14 2.42575e+13 1.56974e+13
threshold=1202352.9885000002 1096743.9190000002 1362271.3640000003
decision_type=2 2 2
left_child=1 -1 -2
right_child=2 -3 -4
leaf_value=-15291.742544364264 15829.570431541593 1288.2360730048395 35284.60279861265
leaf_weight=11153 4487 5164 2632
leaf_count=11153 4487 5164 2632
internal_value=0 -10044.5 23022.4
internal_weight=0 16317 7119
internal_count=23436 16317 7119
is_linear=0
shrinkage=0.2


Tree=3
num_leaves=4
num_cat=0
split_feature=0 0 0
split_gain=8.86254e+13 1.7238e+13 1.13223e+13
threshold=1147241.9665000003 1277083.3610000003 1009165.2580000001
decision_type=2 2 2
left_child=2 -2 -1
right_child=1 -3 -4
leaf_value=-18372.968796018828 6732.346745504532 23850.776107637514 -6185.682341195934
leaf_weight=4484 4873 4550 9529
leaf_count=4484 4873 4550 9529
internal_value=0 14998.2 -10085.5
internal_weight=0 9423 14013
internal_count=23436 9423 14013
is_linear=0
shrinkage=0.2


Tree=4
num_leaves=4
num_cat=0
split_feature=0 0 0
split_gain=5.78731e+13 1.3368e+13 6.88714e+12
threshold=1227257.9220000003 1076765.2530000003 1406539.2605000001
decision_type=2 2 2
left_child=1 -1 -2
right_child=2 -3 -4
leaf_value=-10775.692108799107 12599.845130586093 480.62380028136045 27755.485878626976
leaf_weight=9862 4571 7377 1626
leaf_count=9862 4571 7377 1626
internal_value=0 -5958.83 16576.5
internal_weight=0 17239 6197
internal_count=23436 17239 6197
is_linear=0
shrinkage=0.2


Tree=5
num_leaves=4
num_cat=0
split_feature=0 0 0
split_gain=3.85681e+13 8.8645e+12 5.45757e+12
threshold=1128981.7800000003 1380533.2370000002 993298.78410000016
decision_type=2 2 2
left_child=2 -2 -1
right_child=1 -3 -4
leaf_value=-14281.119476670592 6028.9726035118583 20188.978537612755 -4852.847076453073
leaf_weight=3275 8079 2264 9818
leaf_count=3275 8079 2264 9818
internal_value=0 9128.48 -7211.18
internal_weight=0 10343 13093
internal_count=23436 10343 13093
is_linear=0
shrinkage=0.2


Tree=6
num_leaves=4
num_cat=0
split_feature=0 0 0
split_gain=2.58541e+13 6.56359e+12 2.65566e+12
threshold=1237296.6075000002 1022557.8820000001 1424286.3260000001
decision_type=2 2 2
left_child=1 -1 -2
right_child=2 -3 -4
leaf_value=-9548.3613204958838 9303.9612422874616 -1217.9214449794711 19672.404427963851
leaf_weight=5503 4566 12106 1261
leaf_count=5503 4566 12106 1261
internal_value=0 -3821.27 11547.8
internal_weight=0 17609 5827
internal_count=23436 17609 5827
is_linear=0
shrinkage=0.2


Tree=7
num_leaves=4
num_cat=0
split_feature=0 0 0
split_gain=1.75051e+13 4.45344e+12 2.27e+12
threshold=1111720.9240000003 1288039.3425000003 983037.78710000019
decision_type=2 2 2
left_child=2 -2 -1
right_child=1 -3 -4
leaf_value=-10640.585242973713 2559.1222919885572 10733.349240326541 -3892.1112496579699
leaf_weight=2519 7078 4277 9562
leaf_count=2519 7078 4277 9562
internal_value=0 5638.05 -5299.23
internal_weight=0 11355 12081
internal_count=23436 11355 12081
is_linear=0
shrinkage=0.2


Tree=8
num_leaves=4
num_cat=0
split_feature=0 0 0
split_gain=1.12991e+13 2.68873e+12 1.79274e+12
threshold=1137873.6895000001 1414345.7935000001 975634.88705000014
decision_type=2 2 2
left_child=2 -2 -1
right_child=1 -3 -4
leaf_value=-9342.6087146922437 3778.025664333778 13117.423720383578 -2803.9564471122212
leaf_weight=1961 8439 1444 11592
leaf_count=1961 8439 1444 11592
internal_value=0 5142.6 -3750.04
internal_weight=0 9883 13553
internal_count=23436 9883 13553
is_linear=0
shrinkage=0.2


Tree=9
num_leaves=4
num_cat=0
split_feature=0 0 0
split_gain=7.71488e+12 2.26107e+12 1.04033e+12
threshold=1244706.9320000003 1049790.9540000001 1458078.0725000002
decision_type=2 2 2
left_child=1 -1 -2
right_child=2 -3 -4
leaf_value=-4597.5895570146922 5456.4561914639016 -58.508939179199672 13605.668099661934
leaf_weight=7735 4831 10150 720
leaf_count=7735 4831 10150 720
internal_value=0 -2021.59 6513.46
internal_weight=0 17885 5551
internal_count=23436 17885 5551
is_linear=0
shrinkage=0.2


Tree=10
num_leaves=4
num_cat=0
split_feature=0 0 0
split_gain=5.17603e+12 1.50017e+12 8.27269e+11
threshold=1110304.2400000002 1353063.7770000002 970867.05905000016
decision_type=2 2 2
left_child=2 -2 -1
right_child=1 -3 -4
leaf_value=-7016.8853726998241 1733.7085400425076 7049.2446258868576 -2233.1644001926429
leaf_weight=1682 8630 2817 10307
leaf_count=1682 8630 2817 10307
internal_value=0 3041.81 -2904.3
internal_weight=0 11447 11989
internal_count=23436 11447 11989
is_linear=0
shrinkage=0.2


Tree=11
num_leaves=4
num_cat=0
split_feature=0 6 0
split_gain=3.46142e+12 9.66005e+11 6.36679e+11
threshold=1215043.7950000002 10.418125000000002 1458078.0725000002
decision_type=2 2 2
left_child=1 -1 -2
right_child=2 -3 -4
leaf_value=-3026.3888342103182 3177.1324164792495 9.1868768872179452 9474.6857240676891
leaf_weight=8514 5939 8263 720
leaf_count=8514 5939 8263 720
internal_value=0 -1531.31 3858.05
internal_weight=0 16777 6659
internal_count=23436 16777 6659
is_linear=0
shrinkage=0.2


Tree=12
num_leaves=4
num_cat=0
split_feature=0 0 0
split_gain=2.4196e+12 6.65121e+11 5.26955e+11
threshold=1107288.0065000004 1338567.1515000004 962297.1601000001
decision_type=2 2 2
left_child=2 -2 -1
right_child=1 -3 -4
leaf_value=-5959.2547362347177 1137.0047032806369 4560.5535345105591 -1564.7702379619498
leaf_weight=1217 8545 3091 10583
leaf_count=1217 8545 3091 10583
internal_value=0 2046.44 -2018
internal_weight=0 11636 11800
internal_count=23436 11636 11800
is_linear=0
shrinkage=0.2


Tree=13
num_leaves=4
num_cat=0
split_feature=0 0 1
split_gain=1.56662e+12 7.18846e+11 3.81919e+11
threshold=1257517.4915000002 996869.02110000013 1007.3137500000001
decision_type=2 2 2
left_child=1 -1 -2
right_child=2 -3 -4
leaf_value=-3415.9223843088294 5436.9955619147404 -248.0800104660843 1818.1907517218822
leaf_weight=3554 1808 14786 3288
leaf_count=3554 1808 14786 3288
internal_value=0 -861.957 3102.1
internal_weight=0 18340 5096
internal_count=23436 18340 5096
is_linear=0
shrinkage=0.2


Tree=14
num_leaves=4
num_cat=0
split_feature=0 0 6
split_gain=1.12163e+12 4.09772e+11 3.52123e+11
threshold=1107288.0065000004 1452348.9380000003 9.0068750000000026
decision_type=2 2 2
left_child=2 -2 -1
right_child=1 -3 -4
leaf_value=-2511.1081881807058 1068.6808872048173 5732.3336556743106 -324.28503485038306
leaf_weight=5664 10826 810 6136
leaf_count=5664 10826 810 6136
internal_value=0 1393.32 -1373.96
internal_weight=0 11636 11800
internal_count=23436 11636 11800
is_linear=0
shrinkage=0.2


Tree=15
num_leaves=4
num_cat=0
split_feature=6 0 0
split_gain=7.76994e+11 3.47413e+11 2.45053e+11
threshold=9.3218750000000004 1260068.3440000003 930166.43110000016
decision_type=2 2 2
left_child=2 -2 -1
right_child=1 -3 -4
leaf_value=-9078.0243688895698 216.25120518544864 2297.0846998164211 -1425.4770481711244
leaf_weight=171 10786 4569 7910
leaf_count=171 10786 4569 7910
internal_value=0 835.419 -1587.41
internal_weight=0 15355 8081
internal_count=23436 15355 8081
is_linear=0
shrinkage=0.2


Tree=16
num_leaves=4
num_cat=0
split_feature=0 2 4
split_gain=5.48461e+11 2.79606e+11 1.95661e+11
threshold=1048782.6860000002 98.437500000000014 21.510636220000006
decision_type=2 2 2
left_child=2 -2 -1
right_child=1 -3 -4
leaf_value=-1621.3016450383529 453.23831464720763 3895.8898321363663 3057.6174662934973
leaf_weight=7265 14787 1008 376
leaf_count=7265 14787 1008 376
internal_value=0 672.94 -1391.06
internal_weight=0 15795 7641
internal_count=23436 15795 7641
is_linear=0
shrinkage=0.2


Tree=17
num_leaves=4
num_cat=0
split_feature=6 3 1
split_gain=4.31254e+11 2.92104e+11 2.03295e+11
threshold=10.901875000000002 81.958333335000006 1004.2262500000001
decision_type=2 2 2
left_child=2 -2 -1
right_child=1 -3 -4
leaf_value=2424.5835119021335 1697.6447353514479 -182.74699035964389 -1209.8291484353233
leaf_weight=658 6587 6631 9560
leaf_count=658 6587 6631 9560
internal_value=0 754.319 -975.787
internal_weight=0 13218 10218
internal_count=23436 13218 10218
is_linear=0
shrinkage=0.2


Tree=18
num_leaves=4
num_cat=0
split_feature=0 5 3
split_gain=3.45708e+11 2.53043e+11 2.20776e+11
threshold=1237296.6075000002 297.81250000000006 80.208333335000006
decision_type=2 2 2
left_child=2 -2 -1
right_child=1 -3 -4
leaf_value=397.62169051142342 2046.1423447230352 -1108.4008536519664 -1039.2636642874747
leaf_weight=7321 4514 1313 10288
leaf_count=7321 4514 1313 10288
internal_value=0 1335.33 -441.874
internal_weight=0 5827 17609
internal_count=23436 5827 17609
is_linear=0
shrinkage=0.2


Tree=19
num_leaves=4
num_cat=0
split_feature=0 0 1
split_gain=3.10484e+11 2.29289e+11 1.09233e+11
threshold=986785.66910000017 1458078.0725000002 1012.9156250000001
decision_type=2 2 2
left_child=2 -2 -1
right_child=1 -3 -4
leaf_value=-1149.9445980716926 141.58265946231222 3774.6112384287517 -3864.1106988624788
leaf_weight=1952 19912 720 852
leaf_count=1952 19912 720 852
internal_value=0 268.365 -1974.65
internal_weight=0 20632 2804
internal_count=23436 20632 2804
is_linear=0
shrinkage=0.2


Tree=20
num_leaves=4
num_cat=0
split_feature=6 3 0
split_gain=2.33693e+11 1.96269e+11 1.27207e+11
threshold=8.6168750000000021 73.041666665000022 944785.03610000014
decision_type=2 2 2
left_child=2 -2 -1
right_child=1 -3 -4
leaf_value=-4891.3078640795511 1523.8345150037114 -17.540045913580538 -779.25159490498368
leaf_weight=315 4590 11798 6733
leaf_count=315 4590 11798 6733
internal_value=0 414.173 -963.034
internal_weight=0 16388 7048
internal_count=23436 16388 7048
is_linear=0
shrinkage=0.2


Tree=21
num_leaves=4
num_cat=0
split_feature=2 0 1
split_gain=1.8586e+11 2.4345e+11 1.18726e+11
threshold=98.437500000000014 1424286.3260000001 999.05000000000007
decision_type=2 2 2
left_child=1 -1 -2
right_child=2 -3 -4
leaf_value=-308.15995855116938 10499.647702261118 2634.6249827879838 1763.5533136828283
leaf_weight=20724 65 1189 1458
leaf_count=20724 65 1189 1458
internal_value=0 -148.484 2136.4
internal_weight=0 21913 1523
internal_count=23436 21913 1523
is_linear=0
shrinkage=0.2


Tree=22
num_leaves=4
num_cat=0
split_feature=0 3 5
split_gain=1.64742e+11 1.84864e+11 7.72745e+10
threshold=996869.02110000013 94.625000000000014 258.93750000000006
decision_type=2 2 2
left_child=2 -2 -1
right_child=1 -3 -4
leaf_value=-1638.095626868869 65.893601078595964 2573.6903307351649 1011.2449024326361
leaf_weight=3039 18627 1255 515
leaf_count=3039 18627 1255 515
internal_value=0 224.192 -1254.19
internal_weight=0 19882 3554
internal_count=23436 19882 3554
is_linear=0
shrinkage=0.2


Tree=23
num_leaves=4
num_cat=0
split_feature=0 3 3
split_gain=1.3568e+11 1.94823e+11 1.20687e+11
threshold=1504081.2365000003 77.208333335000006 63.708333335000006
decision_type=2 2 2
left_child=2 -2 -1
right_child=1 -3 -4
leaf_value=1251.9649787503731 -894.14849577872997 12272.803343884698 -202.71681945469126
leaf_weight=2564 93 87 20692
leaf_count=2564 93 87 20692
internal_value=0 5469.88 -42.3365
internal_weight=0 180 23256
internal_count=23436 180 23256
is_linear=0
shrinkage=0.2


Tree=24
num_leaves=4
num_cat=0
split_feature=0 1 4
split_gain=1.22759e+11 1.3247e+11 9.2911e+10
threshold=962297.1601000001 999.05000000000007 8.7606362170000018
decision_type=2 2 2
left_child=2 -2 -1
right_child=1 -3 -4
leaf_value=-3912.4969442367556 9414.4846086095604 81.504127516978613 -395.1310552309676
leaf_weight=540 61 22158 677
leaf_count=540 61 22158 677
internal_value=0 107.127 -1955.84
internal_weight=0 22219 1217
internal_count=23436 22219 1217
is_linear=0
shrinkage=0.2


Tree=25
num_leaves=4
num_cat=0
split_feature=4 2 2
split_gain=1.12508e+11 1.78539e+11 1.19819e+11
threshold=23.413136220000002 18.187500000000004 87.062500000000014
decision_type=2 2 2
left_child=2 -2 -1
right_child=1 -3 -4
leaf_value=-325.01876619206416 -811.64867268890112 2577.7644920005196 1197.1045171753231
leaf_weight=18505 1027 1575 2329
leaf_count=18505 1027 1575 2329
internal_value=0 1239.98 -154.863
internal_weight=0 2602 20834
internal_count=23436 2602 20834
is_linear=0
shrinkage=0.2


Tree=26
num_leaves=4
num_cat=0
split_feature=3 0 1
split_gain=8.8206e+10 1.75794e+11 1.32228e+11
threshold=73.041666665000022 1476914.2200000002 1011.7006250000001
decision_type=2 2 2
left_child=2 -2 -1
right_child=1 -3 -4
leaf_value=1934.2260041442858 -331.12693585935813 4087.9405816451363 -6.6289307126820747
leaf_weight=2102 16737 368 4229
leaf_count=2102 16737 368 4229
internal_value=0 -236.054 637.768
internal_weight=0 17105 6331
internal_count=23436 17105 6331
is_linear=0
shrinkage=0.2


Tree=27
num_leaves=4
num_cat=0
split_feature=1 5 1
split_gain=9.667e+10 1.65709e+11 1.58739e+11
threshold=1004.0506250000001 268.56250000000006 1009.3006250000001
decision_type=2 2 2
left_child=1 -1 -2
right_child=2 -3 -4
leaf_value=348.97122392331335 -999.10222565676941 3908.8214599360858 217.65758700670136
leaf_weight=3531 6436 614 12855
leaf_count=3531 6436 614 12855
internal_value=0 876.293 -188.286
internal_weight=0 4145 19291
internal_count=23436 4145 19291
is_linear=0
shrinkage=0.2


Tree=28
num_leaves=4
num_cat=0
split_feature=4 5 6
split_gain=8.16302e+10 1.13157e+11 1.08355e+11
threshold=9.4668862170000008 191.56250000000003 14.965000000000002
decision_type=2 2 2
left_child=2 -2 -1
right_child=1 -3 -4
leaf_value=-1410.7919994829485 792.72456349428933 -196.78641887629874 3903.901463801687
leaf_weight=2384 6906 13982 164
leaf_count=2384 6906 13982 164
internal_value=0 130.366 -1068.72
internal_weight=0 20888 2548
internal_count=23436 20888 2548
is_linear=0
shrinkage=0.2


Tree=29
num_leaves=4
num_cat=0
split_feature=6 5 1
split_gain=7.99495e+10 1.58069e+11 7.13877e+10
threshold=8.1668750000000028 162.18750000000003 1004.4762500000001
decision_type=2 2 2
left_child=2 -2 -1
right_child=1 -3 -4
leaf_value=2145.642685603294 1429.9232336654115 -81.969660726596899 -764.85542453291009
leaf_weight=357 3475 13559 6045
leaf_count=357 3475 13559 6045
internal_value=0 226.462 -602.555
internal_weight=0 17034 6402
internal_count=23436 17034 6402
is_linear=0
shrinkage=0.2


Tree=30
num_leaves=4
num_cat=0
split_feature=1 0 3
split_gain=7.8577e+10 2.43946e+11 1.03966e+11
threshold=1014.0881250000001 1410729.6240000003 81.958333335000006
decision_type=2 2 2
left_child=2 -2 -1
right_child=1 -3 -4
leaf_value=617.62294242119708 -835.30804201742069 -19604.831685965401 -279.33764055749248
leaf_weight=9493 2567 28 11348
leaf_count=9493 2567 28 11348
internal_value=0 -1037.83 129.225
internal_weight=0 2595 20841
internal_count=23436 2595 20841
is_linear=0
shrinkage=0.2


Tree=31
num_leaves=4
num_cat=0
split_feature=2 0 0
split_gain=6.94137e+10 9.92748e+10 8.82979e+10
threshold=98.437500000000014 1212362.5490000003 1406539.2605000001
decision_type=2 2 2
left_child=2 -2 -1
right_child=1 -3 -4
leaf_value=-200.27109657467625 268.14781421540181 3818.8162093807609 1380.8250254107088
leaf_weight=20395 1078 445 1518
leaf_count=20395 1078 445 1518
internal_value=0 1305.61 -90.7423
internal_weight=0 1523 21913
internal_count=23436 1523 21913
is_linear=0
shrinkage=0.2


Tree=32
num_leaves=4
num_cat=0
split_feature=0 1 4
split_gain=6.36335e+10 7.70385e+10 6.15837e+10
threshold=958258.78710000007 999.05000000000007 8.2068862170000028
decision_type=2 2 2
left_child=2 -2 -1
right_child=1 -3 -4
leaf_value=-3215.6157941812189 7054.4830941820901 50.826415997144281 -107.16818471015254
leaf_weight=473 63 22347 553
leaf_count=473 63 22347 553
internal_value=0 70.5154 -1540.2
internal_weight=0 22410 1026
internal_count=23436 22410 1026
is_linear=0
shrinkage=0.2


Tree=33
num_leaves=4
num_cat=0
split_feature=6 5 1
split_gain=5.1197e+10 1.95131e+11 1.01283e+11
threshold=11.480625000000002 162.18750000000003 1004.3018750000001
decision_type=2 2 2
left_child=2 -2 -1
right_child=1 -3 -4
leaf_value=1893.5894924460299 2464.2772363108888 -8.9935986305961428 -482.36322207509085
leaf_weight=772 1443 11024 10197
leaf_count=772 1443 11024 10197
internal_value=0 277.277 -315.143
internal_weight=0 12467 10969
internal_count=23436 12467 10969
is_linear=0
shrinkage=0.2


Tree=34
num_leaves=4
num_cat=0
split_feature=1 0 1
split_gain=4.5363e+10 1.36973e+11 9.03651e+10
threshold=1013.5006250000001 1362271.3640000003 1010.126875
decision_type=2 2 2
left_child=2 -2 -1
right_child=1 -3 -4
leaf_value=-220.31036944963191 -373.2773480072542 -6137.4459844159255 657.82096790845912
leaf_weight=12082 3522 173 7659
leaf_count=12082 3522 173 7659
internal_value=0 -643.156 120.382
internal_weight=0 3695 19741
internal_count=23436 3695 19741
is_linear=0
shrinkage=0.2


Tree=35
num_leaves=4
num_cat=0
split_feature=2 0 1
split_gain=4.98809e+10 1.82275e+11 1.21919e+11
threshold=72.812500000000014 1105781.3280000002 1009.2025000000002
decision_type=2 2 2
left_child=2 -2 -1
right_child=1 -3 -4
leaf_value=-1082.5589820516661 -617.5773900922718 1445.3593205325631 141.09315333946358
leaf_weight=4454 3300 3563 12119
leaf_count=4454 3300 3563 12119
internal_value=0 453.418 -187.764
internal_weight=0 6863 16573
internal_count=23436 6863 16573
is_linear=0
shrinkage=0.2


Tree=36
num_leaves=4
num_cat=0
split_feature=3 0 3
split_gain=4.59841e+10 5.42212e+10 5.21258e+10
threshold=97.541666665000022 1199626.7325000002 81.958333335000006
decision_type=2 2 2
left_child=2 -2 -1
right_child=1 -3 -4
leaf_value=253.13880907311187 877.4744535457454 6353.8914690764059 -349.27411215560244
leaf_weight=11876 338 92 11130
leaf_count=11876 338 92 11130
internal_value=0 2049.17 -38.3006
internal_weight=0 430 23006
internal_count=23436 430 23006
is_linear=0
shrinkage=0.2


Tree=37
num_leaves=4
num_cat=0
split_feature=1 2 5
split_gain=4.77671e+10 1.16525e+11 1.1349e+11
threshold=1003.8543750000001 78.562500000000014 303.18750000000006
decision_type=2 2 2
left_child=2 -2 -1
right_child=1 -3 -4
leaf_value=474.65169127057891 46.680943232067889 -1491.869919052373 7904.9401147024973
leaf_weight=3893 17236 2223 84
leaf_count=3893 17236 2223 84
internal_value=0 -129.083 631.59
internal_weight=0 19459 3977
internal_count=23436 19459 3977
is_linear=0
shrinkage=0.2


Tree=38
num_leaves=4
num_cat=0
split_feature=2 0 1
split_gain=4.50605e+10 1.32511e+11 7.59887e+10
threshold=71.562500000000014 1024968.8505000001 1008.1768750000001
decision_type=2 2 2
left_child=2 -2 -1
right_child=1 -3 -4
leaf_value=-1049.6162812287764 -1128.1905677514112 915.87217494652111 31.951386597331776
leaf_weight=3233 1668 5298 13237
leaf_count=3233 1668 5298 13237
internal_value=0 426.424 -180.356
internal_weight=0 6966 16470
internal_count=23436 6966 16470
is_linear=0
shrinkage=0.2


Tree=39
num_leaves=4
num_cat=0
split_feature=0 3 5
split_gain=4.27444e+10 1.22512e+11 4.53513e+10
threshold=1504081.2365000003 61.291666665000008 220.68750000000003
decision_type=2 2 2
left_child=2 -2 -1
right_child=1 -3 -4
leaf_value=293.10370386999767 -10232.575732421876 5116.7178698417474 -269.9346462399314
leaf_weight=10168 24 156 13088
leaf_count=10168 24 156 13088
internal_value=0 3070.15 -23.7627
internal_weight=0 180 23256
internal_count=23436 180 23256
is_linear=0
shrinkage=0.2


Tree=40
num_leaves=4
num_cat=0
split_feature=6 4 5
split_gain=4.42638e+10 5.75547e+10 3.58518e+10
threshold=24.520000000000003 25.623136220000003 326.18750000000006
decision_type=2 2 2
left_child=1 -1 -2
right_child=2 -3 -4
leaf_value=-128.09003936121076 1098.5157440028281 1391.2705110799743 8010.5532242313511
leaf_weight=21413 946 1046 31
leaf_count=21413 946 1046 31
internal_value=0 -57.3277 1317.83
internal_weight=0 22459 977
internal_count=23436 22459 977
is_linear=0
shrinkage=0.2


Tree=41
num_leaves=4
num_cat=0
split_feature=1 0 5
split_gain=4.06704e+10 1.22858e+11 6.40884e+10
threshold=1013.4575000000001 1410729.6240000003 217.93750000000003
decision_type=2 2 2
left_child=2 -2 -1
right_child=1 -3 -4
leaf_value=572.68832407384059 -455.99202382415854 -9578.8402438227331 -169.75081908045885
leaf_weight=7553 3720 60 12103
leaf_count=7553 3720 60 12103
internal_value=0 -600.799 115.538
internal_weight=0 3780 19656
internal_count=23436 3780 19656
is_linear=0
shrinkage=0.2


Tree=42
num_leaves=4
num_cat=0
split_feature=6 5 2
split_gain=4.12699e+10 1.08024e+11 7.42183e+10
threshold=11.480625000000002 162.18750000000003 99.937500000000014
decision_type=2 2 2
left_child=2 -2 -1
right_child=1 -3 -4
leaf_value=-366.68112693404913 1876.1643587383396 35.950612461303074 2949.2054930538907
leaf_weight=10692 1443 11024 277
leaf_count=10692 1443 11024 277
internal_value=0 248.947 -282.945
internal_weight=0 12467 10969
internal_count=23436 12467 10969
is_linear=0
shrinkage=0.2


Tree=43
num_leaves=4
num_cat=0
split_feature=1 0 6
split_gain=3.86808e+10 3.98398e+10 2.61355e+10
threshold=999.05000000000007 906157.6871000001 19.926875000000003
decision_type=2 2 2
left_child=2 -2 -1
right_child=1 -3 -4
leaf_value=-574.25315299198553 -4215.211658257379 0.83851812811343063 6845.7585546874998
leaf_weight=29 90 23262 55
leaf_count=29 90 23262 55
internal_value=0 -15.4104 4284.09
internal_weight=0 23352 84
internal_count=23436 23352 84
is_linear=0
shrinkage=0.2


Tree=44
num_leaves=4
num_cat=0
split_feature=3 1 0
split_gain=3.63967e+10 3.71057e+10 2.24837e+10
threshold=50.458333335000006 1014.0881250000001 1018985.9985000001
decision_type=2 2 2
left_child=2 -2 -1
right_child=1 -3 -4
leaf_value=-2400.436341688368 66.879468780999247 -743.87547094134618 3885.3856018908273
leaf_weight=27 20730 2534 145
leaf_count=27 20730 2534 145
internal_value=0 -21.4309 2898.66
internal_weight=0 23264 172
internal_count=23436 23264 172
is_linear=0
shrinkage=0.2


Tree=45
num_leaves=4
num_cat=0
split_feature=3 2 5
split_gain=3.18879e+10 7.81544e+10 7.23588e+10
threshold=72.791666665000022 5.0625000000000009 315.56250000000006
decision_type=2 2 2
left_child=1 -1 -2
right_child=2 -3 -4
leaf_value=-396.96874403476545 -30.413370465781533 1029.7464332397533 -1672.6182081369836
leaf_weight=2789 16079 3418 1150
leaf_count=2789 16079 3418 1150
internal_value=0 388.679 -140.027
internal_weight=0 6207 17229
internal_count=23436 6207 17229
is_linear=0
shrinkage=0.2


Tree=46
num_leaves=4
num_cat=0
split_feature=6 5 4
split_gain=3.14074e+10 4.72628e+10 4.56278e+10
threshold=5.6343750000000012 217.93750000000003 22.188136220000004
decision_type=2 2 2
left_child=2 -2 -1
right_child=1 -3 -4
leaf_value=-503.26338390286401 489.44092165590848 -142.38502934021184 -6919.1670648871532
leaf_weight=3013 7485 12893 45
leaf_count=3013 7485 12893 45
internal_value=0 89.6896 -597.677
internal_weight=0 20378 3058
internal_count=23436 20378 3058
is_linear=0
shrinkage=0.2


end of trees

feature_importances:
load_kw_lag168=66
pressure_kpa_lag168=20
humidity_pct_lag168=13
wind_direction_deg_lag168=13
wind_speed_kmh_lag168=12
cloud_cover_pct_lag168=10
temperature_c_lag168=7

parameters:
[boosting: gbdt]
[objective: regression]
[metric: l1]
[tree_learner: serial]
[device_type: cpu]
[data: ]
[valid: ]
[num_iterations: 100]
[learning_rate: 0.2]
[num_leaves: 4]
[num_threads: 0]
[deterministic: 0]
[force_col_wise: 0]
[force_row_wise: 0]
[histogram_pool_size: -1]
[max_depth: 2]
[min_data_in_leaf: 20]
[min_sum_hessian_in_leaf: 0.001]
[bagging_fraction: 0.5]
[pos_bagging_fraction: 1]
[neg_bagging_fraction: 1]
[bagging_freq: 0]
[bagging_seed: 3]
[feature_fraction: 1]
[feature_fraction_bynode: 1]
[feature_fraction_seed: 2]
[extra_trees: 0]
[extra_seed: 6]
[early_stopping_round: 0]
[first_metric_only: 0]
[max_delta_step: 0]
[lambda_l1: 0]
[lambda_l2: 0]
[linear_lambda: 0]
[min_gain_to_split: 0]
[drop_rate: 0.1]
[max_drop: 50]
[skip_drop: 0.5]
[xgboost_dart_mode: 0]
[uniform_drop: 0]
[drop_seed: 4]
[top_rate: 0.2]
[other_rate: 0.1]
[min_data_per_group: 100]
[max_cat_threshold: 32]
[cat_l2: 10]
[cat_smooth: 10]
[max_cat_to_onehot: 4]
[top_k: 20]
[monotone_constraints: ]
[monotone_constraints_method: basic]
[monotone_penalty: 0]
[feature_contri: ]
[forcedsplits_filename: ]
[refit_decay_rate: 0.9]
[cegb_tradeoff: 1]
[cegb_penalty_split: 0]
[cegb_penalty_feature_lazy: ]
[cegb_penalty_feature_coupled: ]
[path_smooth: 0]
[interaction_constraints: ]
[verbosity: -1]
[saved_feature_importance_type: 0]
[linear_tree: 0]
[max_bin: 255]
[max_bin_by_feature: ]
[min_data_in_bin: 3]
[bin_construct_sample_cnt: 200000]
[data_random_seed: 1]
[is_enable_sparse: 1]
[enable_bundle: 1]
[use_missing: 1]
[zero_as_missing: 0]
[feature_pre_filter: 1]
[pre_partition: 0]
[two_round: 0]
[header: 0]
[label_column: ]
[weight_column: ]
[group_column: ]
[ignore_column: ]
[categorical_feature: ]
[forcedbins_filename: ]
[precise_float_parser: 0]
[objective_seed: 5]
[num_class: 1]
[is_unbalance: 0]
[scale_pos_weight: 1]
[sigmoid: 1]
[boost_from_average: 1]
[reg_sqrt: 0]
[alpha: 0.9]
[fair_c: 1]
[poisson_max_delta_step: 0.7]
[tweedie_variance_power: 1.5]
[lambdarank_truncation_level: 30]
[lambdarank_norm: 1]
[label_gain: ]
[eval_at: ]
[multi_error_top_k: 1]
[auc_mu_weights: ]
[num_machines: 1]
[local_listen_port: 12400]
[time_out: 120]
[machine_list_filename: ]
[machines: ]
[gpu_platform_id: -1]
[gpu_device_id: -1]
[gpu_use_dp: 0]
[num_gpu: 1]

end of parameters

pandas_categorical:[]
