tree
version=v3
num_class=1
num_tree_per_iteration=1
label_index=0
max_feature_idx=6
objective=regression
feature_names=load_kw_lag168 pressure_kpa_lag168 cloud_cover_pct_lag168 humidity_pct_lag168 temperature_c_lag168 wind_direction_deg_lag168 wind_speed_kmh_lag168
feature_infos=[845471.35809999995:1605192.0430000001] [994:1020.06875] [0:100] [33.333333330000002:100] [-6.4181137829999999:36.05188622] [0.5:357.5] [0:91.497500000000002]
tree_sizes=505 497 497 499 491 498 492 498 500 496 492 499 498 500 501 501 489 502 497 501 495 500 501 494 503 499 500 498 497 500 500 499 498 501 497 498 497 496 501 496 501 493 499 496 496 492 494 499 492 493 493 497 495 497 497 489 498 498 498 496 491 501 498 488 491 494 497 497 500 484 501 499 501 487 498 488 490 499

Tree=0
num_leaves=4
num_cat=0
split_feature=0 0 0
split_gain=3.18966e+14 4.26505e+13 4.09818e+13
threshold=1183791.7400000002 1065535.7765000004 1312646.0215
decision_type=2 2 2
left_child=1 -1 -2
right_child=2 -3 -4
leaf_value=1129212.9170253156 1151623.8390853405 1139783.3382425369 1166193.7720781395
leaf_weight=9112 4130 6569 3625
leaf_count=9112 4130 6569 3625
internal_value=1.14185e+06 1.13364e+06 1.15843e+06
internal_weight=0 15681 7755
internal_count=23436 15681 7755
is_linear=0
shrinkage=1


Tree=1
num_leaves=4
num_cat=0
split_feature=0 0 0
split_gain=2.59475e+14 3.94304e+13 2.98596e+13
threshold=1169393.8870000003 1323897.7595000004 1049857.6040000003
decision_type=2 2 2
left_child=2 -2 -1
right_child=1 -3 -4
leaf_value=-12153.413800182127 8494.3061289682464 22484.584393481709 -3233.865063941525
leaf_weight=7807 5049 3352 7228
leaf_count=7807 5049 3352 7228
internal_value=0 14076.4 -7865.39
internal_weight=0 8401 15035
internal_count=23436 8401 15035
is_linear=0
shrinkage=0.1


Tree=2
num_leaves=4
num_cat=0
split_feature=0 0 0
split_gain=2.10575e+14 3.00313e+13 2.64194e+13
threshold=1175504.0755000003 1341056.4920000003 1075791.5030000003
decision_type=2 2 2
left_child=2 -2 -1
right_child=1 -3 -4
leaf_value=-9995.4614562161951 8375.4946607487618 20983.718729767297 -1321.539351875452
leaf_weight=9856 5137 2988 5455
leaf_count=9856 5137 2988 5455
internal_value=0 13012.2 -6905.12
internal_weight=0 8125 15311
internal_count=23436 8125 15311
is_linear=0
shrinkage=0.1


Tree=3
num_leaves=4
num_cat=0
split_feature=0 0 0
split_gain=1.72354e+14 2.90194e+13 1.79336e+13
threshold=1203935.7710000004 1091184.2250000003 1360054.9330000002
decision_type=2 2 2
left_child=1 -1 -2
right_child=2 -3 -4
leaf_value=-8607.4939984653865 9210.7940233621957 284.52890484956743 19659.040441080109
leaf_weight=10878 4396 5539 2623
leaf_count=10878 4396 5539 2623
internal_value=0 -5607.38 13115.3
internal_weight=0 16417 7019
internal_count=23436 16417 7019
is_linear=0
shrinkage=0.1


Tree=4
num_leaves=4
num_cat=0
split_feature=0 0 0
split_gain=1.40055e+14 2.56408e+13 1.68126e+13
threshold=1155020.5750000002 1304658.013 1021788.7160000001
decision_type=2 2 2
left_child=2 -2 -1
right_child=1 -3 -4
leaf_value=-10473.145413477228 5210.8488192792756 15994.850566694115 -3439.5723423586724
leaf_weight=5502 5237 3808 8889
leaf_count=5502 5237 3808 8889
internal_value=0 9750.98 -6128.66
internal_weight=0 9045 14391
internal_count=23436 9045 14391
is_linear=0
shrinkage=0.1


Tree=5
num_leaves=4
num_cat=0
split_feature=0 0 0
split_gain=1.14667e+14 2.03379e+13 1.22878e+13
threshold=1203935.7710000004 1036617.5930000001 1378179.9820000001
decision_type=2 2 2
left_child=1 -1 -2
right_child=2 -3 -4
leaf_value=-8810.8287799377649 7815.2219809420367 -1649.9543035767442 16771.218635408452
leaf_weight=6703 4760 9714 2259
leaf_count=6703 4760 9714 2259
internal_value=0 -4573.71 10697.6
internal_weight=0 16417 7019
internal_count=23436 16417 7019
is_linear=0
shrinkage=0.1


Tree=6
num_leaves=4
num_cat=0
split_feature=0 0 0
split_gain=9.45148e+13 2.04232e+13 9.65064e+12
threshold=1137221.8160000003 1274703.3180000002 1008473.9555
decision_type=2 2 2
left_child=2 -2 -1
right_child=1 -3 -4
leaf_value=-9215.9240778605144 3248.4281949484821 12373.769771196308 -3544.8019320421281
leaf_weight=4482 5337 4538 9079
leaf_count=4482 5337 4538 9079
internal_value=0 7441.93 -5419.15
internal_weight=0 9875 13561
internal_count=23436 9875 13561
is_linear=0
shrinkage=0.1


Tree=7
num_leaves=4
num_cat=0
split_feature=0 0 0
split_gain=7.67316e+13 1.79302e+13 6.97154e+12
threshold=1228661.8200000001 1100219.5430000003 1409404.9060000002
decision_type=2 2 2
left_child=1 -1 -2
right_child=2 -3 -4
leaf_value=-5703.669955469737 7690.6269010960623 1082.9836426980858 15488.117702124837
leaf_weight=11436 4567 5902 1531
leaf_count=11436 4567 5902 1531
internal_value=0 -3393.44 9648.31
internal_weight=0 17338 6098
internal_count=23436 17338 6098
is_linear=0
shrinkage=0.1


Tree=8
num_leaves=4
num_cat=0
split_feature=0 0 0
split_gain=6.27272e+13 1.44603e+13 7.25768e+12
threshold=1131511.7095000001 1289426.5620000002 997480.24855000002
decision_type=2 2 2
left_child=2 -2 -1
right_child=1 -3 -4
leaf_value=-8328.4285606573012 2765.7410959014728 10436.833304997168 -3086.9711714684463
leaf_weight=3638 5979 4172 9647
leaf_count=3638 5979 4172 9647
internal_value=0 5918.51 -4522.31
internal_weight=0 10151 13285
internal_count=23436 10151 13285
is_linear=0
shrinkage=0.1


Tree=9
num_leaves=4
num_cat=0
split_feature=0 0 0
split_gain=5.12687e+13 1.15311e+13 5.4055e+12
threshold=1223799.4430000002 1075791.5030000003 1409404.9060000002
decision_type=2 2 2
left_child=1 -1 -2
right_child=2 -3 -4
leaf_value=-5061.6580943266681 6063.1846298216979 182.57505792823576 12895.622430742838
leaf_weight=9856 4752 7297 1531
leaf_count=9856 4752 7297 1531
internal_value=0 -2830.73 7728.07
internal_weight=0 17153 6283
internal_count=23436 17153 6283
is_linear=0
shrinkage=0.1


Tree=10
num_leaves=4
num_cat=0
split_feature=0 0 0
split_gain=4.2128e+13 8.50228e+12 6.1717e+12
threshold=1148620.6495685352 1312646.0215 993786.69995000015
decision_type=2 2 2
left_child=2 -2 -1
right_child=1 -3 -4
leaf_value=-7188.6353607484552 2808.0009784871108 9003.268018872177 -2277.2793748346485
leaf_weight=3357 5696 3625 10758
leaf_count=3357 5696 3625 10758
internal_value=0 5217.38 -3445.36
internal_weight=0 9321 14115
internal_count=23436 9321 14115
is_linear=0
shrinkage=0.1


Tree=11
num_leaves=4
num_cat=0
split_feature=0 0 0
split_gain=3.45463e+13 8.49636e+12 4.13227e+12
threshold=1124786.5280000002 1267817.5280000002 989886.38310000009
decision_type=2 2 2
left_child=2 -2 -1
right_child=1 -3 -4
leaf_value=-6664.572473926265 1689.5236528647981 7403.5070692730478 -2464.9429256106464
leaf_weight=3075 5797 4722 9842
leaf_count=3075 5797 4722 9842
internal_value=0 4254.54 -3464.7
internal_weight=0 10519 12917
internal_count=23436 10519 12917
is_linear=0
shrinkage=0.1


Tree=12
num_leaves=4
num_cat=0
split_feature=0 0 0
split_gain=2.82506e+13 7.82073e+12 2.99027e+12
threshold=1112355.8160000003 1355374.4705000001 982463.81310000003
decision_type=2 2 2
left_child=2 -2 -1
right_child=1 -3 -4
leaf_value=-6412.7982175109782 2124.6003501378 8286.0353439758346 -2540.4566491037958
leaf_weight=2513 8550 2714 9659
leaf_count=2513 8550 2714 9659
internal_value=0 3609.16 -3339.93
internal_weight=0 11264 12172
internal_count=23436 11264 12172
is_linear=0
shrinkage=0.1


Tree=13
num_leaves=4
num_cat=0
split_feature=0 0 0
split_gain=2.37556e+13 6.23195e+12 2.80501e+12
threshold=1235982.7280000004 1043407.5085000001 1422255.6710000003
decision_type=2 2 2
left_child=1 -1 -2
right_child=2 -3 -4
leaf_value=-4078.3600695877813 4383.3907755130958 -256.44982020933622 9713.2994506944942
leaf_weight=7255 4564 10357 1260
leaf_count=7255 4564 10357 1260
internal_value=0 -1830.83 5536.5
internal_weight=0 17612 5824
internal_count=23436 17612 5824
is_linear=0
shrinkage=0.1


Tree=14
num_leaves=4
num_cat=0
split_feature=0 0 0
split_gain=1.92521e+13 3.88837e+12 3.36378e+12
threshold=1183791.7400000002 1017178.5760000001 1413251.2520000001
decision_type=2 2 2
left_child=1 -1 -2
right_child=2 -3 -4
leaf_value=-4274.5565644040125 3081.0827034202248 -917.88520534005784 8437.0358239407014
leaf_weight=5128 6315 10553 1440
leaf_count=5128 6315 10553 1440
internal_value=0 -2015.58 4075.61
internal_weight=0 15681 7755
internal_count=23436 15681 7755
is_linear=0
shrinkage=0.1


Tree=15
num_leaves=4
num_cat=0
split_feature=0 0 0
split_gain=1.60913e+13 4.59258e+12 1.79152e+12
threshold=1107791.2425000002 1258106.1990000003 978944.23860000016
decision_type=2 2 2
left_child=2 -2 -1
right_child=1 -3 -4
leaf_value=-5132.9383949467619 916.43319095141533 4942.3750829688688 -1990.7200697510959
leaf_weight=2234 6541 4999 9662
leaf_count=2234 6541 4999 9662
internal_value=0 2660.43 -2580.81
internal_weight=0 11540 11896
internal_count=23436 11540 11896
is_linear=0
shrinkage=0.1


Tree=16
num_leaves=4
num_cat=0
split_feature=0 0 0
split_gain=1.306e+13 3.52117e+12 1.7733e+12
threshold=1235982.7280000004 1034326.4965 1450337.6895000001
decision_type=2 2 2
left_child=1 -1 -2
right_child=2 -3 -4
leaf_value=-3201.9677433743141 3403.7587636190251 -273.55004425277514 8446.5090219907415
leaf_weight=6519 5014 11093 810
leaf_count=6519 5014 11093 810
internal_value=0 -1357.49 4105.1
internal_weight=0 17612 5824
internal_count=23436 17612 5824
is_linear=0
shrinkage=0.1


Tree=17
num_leaves=4
num_cat=0
split_feature=0 0 0
split_gain=1.10111e+13 3.26357e+12 1.33542e+12
threshold=1107791.2425000002 1386662.6120000004 972021.97010000015
decision_type=2 2 2
left_child=2 -2 -1
right_child=1 -3 -4
leaf_value=-4669.9376703330263 1412.9000036788266 5790.3065135531551 -1692.0726092825171
leaf_weight=1769 9463 2077 10127
leaf_count=1769 9463 2077 10127
internal_value=0 2200.76 -2134.9
internal_weight=0 11540 11896
internal_count=23436 11540 11896
is_linear=0
shrinkage=0.1


Tree=18
num_leaves=4
num_cat=0
split_feature=0 0 0
split_gain=8.98275e+12 2.50546e+12 1.16754e+12
threshold=1242819.9280000001 1095792.7400000002 1450337.6895000001
decision_type=2 2 2
left_child=1 -1 -2
right_child=2 -3 -4
leaf_value=-2009.9190593330482 2914.7062950849181 433.28050025863979 7022.8273007390526
leaf_weight=11156 4741 6729 810
leaf_count=11156 4741 6729 810
internal_value=0 -1090.7 3514.16
internal_weight=0 17885 5551
internal_count=23436 17885 5551
is_linear=0
shrinkage=0.1


Tree=19
num_leaves=4
num_cat=0
split_feature=0 0 0
split_gain=7.30951e+12 2.20055e+12 1.10416e+12
threshold=1112355.8160000003 1364653.9635000003 973536.1011000002
decision_type=2 2 2
left_child=2 -2 -1
right_child=1 -3 -4
leaf_value=-3940.0682942160988 1083.1983187568119 4431.4859258389588 -1294.1419027213144
leaf_weight=1862 8732 2532 10310
leaf_count=1862 8732 2532 10310
internal_value=0 1835.85 -1698.9
internal_weight=0 11264 12172
internal_count=23436 11264 12172
is_linear=0
shrinkage=0.1


Tree=20
num_leaves=4
num_cat=0
split_feature=0 0 0
split_gain=6.1321e+12 1.88245e+12 8.14211e+11
threshold=1247807.3650685351 1028804.4165000002 1456494.2555000002
decision_type=2 2 2
left_child=1 -1 -2
right_child=2 -3 -4
leaf_value=-2318.6202783596796 2484.2251296401 -156.55861230125123 6098.3803897274865
leaf_weight=6057 4643 12016 720
leaf_count=6057 4643 12016 720
internal_value=0 -881.154 2969.44
internal_weight=0 18073 5363
internal_count=23436 18073 5363
is_linear=0
shrinkage=0.1


Tree=21
num_leaves=4
num_cat=0
split_feature=0 0 0
split_gain=5.05485e+12 1.13032e+12 1.10967e+12
threshold=1167308.4890000003 1413251.2520000001 997480.24855000002
decision_type=2 2 2
left_child=2 -2 -1
right_child=1 -3 -4
leaf_value=-2626.2776202495443 1426.7791374390979 4501.202399515576 -618.34646019614206
leaf_weight=3638 7053 1440 11305
leaf_count=3638 7053 1440 11305
internal_value=0 1948.05 -1107.19
internal_weight=0 8493 14943
internal_count=23436 8493 14943
is_linear=0
shrinkage=0.1


Tree=22
num_leaves=4
num_cat=0
split_feature=0 0 0
split_gain=4.18274e+12 1.26975e+12 6.82753e+11
threshold=1107791.2425000002 1278118.3250000004 963995.90510000009
decision_type=2 2 2
left_child=2 -2 -1
right_child=1 -3 -4
leaf_value=-3474.9483269474986 525.82838107635723 2681.1571555154151 -1049.9880946914259
leaf_weight=1304 7093 4447 10592
leaf_count=1304 7093 4447 10592
internal_value=0 1356.4 -1315.8
internal_weight=0 11540 11896
internal_count=23436 11540 11896
is_linear=0
shrinkage=0.1


Tree=23
num_leaves=4
num_cat=0
split_feature=0 6 0
split_gain=3.4226e+12 1.01068e+12 6.65287e+11
threshold=1214166.6155000001 10.379375000000001 1422255.6710000003
decision_type=2 2 2
left_child=1 -1 -2
right_child=2 -3 -4
leaf_value=-1526.6233782097133 1436.27207616134 25.453997424304248 3988.5508955625505
leaf_weight=8502 5391 8283 1260
leaf_count=8502 5391 8283 1260
internal_value=0 -760.71 1919.79
internal_weight=0 16785 6651
internal_count=23436 16785 6651
is_linear=0
shrinkage=0.1


Tree=24
num_leaves=4
num_cat=0
split_feature=0 0 0
split_gain=2.91059e+12 9.03669e+11 5.57965e+11
threshold=1107791.2425000002 1386662.6120000004 970513.36155000015
decision_type=2 2 2
left_child=2 -2 -1
right_child=1 -3 -4
leaf_value=-2788.8051601091265 716.90187477355505 3020.3316952209034 -820.27728861299749
leaf_weight=1676 9463 2077 10220
leaf_count=1676 9463 2077 10220
internal_value=0 1131.48 -1097.62
internal_weight=0 11540 11896
internal_count=23436 11540 11896
is_linear=0
shrinkage=0.1


Tree=25
num_leaves=4
num_cat=0
split_feature=0 0 0
split_gain=2.38394e+12 8.83628e+11 4.09113e+11
threshold=1247807.3650685351 1011061.7410685351 1456494.2555000002
decision_type=2 2 2
left_child=1 -1 -2
right_child=2 -3 -4
leaf_value=-1734.3240402530582 1507.5315737714652 -136.78668562754282 4069.4182437727186
leaf_weight=4668 4643 13405 720
leaf_count=4668 4643 13405 720
internal_value=0 -549.408 1851.47
internal_weight=0 18073 5363
internal_count=23436 18073 5363
is_linear=0
shrinkage=0.1


Tree=26
num_leaves=4
num_cat=0
split_feature=0 0 6
split_gain=2.00716e+12 6.04312e+11 4.76423e+11
threshold=1107791.2425000002 1394647.8725000003 9.099375000000002
decision_type=2 2 2
left_child=2 -2 -1
right_child=1 -3 -4
leaf_value=-1560.6083055892195 618.84866815735609 2572.1884101623345 -294.51483972952553
leaf_weight=5797 9645 1895 6099
leaf_count=5797 9645 1895 6099
internal_value=0 939.609 -911.491
internal_weight=0 11540 11896
internal_count=23436 11540 11896
is_linear=0
shrinkage=0.1


Tree=27
num_leaves=4
num_cat=0
split_feature=0 6 0
split_gain=1.64898e+12 4.91646e+11 4.66103e+11
threshold=1129802.9160000002 11.505625000000002 1456494.2555000002
decision_type=2 2 2
left_child=1 -1 -2
right_child=2 -3 -4
leaf_value=-1217.5353907539811 766.48906820770026 39.811980836275097 3405.2575078328455
leaf_weight=8173 9523 5020 720
leaf_count=8173 9523 5020 720
internal_value=0 -739.109 951.973
internal_weight=0 13193 10243
internal_count=23436 13193 10243
is_linear=0
shrinkage=0.1


Tree=28
num_leaves=4
num_cat=0
split_feature=0 6 1
split_gain=1.4089e+12 6.08004e+11 3.12344e+11
threshold=1247807.3650685351 10.221875000000002 1005.7906250000002
decision_type=2 2 2
left_child=1 -1 -2
right_child=2 -3 -4
leaf_value=-1024.3941706783689 2695.6465412588841 136.43763055583145 965.58743457182436
leaf_weight=8700 1419 9373 3944
leaf_count=8700 1419 9373 3944
internal_value=0 -422.365 1423.35
internal_weight=0 18073 5363
internal_count=23436 18073 5363
is_linear=0
shrinkage=0.1


Tree=29
num_leaves=4
num_cat=0
split_feature=0 0 0
split_gain=1.16212e+12 4.2445e+11 3.58761e+11
threshold=1085113.5340000002 1308368.2850000004 963995.90510000009
decision_type=2 2 2
left_child=2 -2 -1
right_child=1 -3 -4
leaf_value=-2333.3147036523178 270.98105387498191 1537.1086813467825 -561.04594068421329
leaf_weight=1304 9210 3716 9206
leaf_count=1304 9210 3716 9206
internal_value=0 634.971 -780.935
internal_weight=0 12926 10510
internal_count=23436 12926 10510
is_linear=0
shrinkage=0.1


Tree=30
num_leaves=4
num_cat=0
split_feature=0 0 0
split_gain=9.48631e+11 3.49107e+11 3.16094e+11
threshold=1106615.9990000003 1450337.6895000001 963995.90510000009
decision_type=2 2 2
left_child=2 -2 -1
right_child=1 -3 -4
leaf_value=-2099.983236827587 491.02715716056213 2643.3628864269494 -449.203979296103
leaf_weight=1304 10822 810 10500
leaf_count=1304 10822 810 10500
internal_value=0 640.906 -631.567
internal_weight=0 11632 11804
internal_count=23436 11632 11804
is_linear=0
shrinkage=0.1


Tree=31
num_leaves=4
num_cat=0
split_feature=6 0 0
split_gain=8.64724e+11 4.23076e+11 2.40539e+11
threshold=9.0393750000000015 1278118.3250000004 930166.43110000016
decision_type=2 2 2
left_child=2 -2 -1
right_child=1 -3 -4
leaf_value=-4588.5606437952383 114.89834205765119 1292.2597531262486 -784.74288574677053
leaf_weight=170 11599 4142 7525
leaf_count=170 11599 4142 7525
internal_value=0 424.703 -868.778
internal_weight=0 15741 7695
internal_count=23436 15741 7695
is_linear=0
shrinkage=0.1


Tree=32
num_leaves=4
num_cat=0
split_feature=0 0 4
split_gain=7.1291e+11 3.10709e+11 2.03033e+11
threshold=1049857.6040000003 1422255.6710000003 9.526886217000003
decision_type=2 2 2
left_child=2 -2 -1
right_child=1 -3 -4
leaf_value=-1676.4336504073417 257.77601509071673 1895.5120576888796 -490.1374307895083
leaf_weight=1910 14369 1260 5897
leaf_count=1910 14369 1260 5897
internal_value=0 389.809 -780.367
internal_weight=0 15629 7807
internal_count=23436 15629 7807
is_linear=0
shrinkage=0.1


Tree=33
num_leaves=4
num_cat=0
split_feature=6 3 0
split_gain=6.39461e+11 2.72704e+11 2.20336e+11
threshold=10.876875000000002 81.958333335000006 930166.43110000016
decision_type=2 2 2
left_child=2 -2 -1
right_child=1 -3 -4
leaf_value=-3968.2602540989924 912.59325724873315 4.5730818692511388 -530.73183614803963
leaf_weight=190 6618 6612 10016
leaf_count=190 6618 6612 10016
internal_value=0 458.789 -594.727
internal_weight=0 13230 10206
internal_count=23436 13230 10206
is_linear=0
shrinkage=0.1


Tree=34
num_leaves=4
num_cat=0
split_feature=0 0 2
split_gain=5.4666e+11 3.01164e+11 2.7008e+11
threshold=1242819.9280000001 986201.63405000011 85.312500000000014
decision_type=2 2 2
left_child=1 -1 -2
right_child=2 -3 -4
leaf_value=-1222.9477456075422 618.00752501034526 -92.535457934973934 2821.6412916594145
leaf_weight=2793 4924 15092 627
leaf_count=2793 4924 15092 627
internal_value=0 -269.066 866.914
internal_weight=0 17885 5551
internal_count=23436 17885 5551
is_linear=0
shrinkage=0.1


Tree=35
num_leaves=4
num_cat=0
split_feature=6 0 0
split_gain=4.97385e+11 2.43303e+11 1.44462e+11
threshold=8.6643750000000015 1278118.3250000004 953543.96010000014
decision_type=2 2 2
left_child=2 -2 -1
right_child=1 -3 -4
leaf_value=-2388.4268385933715 77.975427157220935 962.7273326311348 -576.33491164659063
leaf_weight=471 12113 4181 6671
leaf_count=471 12113 4181 6671
internal_value=0 305.001 -695.839
internal_weight=0 16294 7142
internal_count=23436 16294 7142
is_linear=0
shrinkage=0.1


Tree=36
num_leaves=4
num_cat=0
split_feature=6 3 1
split_gain=4.04166e+11 2.18168e+11 1.48715e+11
threshold=9.0393750000000015 73.041666665000022 1004.2262500000001
decision_type=2 2 2
left_child=2 -2 -1
right_child=1 -3 -4
leaf_value=1351.0626309501934 876.84059348109554 54.032772241518458 -693.31260103162333
leaf_weight=374 4521 11220 7321
leaf_count=374 4521 11220 7321
internal_value=0 290.353 -593.95
internal_weight=0 15741 7695
internal_count=23436 15741 7695
is_linear=0
shrinkage=0.1


Tree=37
num_leaves=4
num_cat=0
split_feature=0 2 4
split_gain=3.70427e+11 2.32908e+11 1.73402e+11
threshold=1053312.2400000002 98.437500000000014 21.503136220000005
decision_type=2 2 2
left_child=2 -2 -1
right_child=1 -3 -4
leaf_value=-657.24589030666061 187.38249801645028 1788.3449913803572 1411.0606958585367
leaf_weight=7658 14380 970 428
leaf_count=7658 14380 970 428
internal_value=0 288.551 -547.768
internal_weight=0 15350 8086
internal_count=23436 15350 8086
is_linear=0
shrinkage=0.1


Tree=38
num_leaves=4
num_cat=0
split_feature=6 5 2
split_gain=3.12061e+11 2.25469e+11 1.62637e+11
threshold=11.350625000000003 161.56250000000003 99.937500000000014
decision_type=2 2 2
left_child=2 -2 -1
right_child=1 -3 -4
leaf_value=-453.91682785206967 1487.7786684812384 182.9276071811779 2063.5178436538567
leaf_weight=10590 1504 11079 263
leaf_count=10590 1504 11079 263
internal_value=0 338.892 -392.912
internal_weight=0 12583 10853
internal_count=23436 12583 10853
is_linear=0
shrinkage=0.1


Tree=39
num_leaves=4
num_cat=0
split_feature=0 0 5
split_gain=2.99357e+11 2.23002e+11 1.16653e+11
threshold=1011061.7410685351 1456494.2555000002 261.06250000000006
decision_type=2 2 2
left_child=2 -2 -1
right_child=1 -3 -4
leaf_value=-929.76306039688723 109.39268193466735 1904.0560016886393 455.88391919247289
leaf_weight=3950 18048 720 718
leaf_count=3950 18048 720 718
internal_value=0 178.242 -716.632
internal_weight=0 18768 4668
internal_count=23436 18768 4668
is_linear=0
shrinkage=0.1


Tree=40
num_leaves=4
num_cat=0
split_feature=0 5 3
split_gain=2.63886e+11 2.39328e+11 2.31223e+11
threshold=1247807.3650685351 294.43750000000006 80.208333335000006
decision_type=2 2 2
left_child=2 -2 -1
right_child=1 -3 -4
leaf_value=232.07948668589074 1003.4538591709512 -535.75973393277775 -491.17287359964178
leaf_weight=7706 4013 1350 10367
leaf_count=7706 4013 1350 10367
internal_value=0 615.996 -182.791
internal_weight=0 5363 18073
internal_count=23436 5363 18073
is_linear=0
shrinkage=0.1


Tree=41
num_leaves=4
num_cat=0
split_feature=0 1 1
split_gain=2.31881e+11 1.94678e+11 8.96612e+10
threshold=986201.63405000011 999.08500000000015 1012.9168750000001
decision_type=2 2 2
left_child=2 -2 -1
right_child=1 -3 -4
leaf_value=-481.03472917144893 6057.2216932262081 99.829296393239417 -1713.231316776883
leaf_weight=1945 55 20588 848
leaf_count=1945 55 20588 848
internal_value=0 115.702 -855.15
internal_weight=0 20643 2793
internal_count=23436 20643 2793
is_linear=0
shrinkage=0.1


Tree=42
num_leaves=4
num_cat=0
split_feature=6 3 0
split_gain=2.13131e+11 1.58172e+11 1.00709e+11
threshold=8.6643750000000015 73.041666665000022 930166.43110000016
decision_type=2 2 2
left_child=2 -2 -1
right_child=1 -3 -4
leaf_value=-2874.9114292689737 692.09313024215407 2.5259376821848036 -397.21486127747829
leaf_weight=168 4658 11636 6974
leaf_count=168 4658 11636 6974
internal_value=0 199.654 -455.497
internal_weight=0 16294 7142
internal_count=23436 16294 7142
is_linear=0
shrinkage=0.1


Tree=43
num_leaves=4
num_cat=0
split_feature=0 1 2
split_gain=1.96185e+11 3.06171e+11 1.9576e+11
threshold=1369331.6580000001 1014.2293750000001 98.437500000000014
decision_type=2 2 2
left_child=2 -2 -1
right_child=1 -3 -4
leaf_value=-178.66987009664047 1054.6813120668694 -5235.6427518463133 1066.6398357511009
leaf_weight=19646 2361 80 1349
leaf_count=19646 2361 80 1349
internal_value=0 848.526 -98.6545
internal_weight=0 2441 20995
internal_count=23436 2441 20995
is_linear=0
shrinkage=0.1


Tree=44
num_leaves=4
num_cat=0
split_feature=0 3 5
split_gain=1.74346e+11 1.78069e+11 8.81407e+10
threshold=1011061.7410685351 94.625000000000014 261.06250000000006
decision_type=2 2 2
left_child=2 -2 -1
right_child=1 -3 -4
leaf_value=-732.16188071603415 57.584537847831406 1345.5826486909589 472.29935609059089
leaf_weight=3950 17625 1143 718
leaf_count=3950 17625 1143 718
internal_value=0 136.026 -546.9
internal_weight=0 18768 4668
internal_count=23436 18768 4668
is_linear=0
shrinkage=0.1


Tree=45
num_leaves=4
num_cat=0
split_feature=0 2 3
split_gain=1.69241e+11 1.48873e+11 1.48391e+11
threshold=1456494.2555000002 98.437500000000014 61.291666665000008
decision_type=2 2 2
left_child=1 -1 -2
right_child=2 -3 -4
leaf_value=-115.54719097068242 -4658.6095096072631 920.13268555265483 1843.563561919563
leaf_weight=21231 37 1485 683
leaf_count=21231 37 1485 683
internal_value=0 -47.8423 1509.42
internal_weight=0 22716 720
internal_count=23436 22716 720
is_linear=0
shrinkage=0.1


Tree=46
num_leaves=4
num_cat=0
split_feature=0 3 1
split_gain=1.51985e+11 1.35908e+11 1.32684e+11
threshold=1156823.8390000004 94.458333335000006 999.08500000000015
decision_type=2 2 2
left_child=2 -2 -1
right_child=1 -3 -4
leaf_value=3739.0977443739948 234.36821371633155 2019.5084031030703 -223.47894798621843
leaf_weight=85 8504 449 14398
leaf_count=85 8504 449 14398
internal_value=0 323.894 -200.223
internal_weight=0 8953 14483
internal_count=23436 8953 14483
is_linear=0
shrinkage=0.1


Tree=47
num_leaves=4
num_cat=0
split_feature=0 3 4
split_gain=1.39084e+11 1.4685e+11 8.15305e+10
threshold=968953.22810000007 80.291666665000022 8.1131362170000028
decision_type=2 2 2
left_child=2 -2 -1
right_child=1 -3 -4
leaf_value=-1775.1249037924497 344.04845700954206 -175.73872601754397 -313.12905945899382
leaf_weight=641 10145 11708 942
leaf_count=641 10145 11708 942
internal_value=0 65.5664 -905.131
internal_weight=0 21853 1583
internal_count=23436 21853 1583
is_linear=0
shrinkage=0.1


Tree=48
num_leaves=4
num_cat=0
split_feature=0 3 6
split_gain=1.34629e+11 2.09056e+11 1.22265e+11
threshold=1502787.6915000004 77.208333335000006 11.350625000000003
decision_type=2 2 2
left_child=2 -2 -1
right_child=1 -3 -4
leaf_value=-266.64749971939312 -608.73480463442593 6208.8799586209389 193.0093300475279
leaf_weight=10832 92 88 12424
leaf_count=10832 92 88 12424
internal_value=0 2724.32 -21.0861
internal_weight=0 180 23256
internal_count=23436 180 23256
is_linear=0
shrinkage=0.1


Tree=49
num_leaves=4
num_cat=0
split_feature=4 2 0
split_gain=1.17772e+11 1.62957e+11 1.52169e+11
threshold=23.338136220000006 42.437500000000007 1502787.6915000004
decision_type=2 2 2
left_child=2 -2 -1
right_child=1 -3 -4
leaf_value=-96.037030866459517 185.74395548502605 2029.9595630151591 4273.6845677947995
leaf_weight=20752 1971 633 80
leaf_count=20752 1971 633 80
internal_value=0 634.05 -79.2562
internal_weight=0 2604 20832
internal_count=23436 2604 20832
is_linear=0
shrinkage=0.1


Tree=50
num_leaves=4
num_cat=0
split_feature=0 1 1
split_gain=1.0947e+11 1.26993e+11 5.68395e+10
threshold=982463.81310000003 999.08500000000015 1013.0225000000002
decision_type=2 2 2
left_child=2 -2 -1
right_child=1 -3 -4
leaf_value=-313.4285748075506 4873.7555537553262 62.253554647771345 -1352.7854774901073
leaf_weight=1763 55 20868 750
leaf_count=1763 55 20868 750
internal_value=0 74.9015 -623.623
internal_weight=0 20923 2513
internal_count=23436 20923 2513
is_linear=0
shrinkage=0.1


Tree=51
num_leaves=4
num_cat=0
split_feature=6 5 0
split_gain=9.97196e+10 1.38053e+11 7.1858e+10
threshold=7.7731250000000012 188.43750000000003 922309.25810000009
decision_type=2 2 2
left_child=2 -2 -1
right_child=1 -3 -4
leaf_value=-3115.4102628974506 595.77305072564229 -45.667188743608762 -313.33283563340228
leaf_weight=93 4513 13080 5750
leaf_count=93 4513 13080 5750
internal_value=0 118.877 -357.932
internal_weight=0 17593 5843
internal_count=23436 17593 5843
is_linear=0
shrinkage=0.1


Tree=52
num_leaves=4
num_cat=0
split_feature=0 2 3
split_gain=9.57931e+10 1.49243e+11 1.23435e+11
threshold=1462631.3660000002 19.562500000000004 72.791666665000022
decision_type=2 2 2
left_child=2 -2 -1
right_child=1 -3 -4
leaf_value=344.95970223711151 -1536.8834490559896 2076.8128290760519 -176.57519233633792
leaf_weight=6252 150 480 16554
leaf_count=6252 150 480 16554
internal_value=0 1216.41 -33.6025
internal_weight=0 630 22806
internal_count=23436 630 22806
is_linear=0
shrinkage=0.1


Tree=53
num_leaves=4
num_cat=0
split_feature=0 2 4
split_gain=8.8617e+10 1.03011e+11 6.63893e+10
threshold=960183.36805000005 98.437500000000014 7.9131362170000008
decision_type=2 2 2
left_child=2 -2 -1
right_child=1 -3 -4
leaf_value=-1753.9905223292435 -11.930510244352872 875.86861035868299 -197.96131269586911
leaf_weight=482 20924 1394 636
leaf_count=482 20924 1394 636
internal_value=0 43.5221 -868.808
internal_weight=0 22318 1118
internal_count=23436 22318 1118
is_linear=0
shrinkage=0.1


Tree=54
num_leaves=4
num_cat=0
split_feature=4 2 0
split_gain=8.45902e+10 1.30099e+11 1.19147e+11
threshold=23.338136220000006 18.187500000000004 1518992.8815000004
decision_type=2 2 2
left_child=2 -2 -1
right_child=1 -3 -4
leaf_value=-77.789831209300857 -316.39797386191049 1122.5529122845796 5318.2825981326223
leaf_weight=20791 1059 1545 41
leaf_count=20791 1059 1545 41
internal_value=0 537.357 -67.1697
internal_weight=0 2604 20832
internal_count=23436 2604 20832
is_linear=0
shrinkage=0.1


Tree=55
num_leaves=4
num_cat=0
split_feature=1 3 0
split_gain=7.94123e+10 8.92393e+10 2.58733e+10
threshold=999.08500000000015 81.958333335000006 986201.63405000011
decision_type=2 2 2
left_child=2 -2 -1
right_child=1 -3 -4
leaf_value=688.71318339029949 179.54668997467601 -211.55686205678842 4339.5548304332387
leaf_weight=30 11968 11383 55
leaf_count=30 11968 11383 55
internal_value=0 -11.106 3051.02
internal_weight=0 23351 85
internal_count=23436 23351 85
is_linear=0
shrinkage=0.1


Tree=56
num_leaves=4
num_cat=0
split_feature=1 0 3
split_gain=7.98017e+10 1.92804e+11 1.27773e+11
threshold=1014.0881250000001 1409404.9060000002 79.666666668333363
decision_type=2 2 2
left_child=2 -2 -1
right_child=1 -3 -4
leaf_value=377.73329780209991 -425.60682173295982 -8488.1262361653644 -131.22752539434865
leaf_weight=8050 2619 30 12737
leaf_count=8050 2619 30 12737
internal_value=0 -516.915 65.8733
internal_weight=0 2649 20787
internal_count=23436 2649 20787
is_linear=0
shrinkage=0.1


Tree=57
num_leaves=4
num_cat=0
split_feature=1 5 3
split_gain=7.86356e+10 1.60767e+11 1.46887e+11
threshold=1004.0506250000001 268.93750000000006 81.958333335000006
decision_type=2 2 2
left_child=1 -1 -2
right_child=2 -3 -4
leaf_value=147.52486249312446 142.08121749263245 1974.0909595972289 -418.46295516876648
leaf_weight=3416 11652 561 7807
leaf_count=3416 11652 561 7807
internal_value=0 405.182 -82.8105
internal_weight=0 3977 19459
internal_count=23436 3977 19459
is_linear=0
shrinkage=0.1


Tree=58
num_leaves=4
num_cat=0
split_feature=2 2 0
split_gain=7.65405e+10 1.63575e+11 1.48087e+11
threshold=87.062500000000014 79.812500000000014 1221599.9440000004
decision_type=2 2 2
left_child=1 -1 -2
right_child=2 -3 -4
leaf_value=8.6059821909284455 55.527675962256559 -1190.3043938780581 1848.0243230688839
leaf_weight=19907 1688 1207 634
leaf_count=19907 1688 1207 634
internal_value=0 -59.9308 544.952
internal_weight=0 21114 2322
internal_count=23436 21114 2322
is_linear=0
shrinkage=0.1


Tree=59
num_leaves=4
num_cat=0
split_feature=4 6 5
split_gain=7.27614e+10 9.05376e+10 8.79795e+10
threshold=9.526886217000003 19.585625000000004 217.93750000000003
decision_type=2 2 2
left_child=1 -1 -2
right_child=2 -3 -4
leaf_value=-579.59753385977388 321.06453743773915 3595.7775622673757 -100.98927836076751
leaf_weight=2578 8067 53 12738
leaf_count=2578 8067 53 12738
internal_value=0 -495.487 62.6593
internal_weight=0 2631 20805
internal_count=23436 2631 20805
is_linear=0
shrinkage=0.1


Tree=60
num_leaves=4
num_cat=0
split_feature=6 4 1
split_gain=6.92437e+10 7.02945e+10 4.2372e+10
threshold=24.779375000000005 25.373136220000003 999.08500000000015
decision_type=2 2 2
left_child=1 -1 -2
right_child=2 -3 -4
leaf_value=-74.875012200052552 4328.1183800192439 730.67775106471845 728.32554642456205
leaf_weight=21407 34 1141 854
leaf_count=21407 34 1141 854
internal_value=0 -34.1115 866.155
internal_weight=0 22548 888
internal_count=23436 22548 888
is_linear=0
shrinkage=0.1


Tree=61
num_leaves=4
num_cat=0
split_feature=2 0 1
split_gain=6.59037e+10 1.83744e+11 1.51246e+11
threshold=72.812500000000014 1255457.1260685353 1009.3006250000001
decision_type=2 2 2
left_child=2 -2 -1
right_child=1 -3 -4
leaf_value=-602.48559541873976 -27.099334113436356 1195.5593559930933 76.377896270196942
leaf_weight=4499 5196 1610 12131
leaf_count=4499 5196 1610 12131
internal_value=0 262.128 -107.279
internal_weight=0 6806 16630
internal_count=23436 6806 16630
is_linear=0
shrinkage=0.1


Tree=62
num_leaves=4
num_cat=0
split_feature=1 0 3
split_gain=6.85607e+10 1.22159e+11 1.05528e+11
threshold=1013.5006250000001 1444249.6690000002 79.666666668333363
decision_type=2 2 2
left_child=2 -2 -1
right_child=1 -3 -4
leaf_value=380.79009826300086 -346.09772720194348 -7656.2905315896751 -100.52367061922456
leaf_weight=7167 3746 23 12500
leaf_count=7167 3746 23 12500
internal_value=0 -390.708 74.8755
internal_weight=0 3769 19667
internal_count=23436 3769 19667
is_linear=0
shrinkage=0.1


Tree=63
num_leaves=4
num_cat=0
split_feature=0 3 3
split_gain=6.55399e+10 1.41332e+11 6.743e+10
threshold=1502787.6915000004 77.208333335000006 63.624999998333358
decision_type=2 2 2
left_child=2 -2 -1
right_child=1 -3 -4
leaf_value=462.04296025784015 -839.6847725246264 4765.9069241610441 -75.528912936739502
leaf_weight=2631 92 88 20625
leaf_count=2631 92 88 20625
internal_value=0 1900.83 -14.7123
internal_weight=0 180 23256
internal_count=23436 180 23256
is_linear=0
shrinkage=0.1


Tree=64
num_leaves=4
num_cat=0
split_feature=3 0 0
split_gain=6.26002e+10 6.84304e+10 4.53689e+10
threshold=97.708333335000006 1432636.0295000004 1198403.5270000002
decision_type=2 2 2
left_child=1 -1 -2
right_child=2 -3 -4
leaf_value=-59.238472541660002 704.0980585356682 761.17024533663641 3362.0308384459699
leaf_weight=21979 310 1066 81
leaf_count=21979 310 1066 81
internal_value=0 -21.2886 1254.72
internal_weight=0 23045 391
internal_count=23436 23045 391
is_linear=0
shrinkage=0.1


Tree=65
num_leaves=4
num_cat=0
split_feature=0 3 4
split_gain=6.07298e+10 7.36331e+10 6.60226e+10
threshold=958203.18805000011 98.208333335000006 7.9131362170000008
decision_type=2 2 2
left_child=2 -2 -1
right_child=1 -3 -4
leaf_value=-1647.4581356102842 15.291232992883216 1751.4706807001401 -32.816524962304349
leaf_weight=457 22164 247 568
leaf_count=457 22164 247 568
internal_value=0 34.4263 -752.71
internal_weight=0 22411 1025
internal_count=23436 22411 1025
is_linear=0
shrinkage=0.1


Tree=66
num_leaves=4
num_cat=0
split_feature=1 5 1
split_gain=5.68864e+10 1.21008e+11 1.10732e+11
threshold=1004.0506250000001 268.93750000000006 1009.3006250000001
decision_type=2 2 2
left_child=1 -1 -2
right_child=2 -3 -4
leaf_value=121.0855114187234 -409.76477242704505 1705.7757678244416 97.264670620370211
leaf_weight=3416 6436 561 13023
leaf_count=3416 6436 561 13023
internal_value=0 344.624 -70.4336
internal_weight=0 3977 19459
internal_count=23436 3977 19459
is_linear=0
shrinkage=0.1


Tree=67
num_leaves=4
num_cat=0
split_feature=1 0 3
split_gain=5.69578e+10 1.51688e+11 7.53205e+10
threshold=1014.0881250000001 1409404.9060000002 81.958333335000006
decision_type=2 2 2
left_child=2 -2 -1
right_child=1 -3 -4
leaf_value=262.51515595715563 -355.7171341902976 -7507.0729988606781 -119.50929197299202
leaf_weight=9531 2619 30 11256
leaf_count=9531 2619 30 11256
internal_value=0 -436.706 55.6519
internal_weight=0 2649 20787
internal_count=23436 2649 20787
is_linear=0
shrinkage=0.1


Tree=68
num_leaves=4
num_cat=0
split_feature=2 0 1
split_gain=5.75341e+10 1.67718e+11 1.04693e+11
threshold=71.562500000000014 1026507.2390000002 1008.6793750000001
decision_type=2 2 2
left_child=2 -2 -1
right_child=1 -3 -4
leaf_value=-573.21654758427314 -619.78392925049411 523.90997331650578 32.92934396830789
leaf_weight=3660 1701 5208 12867
leaf_count=3660 1701 5208 12867
internal_value=0 242.332 -101.305
internal_weight=0 6909 16527
internal_count=23436 6909 16527
is_linear=0
shrinkage=0.1


Tree=69
num_leaves=4
num_cat=0
split_feature=1 6 6
split_gain=5.378e+10 4.97811e+10 2.1161e+10
threshold=999.08500000000015 5.6181250000000009 19.898125000000004
decision_type=2 2 2
left_child=2 -2 -1
right_child=1 -3 -4
leaf_value=259.58663389342172 -385.19516550876534 47.550464235651248 3616.6586785567438
leaf_weight=28 3059 20292 57
leaf_count=28 3059 20292 57
internal_value=0 -9.13957 2510.8
internal_weight=0 23351 85
internal_count=23436 23351 85
is_linear=0
shrinkage=0.1


Tree=70
num_leaves=4
num_cat=0
split_feature=5 0 3
split_gain=4.92331e+10 1.61851e+11 9.10809e+10
threshold=220.68750000000003 1047779.5505000001 77.708333335000006
decision_type=2 2 2
left_child=1 -1 -2
right_child=2 -3 -4
leaf_value=-246.51342596456112 203.53301991414585 548.71297520903306 -336.24864888584466
leaf_weight=4953 5093 5296 8094
leaf_count=4953 5093 5296 8094
internal_value=0 164.407 -127.778
internal_weight=0 10249 13187
internal_count=23436 10249 13187
is_linear=0
shrinkage=0.1


Tree=71
num_leaves=4
num_cat=0
split_feature=1 6 5
split_gain=5.40894e+10 1.10233e+11 7.37869e+10
threshold=1013.5006250000001 15.201875000000003 217.93750000000003
decision_type=2 2 2
left_child=2 -2 -1
right_child=1 -3 -4
leaf_value=310.88939678745646 -576.02283448133073 930.19644125028015 -87.015672345750602
leaf_weight=7588 3196 573 12079
leaf_count=7588 3196 573 12079
internal_value=0 -347.033 66.5056
internal_weight=0 3769 19667
internal_count=23436 3769 19667
is_linear=0
shrinkage=0.1


Tree=72
num_leaves=4
num_cat=0
split_feature=6 5 1
split_gain=5.05735e+10 1.62953e+11 1.30479e+11
threshold=11.350625000000003 161.56250000000003 1004.3018750000001
decision_type=2 2 2
left_child=2 -2 -1
right_child=1 -3 -4
leaf_value=1178.7471149985554 1113.1367505424519 3.837202026593399 -248.10040907349628
leaf_weight=684 1504 11079 10169
leaf_count=684 1504 11079 10169
internal_value=0 136.428 -158.175
internal_weight=0 12583 10853
internal_count=23436 12583 10853
is_linear=0
shrinkage=0.1


Tree=73
num_leaves=4
num_cat=0
split_feature=6 0 4
split_gain=4.78519e+10 4.77805e+10 3.21233e+10
threshold=24.779375000000005 1518992.8815000004 27.241886220000001
decision_type=2 2 2
left_child=1 -1 -2
right_child=2 -3 -4
leaf_value=-37.15159811141983 822.40722181622994 2381.1438571836893 -2813.7372363281252
leaf_weight=22466 863 82 25
leaf_count=22466 863 82 25
internal_value=0 -28.357 720.038
internal_weight=0 22548 888
internal_count=23436 22548 888
is_linear=0
shrinkage=0.1


Tree=74
num_leaves=4
num_cat=0
split_feature=1 0 0
split_gain=4.34467e+10 9.93973e+10 6.76273e+10
threshold=1013.5006250000001 1444249.6690000002 1360054.9330000002
decision_type=2 2 2
left_child=2 -2 -1
right_child=1 -3 -4
leaf_value=-10.248756615733711 -270.78359840406307 -6864.8377709430197 551.86618353044548
leaf_weight=17223 3746 23 2444
leaf_count=17223 3746 23 2444
internal_value=0 -311.023 59.6047
internal_weight=0 3769 19667
internal_count=23436 3769 19667
is_linear=0
shrinkage=0.1


Tree=75
num_leaves=4
num_cat=0
split_feature=1 0 0
split_gain=4.29576e+10 4.06548e+10 1.69604e+10
threshold=999.08500000000015 958203.18805000011 986201.63405000011
decision_type=2 2 2
left_child=2 -2 -1
right_child=1 -3 -4
leaf_value=331.36984903971359 -630.67774557079463 19.799569708786649 3287.2430336692119
leaf_weight=30 1004 22347 55
leaf_count=30 1004 22347 55
internal_value=0 -8.16836 2243.99
internal_weight=0 23351 85
internal_count=23436 23351 85
is_linear=0
shrinkage=0.1


Tree=76
num_leaves=4
num_cat=0
split_feature=3 0 0
split_gain=4.01127e+10 9.34273e+10 5.8473e+10
threshold=95.625000000000014 1438608.2210000001 1450337.6895000001
decision_type=2 2 2
left_child=2 -2 -1
right_child=1 -3 -4
leaf_value=-63.420589513808892 656.27925604660584 -5181.9107212611607 812.1716744366247
leaf_weight=21315 1302 28 791
leaf_count=21315 1302 28 791
internal_value=0 533.37 -32.09
internal_weight=0 1330 22106
internal_count=23436 1330 22106
is_linear=0
shrinkage=0.1


Tree=77
num_leaves=4
num_cat=0
split_feature=3 0 0
split_gain=3.89552e+10 8.30135e+10 6.62202e+10
threshold=64.291666665000022 1502787.6915000004 1203935.7710000004
decision_type=2 2 2
left_child=2 -2 -1
right_child=1 -3 -4
leaf_value=795.57995486758637 -64.984144241649304 2328.0211968408871 -170.12814633415405
leaf_weight=1526 20436 146 1328
leaf_count=1526 20436 146 1328
internal_value=0 -48.0092 346.225
internal_weight=0 20582 2854
internal_count=23436 20582 2854
is_linear=0
shrinkage=0.1


end of trees

feature_importances:
load_kw_lag168=136
pressure_kpa_lag168=23
humidity_pct_lag168=22
wind_speed_kmh_lag168=19
cloud_cover_pct_lag168=13
wind_direction_deg_lag168=11
temperature_c_lag168=10

parameters:
[boosting: gbdt]
[objective: regression]
[metric: l1]
[tree_learner: serial]
[device_type: cpu]
[data: ]
[valid: ]
[num_iterations: 100]
[learning_rate: 0.1]
[num_leaves: 4]
[num_threads: 0]
[deterministic: 0]
[force_col_wise: 0]
[force_row_wise: 0]
[histogram_pool_size: -1]
[max_depth: 2]
[min_data_in_leaf: 20]
[min_sum_hessian_in_leaf: 0.001]
[bagging_fraction: 0.5]
[pos_bagging_fraction: 1]
[neg_bagging_fraction: 1]
[bagging_freq: 0]
[bagging_seed: 3]
[feature_fraction: 1]
[feature_fraction_bynode: 1]
[feature_fraction_seed: 2]
[extra_trees: 0]
[extra_seed: 6]
[early_stopping_round: 0]
[first_metric_only: 0]
[max_delta_step: 0]
[lambda_l1: 0]
[lambda_l2: 0]
[linear_lambda: 0]
[min_gain_to_split: 0]
[drop_rate: 0.1]
[max_drop: 50]
[skip_drop: 0.5]
[xgboost_dart_mode: 0]
[uniform_drop: 0]
[drop_seed: 4]
[top_rate: 0.2]
[other_rate: 0.1]
[min_data_per_group: 100]
[max_cat_threshold: 32]
[cat_l2: 10]
[cat_smooth: 10]
[max_cat_to_onehot: 4]
[top_k: 20]
[monotone_constraints: ]
[monotone_constraints_method: basic]
[monotone_penalty: 0]
[feature_contri: ]
[forcedsplits_filename: ]
[refit_decay_rate: 0.9]
[cegb_tradeoff: 1]
[cegb_penalty_split: 0]
[cegb_penalty_feature_lazy: ]
[cegb_penalty_feature_coupled: ]
[path_smooth: 0]
[interaction_constraints: ]
[verbosity: -1]
[saved_feature_importance_type: 0]
[linear_tree: 0]
[max_bin: 255]
[max_bin_by_feature: ]
[min_data_in_bin: 3]
[bin_construct_sample_cnt: 200000]
[data_random_seed: 1]
[is_enable_sparse: 1]
[enable_bundle: 1]
[use_missing: 1]
[zero_as_missing: 0]
[feature_pre_filter: 1]
[pre_partition: 0]
[two_round: 0]
[header: 0]
[label_column: ]
[weight_column: ]
[group_column: ]
[ignore_column: ]
[categorical_feature: ]
[forcedbins_filename: ]
[precise_float_parser: 0]
[objective_seed: 5]
[num_class: 1]
[is_unbalance: 0]
[scale_pos_weight: 1]
[sigmoid: 1]
[boost_from_average: 1]
[reg_sqrt: 0]
[alpha: 0.9]
[fair_c: 1]
[poisson_max_delta_step: 0.7]
[tweedie_variance_power: 1.5]
[lambdarank_truncation_level: 30]
[lambdarank_norm: 1]
[label_gain: ]
[eval_at: ]
[multi_error_top_k: 1]
[auc_mu_weights: ]
[num_machines: 1]
[local_listen_port: 12400]
[time_out: 120]
[machine_list_filename: ]
[machines: ]
[gpu_platform_id: -1]
[gpu_device_id: -1]
[gpu_use_dp: 0]
[num_gpu: 1]

end of parameters

pandas_categorical:[]
