tree
version=v3
num_class=1
num_tree_per_iteration=1
label_index=0
max_feature_idx=6
objective=regression
feature_names=load_kw_lag168 pressure_kpa_lag168 cloud_cover_pct_lag168 humidity_pct_lag168 temperature_c_lag168 wind_direction_deg_lag168 wind_speed_kmh_lag168
feature_infos=[845471.35809999995:1605192.0430000001] [994:1020.06875] [0:100] [33.333333330000002:100] [-6.4181137829999999:36.05188622] [0.5:357.5] [0:91.497500000000002]
tree_sizes=782 757 761 763 761 756 756 750 756 750 765 755 765 760 755 756 758 752 761 749 746 747 759 755 762 752 749 739 755 726 738 742 754 756 734 747

Tree=0
num_leaves=7
num_cat=0
split_feature=0 0 0 0 0 0
split_gain=3.159e+14 4.47746e+13 3.88036e+13 6.60788e+12 5.09531e+12 4.91783e+12
threshold=1175718.4770000002 1313248.1675000002 1060946.0720000004 996787.90525000019 1107971.0990000002 1406289.9860000003
decision_type=2 2 2 2 2 2
left_child=2 -2 3 -1 -4 -3
right_child=1 5 4 -5 -6 -7
leaf_value=1108687.5062851789 1159541.8779231785 1183016.0764547216 1129740.6600522569 1119811.4227801177 1140911.8426847407 1198020.1600619494
leaf_weight=3631 4518 2008 3136 5188 3408 1547
leaf_count=3631 4518 2008 3136 5188 3408 1547
internal_value=1.14072e+06 1.17275e+06 1.12389e+06 1.11523e+06 1.13556e+06 1.18955e+06
internal_weight=0 8073 15363 8819 6544 3555
internal_count=23436 8073 15363 8819 6544 3555
is_linear=0
shrinkage=1


Tree=1
num_leaves=7
num_cat=0
split_feature=0 0 0 0 0 0
split_gain=2.03676e+14 2.76138e+13 2.59052e+13 5.99227e+12 3.06134e+12 2.46154e+12
threshold=1183973.1820000003 1075969.7640000002 1325221.7730000003 1013017.4970000001 1247676.2870000002 1414296.8405000002
decision_type=2 2 2 2 2 2
left_child=1 3 4 -1 -2 -4
right_child=2 -3 5 -5 -6 -7
leaf_value=-24487.18133275838 11815.59820655138 -2086.9615676782246 35486.618423522501 -14657.737670354596 22371.217532422917 46603.077398158486
leaf_weight=4845 2395 5802 1914 5084 2031 1365
leaf_count=4845 2395 5802 1914 5084 2031 1365
internal_value=0 -13048.7 26641 -19454.2 16659.4 40114.2
internal_weight=0 15731 7705 9929 4426 3279
internal_count=23436 15731 7705 9929 4426 3279
is_linear=0
shrinkage=0.2


Tree=2
num_leaves=7
num_cat=0
split_feature=0 0 0 0 0 0
split_gain=1.31453e+14 2.22114e+13 1.34506e+13 2.79375e+12 2.39171e+12 2.24036e+12
threshold=1157017.9565000001 1301260.8015000003 1043681.4925000001 1383903.2700000003 1228661.8200000001 1100300.9210000003
decision_type=2 2 2 2 2 2
left_child=2 4 -1 -3 -2 -4
right_child=1 3 5 -5 -6 -7
leaf_value=-17746.951193408993 6632.0610462949526 24703.615661431457 -8595.3875368392873 35552.125114266681 15387.927448174196 -1448.3254252142683
leaf_weight=7341 2858 1738 4154 2093 2215 3037
leaf_count=7341 2858 1738 4154 2093 2215 3037
internal_value=0 19135.7 -11724.8 30630.5 10455.1 -5576.94
internal_weight=0 8904 14532 3831 5073 7191
internal_count=23436 8904 14532 3831 5073 7191
is_linear=0
shrinkage=0.2


Tree=3
num_leaves=7
num_cat=0
split_feature=0 0 0 0 0 0
split_gain=8.45813e+13 1.38534e+13 8.69952e+12 3.85361e+12 1.38833e+12 1.24141e+12
threshold=1204083.1780000003 1091382.0690000004 1356940.4410000003 987056.51510000008 1274456.8835000002 1137237.7905000004
decision_type=2 2 2 2 2 2
left_child=1 3 4 -1 -2 -3
right_child=2 5 -4 -5 -6 -7
leaf_value=-18207.371239456374 9874.1010309937883 -2752.5107293943292 27520.589277813713 -9691.1083901968832 17118.643513850751 3247.3028492337894
leaf_weight=2887 2490 2669 2639 8056 1840 2855
leaf_count=2887 2490 2669 2639 8056 1840 2855
internal_value=0 -7816.34 18469.2 -11937.9 12952.6 348.407
internal_weight=0 16467 6969 10943 4330 5524
internal_count=23436 16467 6969 10943 4330 5524
is_linear=0
shrinkage=0.2


Tree=4
num_leaves=7
num_cat=0
split_feature=0 0 0 0 0 0
split_gain=5.43025e+13 8.33676e+12 7.08249e+12 1.39588e+12 1.31254e+12 1.01746e+12
threshold=1167507.6280000003 1337389.8260000001 1034634.3685000002 1235841.6540000003 1112474.9055000001 971843.90805000009
decision_type=2 2 2 2 2 2
left_child=2 3 5 -2 -4 -1
right_child=1 -3 4 -5 -6 -7
leaf_value=-16225.669772318179 4899.2498842612504 21289.531470561909 -5119.8897343561184 11308.85836427976 202.56974576210746 -10620.810181079869
leaf_weight=1770 2671 3003 5629 2767 2763 4833
leaf_count=1770 2671 3003 5629 2767 2763 4833
internal_value=0 12831.4 -7223.07 8160.63 -3367.51 -12123.2
internal_weight=0 8441 14995 5438 8392 6603
internal_count=23436 8441 14995 5438 8392 6603
is_linear=0
shrinkage=0.2


Tree=5
num_leaves=7
num_cat=0
split_feature=0 0 0 0 0 0
split_gain=3.496e+13 6.22415e+12 3.71701e+12 1.30796e+12 8.77692e+11 7.69385e+11
threshold=1204083.1780000003 1049165.3525000003 1361254.8350000002 1129778.9500000002 974882.22810000007 1453768.5155000002
decision_type=2 2 2 2 2 2
left_child=1 4 -2 -3 -1 -4
right_child=2 3 5 -5 -6 -7
leaf_value=-12788.087784765201 8367.4067463949232 -3225.7408844304432 15760.124836204446 1859.0859104848894 -7894.3166648233637 23453.204327727937
leaf_weight=1956 4421 5437 1820 3223 5851 728
leaf_count=1956 4421 5437 1820 3223 5851 728
internal_value=0 -5025.18 11874 -1333.32 -9120.42 17958.1
internal_weight=0 16467 6969 8660 7807 2548
internal_count=23436 16467 6969 8660 7807 2548
is_linear=0
shrinkage=0.2


Tree=6
num_leaves=7
num_cat=0
split_feature=0 0 0 0 6 0
split_gain=2.24389e+13 4.3415e+12 2.73994e+12 8.9898e+11 5.48863e+11 3.28911e+11
threshold=1155191.8410000002 1277986.2325000002 1022246.2890000001 1453768.5155000002 10.936875000000002 963842.2901000001
decision_type=2 2 2 2 2 2
left_child=2 -2 5 -3 -4 -1
right_child=1 3 4 -5 -6 -7
leaf_value=-11131.930829325484 3554.0455023308905 11066.974131871651 -4219.9462584595994 18762.563667448278 -1068.0619693629601 -7504.5081932220928
leaf_weight=1304 4609 3659 4567 728 4282 4287
leaf_count=1304 4609 3659 4567 728 4282 4287
internal_value=0 7840.57 -4884.61 12344 -2694.76 -8350.54
internal_weight=0 8996 14440 4387 8849 5591
internal_count=23436 8996 14440 4387 8849 5591
is_linear=0
shrinkage=0.2


Tree=7
num_leaves=7
num_cat=0
split_feature=0 0 0 0 1 2
split_gain=1.46994e+13 2.94585e+12 1.44212e+12 6.70324e+11 3.46547e+11 3.40725e+11
threshold=1214286.746 1082508.1435000002 1366053.8000000003 1008817.8550000001 1014.2493750000001 98.312500000000014
decision_type=2 2 2 2 2 2
left_child=1 3 5 -1 -4 -2
right_child=2 -3 4 -5 -6 -7
leaf_value=-7034.2710779333593 5251.5819561017188 222.16569394966228 12281.575788358348 -3797.3792300853756 -942.79333734279726 12690.376946232438
leaf_weight=4565 3878 6449 2375 5824 82 263
leaf_count=4565 3878 6449 2375 5824 82 263
internal_value=0 -3135.45 8001.61 -5219.69 11840.2 5724.03
internal_weight=0 16838 6598 10389 2457 4141
internal_count=23436 16838 6598 10389 2457 4141
is_linear=0
shrinkage=0.2


Tree=8
num_leaves=7
num_cat=0
split_feature=0 0 0 0 6 1
split_gain=9.56142e+12 2.09191e+12 9.79218e+11 4.26783e+11 2.82954e+11 2.46972e+11
threshold=1140968.4480000001 1289494.0710000002 1028096.2070000001 1424441.8275000001 11.510625000000003 1013.8881250000001
decision_type=2 2 2 2 2 2
left_child=2 -2 -1 -3 -4 -5
right_child=1 3 4 5 -6 -7
leaf_value=-5283.1431023309578 2293.2854271349565 6954.8228939959881 -2979.1773514803954 11872.317938709013 -548.87004390507127 -8625.075927734375
leaf_weight=6051 5531 2926 4266 1159 3479 24
leaf_count=6051 5531 2926 4266 1159 3479 24
internal_value=0 4832.68 -3376.85 8250.87 -1887.5 11456.5
internal_weight=0 9640 13796 4109 7745 1183
internal_count=23436 9640 13796 4109 7745 1183
is_linear=0
shrinkage=0.2


Tree=9
num_leaves=7
num_cat=0
split_feature=0 0 0 6 3 2
split_gain=6.22152e+12 1.37131e+12 5.33246e+11 3.99236e+11 3.43407e+11 3.08296e+11
threshold=1224019.9520000003 1091382.0690000004 1387863.9780000004 10.290625 76.125000000000014 85.937500000000014
decision_type=2 2 2 2 2 2
left_child=1 3 5 -1 -5 -2
right_child=2 -3 -4 4 -6 -7
leaf_value=-4324.2264069131106 3558.636161255572 399.28861880030627 8104.3894325187757 1030.3516293306964 -2919.0304013307318 9140.5121324496049
leaf_weight=6427 3786 6263 2002 1199 3317 442
leaf_count=6427 3786 6263 2002 1199 3317 442
internal_value=0 -1960.83 5415.42 -3311.6 -1870.47 4142.17
internal_weight=0 17206 6230 10943 4516 4228
internal_count=23436 17206 6230 10943 4516 4228
is_linear=0
shrinkage=0.2


Tree=10
num_leaves=7
num_cat=0
split_feature=0 0 0 0 6 3
split_gain=4.06141e+12 9.88667e+11 4.96687e+11 2.58668e+11 2.36233e+11 2.38392e+11
threshold=1131475.5265000004 1267584.5815000003 982134.20205000008 1453768.5155000002 9.3543750000000028 74.208333335000006
decision_type=2 2 2 2 2 2
left_child=2 -2 -1 -3 -4 -6
right_child=1 3 4 -5 5 -7
leaf_value=-4823.0240494077771 1192.8567465125627 4521.3492435852786 -2699.3806699178967 8625.2421777096424 1564.8285984804625 -1519.0819808659228
leaf_weight=2515 5437 3935 5063 728 1293 4465
leaf_count=2515 5437 3935 5063 728 1293 4465
internal_value=0 3025.37 -2291.26 5162.06 -1702.83 -826.568
internal_weight=0 10100 13336 4663 10821 5758
internal_count=23436 10100 13336 4663 10821 5758
is_linear=0
shrinkage=0.2


Tree=11
num_leaves=7
num_cat=0
split_feature=0 0 0 5 3 4
split_gain=2.64583e+12 5.5892e+11 3.35039e+11 2.85121e+11 2.45371e+11 2.4419e+11
threshold=1198577.6670000001 1049165.3525000003 1309144.1020000002 314.81250000000006 58.708333335000006 9.5931362170000032
decision_type=2 2 2 2 2 2
left_child=1 5 -2 -4 -3 -1
right_child=2 4 3 -5 -6 -7
leaf_value=-4554.1074251032678 1810.1776479867958 4932.2898720801913 5103.2565658737094 -1086.4434877891424 -505.89294997989475 -1979.3598842496658
leaf_weight=1971 3506 346 3320 327 8130 5836
leaf_count=1971 3506 346 3320 327 8130 5836
internal_value=0 -1408.46 3206.21 4548.27 -283.9 -2629.4
internal_weight=0 16283 7153 3647 8476 7807
internal_count=23436 16283 7153 3647 8476 7807
is_linear=0
shrinkage=0.2


Tree=12
num_leaves=7
num_cat=0
split_feature=0 0 0 1 1 5
split_gain=1.74242e+12 4.30121e+11 2.47509e+11 1.94642e+11 1.84752e+11 1.97088e+11
threshold=1124802.7465000001 1257949.0440000005 962015.88410000002 1000.5687500000001 1005.8006250000001 297.81250000000006
decision_type=2 2 2 2 2 2
left_child=2 -2 -1 -4 -3 -6
right_child=1 4 3 -5 5 -7
leaf_value=-4271.8724336726518 707.73349589076861 5352.7537835246367 6038.9121723810831 -1359.5824314190604 3472.3977465652733 210.92440930356344
leaf_weight=1211 5529 1272 144 11613 2636 1031
leaf_count=1211 5529 1272 144 11613 2636 1031
internal_value=0 1919.42 -1549.39 -1268.97 3275.85 2555.41
internal_weight=0 10468 12968 11757 4939 3667
internal_count=23436 10468 12968 11757 4939 3667
is_linear=0
shrinkage=0.2


Tree=13
num_leaves=7
num_cat=0
split_feature=0 0 1 6 3 0
split_gain=1.1198e+12 3.10307e+11 2.22273e+11 1.89892e+11 2.02836e+11 1.88937e+11
threshold=1112474.9055000001 1342466.3335000002 1011.3781250000001 8.9906250000000032 74.375000000000014 930166.43110000016
decision_type=2 2 2 2 2 2
left_child=3 -2 -3 5 -5 -1
right_child=1 2 -4 4 -6 -7
leaf_value=-8716.2170675479665 820.76545389307557 4202.6639599806576 111.56532443023376 1453.9442785029844 -1197.1886599508987 -1949.6423196261167
leaf_weight=170 8292 2213 699 1513 4870 5679
leaf_count=170 8292 2213 699 1513 4870 5679
internal_value=0 1444.51 3220.63 -1323.11 -568.775 -2146.31
internal_weight=0 11204 2912 12232 6383 5849
internal_count=23436 11204 2912 12232 6383 5849
is_linear=0
shrinkage=0.2


Tree=14
num_leaves=7
num_cat=0
split_feature=0 0 3 4 0 2
split_gain=7.52308e+11 2.14236e+11 1.74584e+11 2.00293e+11 1.63018e+11 1.41302e+11
threshold=1201705.2610000002 1020036.7265000001 80.291666665000022 17.593136220000002 1472293.1320000002 18.187500000000004
decision_type=2 2 2 2 2 2
left_child=1 -1 -3 -4 -2 -6
right_child=4 2 3 -5 5 -7
leaf_value=-1774.412356760552 1473.4105734256048 703.01992908922057 -153.18946302387212 -2567.0263172635996 -3743.7609086376128 6747.714388537167
leaf_weight=5407 6606 4598 4362 2008 59 396
leaf_count=5407 6606 4598 4362 2008 59 396
internal_value=0 -744.095 -236.17 -914.098 1725.61 5387.28
internal_weight=0 16375 10968 6370 7061 455
internal_count=23436 16375 10968 6370 7061 455
is_linear=0
shrinkage=0.2


Tree=15
num_leaves=7
num_cat=0
split_feature=0 6 1 6 5 0
split_gain=5.10685e+11 2.70656e+11 3.40552e+11 1.99246e+11 1.79314e+11 1.38336e+11
threshold=1257949.0440000005 10.591875000000002 1009.2393750000001 14.329375000000001 160.06250000000003 930166.43110000016
decision_type=2 2 2 2 2 2
left_child=1 5 4 -4 -3 -1
right_child=-2 2 3 -5 -6 -7
leaf_value=-6631.114325636594 1806.740963155187 3431.4420736977991 361.55708527168264 3308.3261932770506 -1015.829761573402 -1135.6174886330673
leaf_weight=187 4939 390 1911 1766 5171 9072
leaf_count=187 4939 390 1911 1766 5171 9072
internal_value=0 -482.429 283.486 1776.84 -703.937 -1246.61
internal_weight=0 18497 9238 3677 5561 9259
internal_count=23436 18497 9238 3677 5561 9259
is_linear=0
shrinkage=0.2


Tree=16
num_leaves=7
num_cat=0
split_feature=0 0 2 1 3 4
split_gain=3.55772e+11 1.54183e+11 1.53986e+11 1.3146e+11 1.24912e+11 1.11283e+11
threshold=1068285.4005000002 1424441.8275000001 98.437500000000014 1013.8881250000001 80.291666665000022 9.5931362170000032
decision_type=2 2 2 2 2 2
left_child=5 2 4 -3 -2 -1
right_child=1 3 -4 -5 -6 -7
leaf_value=-2231.0414533789167 843.72827845592712 3124.7260610796029 3097.9637225651331 -11829.769711303712 -448.60465116062943 -582.4482060798598
leaf_weight=2115 6577 1159 814 24 5488 7259
leaf_count=2115 6577 1159 814 24 5488 7259
internal_value=0 636.228 435.515 2821.34 255.886 -954.411
internal_weight=0 14062 12879 1183 12065 9374
internal_count=23436 14062 12879 1183 12065 9374
is_linear=0
shrinkage=0.2


Tree=17
num_leaves=7
num_cat=0
split_feature=6 0 5 1 6 1
split_gain=2.8327e+11 1.2601e+11 1.96574e+11 1.81474e+11 2.29685e+11 1.64791e+11
threshold=8.9906250000000032 1267584.5815000003 230.06250000000003 1008.6731250000001 17.984375000000004 999.08500000000015
decision_type=2 2 2 2 2 2
left_child=-1 3 -3 5 -5 -2
right_child=1 2 -4 4 -6 -7
leaf_value=-994.68180744816891 8103.7726071346515 4025.1345668615886 711.13295118967324 388.42984515156718 3864.2972964115793 -766.94003301149678
leaf_weight=7693 85 906 3413 4653 909 5777
leaf_count=7693 85 906 3413 4653 909 5777
internal_value=0 486.063 1406.31 138.149 956.492 -638.313
internal_weight=0 15743 4319 11424 5562 5862
internal_count=23436 15743 4319 11424 5562 5862
is_linear=0
shrinkage=0.2


Tree=18
num_leaves=7
num_cat=0
split_feature=6 5 0 5 2 0
split_gain=1.84793e+11 9.80019e+10 2.08449e+11 1.13943e+11 2.41304e+11 1.63204e+11
threshold=8.6056250000000016 203.93750000000003 1025666.1590000001 260.06250000000006 74.937500000000014 1342466.3335000002
decision_type=2 2 2 2 2 2
left_child=-1 2 -2 5 -5 -3
right_child=1 3 -4 4 -6 -7
leaf_value=-848.78520701242951 -1046.1723267200421 -1141.0495836693142 2078.1274949305621 62.411752413830676 3141.9652443637056 2263.7154214075008
leaf_weight=7136 1188 4132 3040 6065 1223 652
leaf_count=7136 1188 4132 3040 6065 1223 652
internal_value=0 371.591 1200.25 81.3682 579.192 -677.022
internal_weight=0 16300 4228 12072 7288 4784
internal_count=23436 16300 4228 12072 7288 4784
is_linear=0
shrinkage=0.2


Tree=19
num_leaves=7
num_cat=0
split_feature=6 1 5 1 0 0
split_gain=1.37989e+11 1.35962e+11 1.16811e+11 1.27716e+11 1.0937e+11 8.43251e+10
threshold=11.353125 1004.3018750000001 148.31250000000003 1011.4137500000001 922309.25810000009 1501993.9260000002
decision_type=2 2 2 2 2 2
left_child=1 -1 3 -2 -3 -6
right_child=2 4 -4 -5 5 -7
leaf_value=2259.9589915537763 5128.7813429793396 -6884.929515521294 240.57561874175377 919.75082115738485 -655.12999036398764 11740.456773792614
leaf_weight=662 415 113 11127 945 10152 22
leaf_count=662 415 113 11127 945 10152 22
internal_value=0 -518.266 454.432 2204.12 -697.053 -628.326
internal_weight=0 10949 12487 1360 10287 10174
internal_count=23436 10949 12487 1360 10287 10174
is_linear=0
shrinkage=0.2


Tree=20
num_leaves=7
num_cat=0
split_feature=0 5 1 6 4 0
split_gain=1.03123e+11 8.4977e+10 1.07619e+11 1.11129e+11 1.00855e+11 7.96962e+10
threshold=1068285.4005000002 219.81250000000003 1005.9400000000002 14.521875000000003 12.023136220000003 1501993.9260000002
decision_type=2 2 2 2 2 2
left_child=-1 2 4 -4 -2 -3
right_child=1 5 3 -5 -6 -7
leaf_value=-513.83900238872718 9169.8072200853003 -62.913983956491464 152.40433901722579 3285.3004861554941 2322.9528176845301 4813.3131024528948
leaf_weight=9374 98 9445 3148 529 706 136
leaf_count=9374 98 9445 3148 529 706 136
internal_value=0 342.535 1061.45 603.126 3157.52 6.30289
internal_weight=0 14062 4481 3677 804 9581
internal_count=23436 14062 4481 3677 804 9581
is_linear=0
shrinkage=0.2


Tree=21
num_leaves=7
num_cat=0
split_feature=1 3 2 0 5 6
split_gain=9.62087e+10 1.19909e+11 1.30687e+11 1.19766e+11 8.46653e+10 7.54293e+10
threshold=1013.485 81.875000000000014 87.062500000000014 1459667.6360000002 268.18750000000006 15.191250000000002
decision_type=2 2 2 2 2 2
left_child=1 -1 3 -3 -4 -2
right_child=5 2 4 -5 -6 -7
leaf_value=738.98081322413907 -1287.5547541237404 -711.92742392191826 582.51536118303773 4338.5723332325615 3976.714823486328 1187.4309122822203
leaf_weight=8599 3267 8612 1836 192 350 580
leaf_count=8599 3267 8612 1836 192 350 580
internal_value=0 179.577 -258.122 -601.785 1125.96 -914.409
internal_weight=0 19589 10990 8804 2186 3847
internal_count=23436 19589 10990 8804 2186 3847
is_linear=0
shrinkage=0.2


Tree=22
num_leaves=7
num_cat=0
split_feature=1 0 3 3 0 1
split_gain=7.82945e+10 7.66435e+10 6.39809e+10 1.00147e+11 7.15702e+10 5.72855e+10
threshold=999.08500000000015 982134.20205000008 94.875000000000014 82.041666665000022 1447015.0840000003 1012.9137500000001
decision_type=2 2 2 2 2 2
left_child=-1 5 3 -3 -4 -2
right_child=1 2 4 -5 -6 -7
leaf_value=6058.9464668543205 -419.48310521092139 417.46931831941424 1720.4611807944073 -492.00670372424668 -9090.8351616210948 -2485.1300945452067
leaf_weight=85 1700 10951 1207 8683 25 785
leaf_count=85 1700 10951 1207 8683 25 785
internal_value=0 -22.0552 102.988 15.2599 1501.08 -1072.01
internal_weight=0 23351 20866 19634 1232 2485
internal_count=23436 23351 20866 19634 1232 2485
is_linear=0
shrinkage=0.2


Tree=23
num_leaves=7
num_cat=0
split_feature=1 0 0 3 3 1
split_gain=6.04205e+10 8.28005e+10 5.95438e+10 1.40995e+11 6.29672e+10 1.03246e+11
threshold=1014.1093750000001 1410653.1100000001 1501993.9260000002 61.291666665000008 79.625000000000014 1004.0537500000002
decision_type=2 2 2 2 2 2
left_child=2 -2 4 -4 -1 -6
right_child=1 -3 3 -5 5 -7
leaf_value=517.94721844150911 -785.77538421385225 -11719.939798409599 -10185.098652343751 6007.9328872482502 699.01457405435985 -565.25869004811136
leaf_weight=8086 2609 28 25 154 3642 8892
leaf_count=8086 2609 28 25 154 3642 8892
internal_value=0 -901.876 114.344 3746.34 82.8153 -197.899
internal_weight=0 2637 20799 179 20620 12534
internal_count=23436 2637 20799 179 20620 12534
is_linear=0
shrinkage=0.2


Tree=24
num_leaves=7
num_cat=0
split_feature=6 5 0 2 3 1
split_gain=5.20963e+10 5.05542e+10 8.00071e+10 6.48284e+10 6.00797e+10 9.13749e+10
threshold=5.6393750000000002 223.81250000000003 1057756.0140000002 60.062500000000007 72.958333335000006 1011.7006250000001
decision_type=2 2 2 2 2 2
left_child=-1 2 -2 -4 5 -3
right_child=1 4 3 -5 -6 -7
leaf_value=-757.27459110046607 -195.14474773302072 1676.712110485596 499.18180119004393 2091.9222606316898 -408.24219032077781 -409.23251680242379
leaf_weight=3146 3568 1602 2812 1606 8936 1766
leaf_count=3146 3568 1602 2812 1606 8936 1766
internal_value=0 117.417 509.272 1078.16 -136.92 582.954
internal_weight=0 20290 7986 4418 12304 3368
internal_count=23436 20290 7986 4418 12304 3368
is_linear=0
shrinkage=0.2


Tree=25
num_leaves=7
num_cat=0
split_feature=1 0 4 2 3 1
split_gain=4.74691e+10 4.38847e+10 6.89322e+10 7.9869e+10 4.88271e+10 4.85638e+10
threshold=999.08500000000015 958101.62310000008 9.4431362170000011 31.187500000000004 98.208333335000006 1009.3387500000001
decision_type=2 2 2 2 2 2
left_child=-1 2 -2 -4 5 -3
right_child=1 4 3 -5 -6 -7
leaf_value=4717.7742915613517 -2928.7490285435542 -325.80575853225514 4870.2405410003657 -1067.5618553244101 2921.0352288569502 271.72055365797991
leaf_weight=85 514 9664 120 370 233 12450
leaf_count=85 514 9664 120 370 233 12450
internal_value=0 -17.1732 -1310.7 386.594 40.9422 10.5966
internal_weight=0 23351 1004 490 22347 22114
internal_count=23436 23351 1004 490 22347 22114
is_linear=0
shrinkage=0.2


Tree=26
num_leaves=7
num_cat=0
split_feature=6 0 4 5 0 1
split_gain=4.4453e+10 4.53131e+10 5.28664e+10 3.72021e+10 1.12155e+11 9.7778e+10
threshold=25.258125000000003 1518353.6690000002 22.903136220000004 282.18750000000006 1366053.8000000003 1004.2262500000001
decision_type=2 2 2 2 2 2
left_child=1 3 -3 4 -1 -5
right_child=-2 2 -4 5 -6 -7
leaf_value=-70.811015554980017 1556.1138152819003 10108.597406969573 -22.606737467447918 3591.8899444307604 1801.5237751868463 -670.33834828507315
leaf_weight=15484 712 38 45 224 1395 5538
leaf_count=15484 712 38 45 224 1395 5538
internal_value=0 -48.757 4615.78 -65.8567 83.932 -504.643
internal_weight=0 22724 83 22641 16879 5762
internal_count=23436 22724 83 22641 16879 5762
is_linear=0
shrinkage=0.2


Tree=27
num_leaves=7
num_cat=0
split_feature=1 3 0 6 1 0
split_gain=3.63043e+10 6.366e+10 8.16157e+10 5.64617e+10 5.35489e+10 1.14778e+11
threshold=1013.485 59.125000000000007 1441224.5110000002 19.693750000000005 1010.1481250000001 1289494.0710000002
decision_type=2 2 2 2 2 2
left_child=4 3 -3 -2 5 -1
right_child=1 2 -4 -5 -6 -7
leaf_value=-472.53319557746045 574.28829000019493 -859.0066880940102 -13675.796328125001 6569.4640455845429 516.70979278790844 1082.6763170279207
leaf_weight=9408 614 3143 20 70 7803 2378
leaf_count=9408 614 3143 20 70 7803 2378
internal_value=0 -561.71 -940.049 1187.83 110.312 -158.747
internal_weight=0 3847 3163 684 19589 11786
internal_count=23436 3847 3163 684 19589 11786
is_linear=0
shrinkage=0.2


Tree=28
num_leaves=7
num_cat=0
split_feature=1 5 2 2 4 0
split_gain=3.26252e+10 9.83905e+10 9.41004e+10 1.45903e+11 8.10346e+10 7.85862e+10
threshold=1004.0537500000002 303.06250000000006 78.562500000000014 73.062500000000014 12.208136220000002 1221775.5955000001
decision_type=2 2 2 2 2 2
left_child=1 -1 3 -2 -4 -6
right_child=2 -3 4 -5 5 -7
leaf_value=378.34594240976497 -126.26924546657149 7107.2285176652213 977.75319176538824 1950.5797226421889 -2709.961431271432 652.2486555056139
leaf_weight=3722 16005 89 466 1478 1324 352
leaf_count=3722 16005 89 466 1478 1324 352
internal_value=0 535.489 -103.987 49.306 -1355.17 -2003.82
internal_weight=0 3811 19625 17483 2142 1676
internal_count=23436 3811 19625 17483 2142 1676
is_linear=0
shrinkage=0.2


Tree=29
num_leaves=7
num_cat=0
split_feature=2 0 5 5 0 4
split_gain=2.90429e+10 1.1261e+11 1.56951e+11 6.90196e+10 6.35414e+10 4.63412e+10
threshold=99.937500000000014 1429228.4265000003 260.06250000000006 165.31250000000003 1214286.746 17.703136220000001
decision_type=2 2 2 2 2 2
left_child=-1 3 -3 4 -2 -5
right_child=1 2 -4 5 -6 -7
leaf_value=-53.5361077409855 3188.8562816336498 -20501.411890709918 2391.3991259765626 816.83099651185296 13151.067616170247 -8905.3781347656241
leaf_weight=22155 175 23 25 1008 30 20
leaf_count=22155 175 23 25 1008 30 20
internal_value=0 925.911 -8578.07 1295.9 4646.74 627.683
internal_weight=0 1281 48 1233 205 1028
internal_count=23436 1281 48 1233 205 1028
is_linear=0
shrinkage=0.2


Tree=30
num_leaves=7
num_cat=0
split_feature=6 5 0 3 5 4
split_gain=2.71829e+10 5.32075e+10 1.23132e+11 4.57919e+10 4.17903e+10 2.81654e+10
threshold=26.324375000000003 277.43750000000006 1083883.0290000003 63.958333335000006 232.68750000000003 25.350636220000002
decision_type=2 2 2 2 2 2
left_child=5 4 -3 -4 -2 -1
right_child=1 2 3 -5 -6 -7
leaf_value=-81.776515611506454 4235.9050816632698 18771.425534784226 9675.6569378888162 466.97473551432296 -1405.4175582747027 915.8468662779535
leaf_weight=21797 69 21 27 108 220 1194
leaf_count=21797 69 21 27 108 220 1194
internal_value=0 1548.23 4524.85 2308.71 -58.5274 -29.9666
internal_weight=0 445 156 135 289 22991
internal_count=23436 445 156 135 289 22991
is_linear=0
shrinkage=0.2


Tree=31
num_leaves=7
num_cat=0
split_feature=1 2 4 6 3 0
split_gain=2.62154e+10 5.52158e+10 5.55223e+10 4.64335e+10 4.91416e+10 3.36042e+10
threshold=1014.8756250000001 19.562500000000004 16.250636220000004 18.297500000000003 60.208333335000006 958101.62310000008
decision_type=2 2 2 2 2 2
left_child=5 3 -3 -2 -5 -1
right_child=1 2 -4 4 -6 -7
leaf_value=-1173.8516091209547 -415.59353285708397 -1271.112461375639 -6132.6941663875141 8280.467592865567 -819.04477610033609 105.16607896395763
leaf_weight=855 929 346 129 53 43 21081
leaf_count=855 929 346 129 53 43 21081
internal_value=0 -808.909 -2591.42 17.1312 4204.64 55.3138
internal_weight=0 1500 475 1025 96 21936
internal_count=23436 1500 475 1025 96 21936
is_linear=0
shrinkage=0.2


Tree=32
num_leaves=7
num_cat=0
split_feature=5 5 0 4 0 3
split_gain=2.70216e+10 7.93084e+10 7.5971e+10 9.10556e+10 6.3983e+10 6.12543e+10
threshold=282.18750000000006 260.06250000000006 1018791.2760000001 11.955636220000001 1337389.8260000001 73.125000000000014
decision_type=2 2 2 2 2 2
left_child=1 4 3 -2 -1 -3
right_child=2 5 -4 -5 -6 -7
leaf_value=-173.79351315553819 -1095.1614357192427 2935.5569152844878 -610.95073514322928 3738.081006973287 1344.7180651045794 616.4713128038685
leaf_weight=13669 270 594 5371 369 1208 1955
leaf_count=13669 270 594 5371 369 1208 1955
internal_value=0 126.119 -365.684 1695.87 -50.4916 1156.89
internal_weight=0 17426 6010 639 14877 2549
internal_count=23436 17426 6010 639 14877 2549
is_linear=0
shrinkage=0.2


Tree=33
num_leaves=7
num_cat=0
split_feature=3 1 0 4 6 4
split_gain=2.6125e+10 2.63894e+10 7.87462e+10 1.16333e+11 1.08295e+11 5.73089e+10
threshold=98.791666665000022 1009.3387500000001 1289494.0710000002 26.444386220000002 16.468125000000004 13.060636220000001
decision_type=2 2 2 2 2 2
left_child=1 2 3 -1 -4 -3
right_child=-2 5 4 -5 -6 -7
leaf_value=-443.420920136321 2470.3159436753217 -382.11106405554898 3697.9955276453184 -6452.230307286387 105.67037234081994 486.08549880703345
leaf_weight=7964 170 4789 423 131 1626 8333
leaf_count=7964 170 4789 423 131 1626 8333
internal_value=0 -18.0501 -260.309 -540.66 847.278 169.229
internal_weight=0 23266 10144 8095 2049 13122
internal_count=23436 23266 10144 8095 2049 13122
is_linear=0
shrinkage=0.2


Tree=34
num_leaves=7
num_cat=0
split_feature=1 0 6 3 2 3
split_gain=2.39679e+10 3.15952e+10 4.02576e+10 3.08187e+10 2.98106e+10 2.17219e+10
threshold=1001.7281250000002 1242667.3200000001 23.814375000000002 82.875000000000014 75.062500000000014 89.625000000000014
decision_type=2 2 2 2 2 2
left_child=1 3 4 -1 -3 -2
right_child=5 2 -4 -5 -6 -7
leaf_value=-5627.852822265625 69.715311966948278 5208.3704117838543 -8233.0743113550652 2411.8520810092455 -4248.4655253092451 -409.33531911509164
leaf_weight=20 18137 30 29 411 24 4785
leaf_count=20 18137 30 29 411 24 4785
internal_value=0 1350.67 -2222.54 2038.78 1005.33 -30.2872
internal_weight=0 514 83 431 54 22922
internal_count=23436 514 83 431 54 22922
is_linear=0
shrinkage=0.2


Tree=35
num_leaves=7
num_cat=0
split_feature=2 1 4 0 3 0
split_gain=2.2926e+10 9.31592e+10 8.36453e+10 1.04524e+11 7.70816e+10 5.69544e+10
threshold=16.562500000000004 1008.0887500000001 23.314386220000006 1052453.8630000001 75.375000000000014 1135306.0885000003
decision_type=2 2 2 2 2 2
left_child=1 -1 -2 4 -4 -5
right_child=2 -3 3 5 -6 -7
leaf_value=-3481.4791711182315 -18.709427199118537 -136.38793234309497 10698.001510825525 -1695.8285256397482 -2953.0512718563987 1641.6671372148642
leaf_weight=351 15002 6501 78 245 21 1238
leaf_count=351 15002 6501 78 245 21 1238
internal_value=0 -307.743 127.15 1510.33 7802.32 1090.29
internal_weight=0 6852 16584 1582 99 1483
internal_count=23436 6852 16584 1582 99 1483
is_linear=0
shrinkage=0.2


end of trees

feature_importances:
load_kw_lag168=101
pressure_kpa_lag168=28
humidity_pct_lag168=21
wind_speed_kmh_lag168=20
wind_direction_deg_lag168=18
cloud_cover_pct_lag168=14
temperature_c_lag168=14

parameters:
[boosting: gbdt]
[objective: regression]
[metric: l1]
[tree_learner: serial]
[device_type: cpu]
[data: ]
[valid: ]
[num_iterations: 100]
[learning_rate: 0.2]
[num_leaves: 7]
[num_threads: 0]
[deterministic: 0]
[force_col_wise: 0]
[force_row_wise: 0]
[histogram_pool_size: -1]
[max_depth: 4]
[min_data_in_leaf: 20]
[min_sum_hessian_in_leaf: 0.001]
[bagging_fraction: 0.5]
[pos_bagging_fraction: 1]
[neg_bagging_fraction: 1]
[bagging_freq: 0]
[bagging_seed: 3]
[feature_fraction: 1]
[feature_fraction_bynode: 1]
[feature_fraction_seed: 2]
[extra_trees: 0]
[extra_seed: 6]
[early_stopping_round: 0]
[first_metric_only: 0]
[max_delta_step: 0]
[lambda_l1: 0]
[lambda_l2: 0]
[linear_lambda: 0]
[min_gain_to_split: 0]
[drop_rate: 0.1]
[max_drop: 50]
[skip_drop: 0.5]
[xgboost_dart_mode: 0]
[uniform_drop: 0]
[drop_seed: 4]
[top_rate: 0.2]
[other_rate: 0.1]
[min_data_per_group: 100]
[max_cat_threshold: 32]
[cat_l2: 10]
[cat_smooth: 10]
[max_cat_to_onehot: 4]
[top_k: 20]
[monotone_constraints: ]
[monotone_constraints_method: basic]
[monotone_penalty: 0]
[feature_contri: ]
[forcedsplits_filename: ]
[refit_decay_rate: 0.9]
[cegb_tradeoff: 1]
[cegb_penalty_split: 0]
[cegb_penalty_feature_lazy: ]
[cegb_penalty_feature_coupled: ]
[path_smooth: 0]
[interaction_constraints: ]
[verbosity: -1]
[saved_feature_importance_type: 0]
[linear_tree: 0]
[max_bin: 255]
[max_bin_by_feature: ]
[min_data_in_bin: 3]
[bin_construct_sample_cnt: 200000]
[data_random_seed: 1]
[is_enable_sparse: 1]
[enable_bundle: 1]
[use_missing: 1]
[zero_as_missing: 0]
[feature_pre_filter: 1]
[pre_partition: 0]
[two_round: 0]
[header: 0]
[label_column: ]
[weight_column: ]
[group_column: ]
[ignore_column: ]
[categorical_feature: ]
[forcedbins_filename: ]
[precise_float_parser: 0]
[objective_seed: 5]
[num_class: 1]
[is_unbalance: 0]
[scale_pos_weight: 1]
[sigmoid: 1]
[boost_from_average: 1]
[reg_sqrt: 0]
[alpha: 0.9]
[fair_c: 1]
[poisson_max_delta_step: 0.7]
[tweedie_variance_power: 1.5]
[lambdarank_truncation_level: 30]
[lambdarank_norm: 1]
[label_gain: ]
[eval_at: ]
[multi_error_top_k: 1]
[auc_mu_weights: ]
[num_machines: 1]
[local_listen_port: 12400]
[time_out: 120]
[machine_list_filename: ]
[machines: ]
[gpu_platform_id: -1]
[gpu_device_id: -1]
[gpu_use_dp: 0]
[num_gpu: 1]

end of parameters

pandas_categorical:[]
