{"learner":{"attributes":{"best_iteration":"28","best_score":"34413.08203725039"},"feature_names":["load_kw_lag168","pressure_kpa_lag168","cloud_cover_pct_lag168","humidity_pct_lag168","temperature_c_lag168","wind_direction_deg_lag168","wind_speed_kmh_lag168"],"feature_types":["float","float","float","float","float","float","float"],"gradient_booster":{"model":{"gbtree_model_param":{"num_parallel_tree":"1","num_trees":"39"},"iteration_indptr":[0,1,2,3,4,5,6,7,8,9,10,11,12,13,14,15,16,17,18,19,20,21,22,23,24,25,26,27,28,29,30,31,32,33,34,35,36,37,38,39],"tree_info":[0,0,0,0,0,0,0,0,0,0,0,0,0,0,0,0,0,0,0,0,0,0,0,0,0,0,0,0,0,0,0,0,0,0,0,0,0,0,0],"trees":[{"base_weights":[4.8151333E-3,-8.1463164E-1,8.3804405E-1,-2.7225047E-1,-9.926005E-2,1.2203812E-1,2.8559527E-1],"categories":[],"categories_nodes":[],"categories_segments":[],"categories_sizes":[],"default_left":[0,0,0,0,0,0,0],"id":0,"left_children":[1,3,5,-1,-1,-1,-1],"loss_changes":[7.941492E3,2.6315332E2,2.8298486E2,0E0,0E0,0E0,0E0],"parents":[2147483647,0,0,1,1,2,2],"right_children":[2,4,6,-1,-1,-1,-1],"split_conditions":[1.1073114E6,1.0766035E6,1.1535709E6,-2.6518455E4,-4.9023003E3,5.9180625E3,4.9305133E4],"split_indices":[0,0,0,0,0,0,0],"split_type":[0,0,0,0,0,0,0],"sum_hessian":[1.1629E4,5.863E3,5.766E3,4.918E3,9.45E2,1.206E3,4.56E3],"tree_param":{"num_deleted":"0","num_feature":"7","num_nodes":"7","size_leaf_vector":"1"}},{"base_weights":[-1.7046427E-2,-6.8967247E-1,6.902126E-1,-2.636204E-1,-9.395605E-2,9.044555E-2,2.7116016E-1],"categories":[],"categories_nodes":[],"categories_segments":[],"categories_sizes":[],"default_left":[0,0,0,0,0,0,0],"id":1,"left_children":[1,3,5,-1,-1,-1,-1],"loss_changes":[5.5540415E3,4.2566138E2,4.7238403E2,0E0,0E0,0E0,0E0],"parents":[2147483647,0,0,1,1,2,2],"right_children":[2,4,6,-1,-1,-1,-1],"split_conditions":[1.110285E6,1.0510402E6,1.1934209E6,-2.2349016E4,-4.6774126E3,4.824338E3,4.3517363E4],"split_indices":[0,0,0,0,0,0,0],"split_type":[0,0,0,0,0,0,0],"sum_hessian":[1.1673E4,5.983E3,5.69E3,3.982E3,2.001E3,2.019E3,3.671E3],"tree_param":{"num_deleted":"0","num_feature":"7","num_nodes":"7","size_leaf_vector":"1"}},{"base_weights":[-2.4296017E-2,-6.17726E-1,5.222625E-1,-2.597671E-1,-9.856645E-2,5.5164475E-2,2.5864464E-1],"categories":[],"categories_nodes":[],"categories_segments":[],"categories_sizes":[],"default_left":[0,0,0,0,0,0,0],"id":2,"left_children":[1,3,5,-1,-1,-1,-1],"loss_changes":[3.7782844E3,4.0050586E2,6.972682E2,0E0,0E0,0E0,0E0],"parents":[2147483647,0,0,1,1,2,2],"right_children":[2,4,6,-1,-1,-1,-1],"split_conditions":[1.0967514E6,1.0280147E6,1.2286575E6,-1.9046523E4,-4.278375E3,3.2209875E3,4.0088645E4],"split_indices":[0,0,0,0,0,0,0],"split_type":[0,0,0,0,0,0,0],"sum_hessian":[1.1647E4,5.584E3,6.063E3,3.004E3,2.58E3,3.039E3,3.024E3],"tree_param":{"num_deleted":"0","num_feature":"7","num_nodes":"7","size_leaf_vector":"1"}},{"base_weights":[-2.5621383E-2,-4.275581E-1,4.9424165E-1,-2.6378757E-1,-7.520471E-2,6.499298E-2,2.5241652E-1],"categories":[],"categories_nodes":[],"categories_segments":[],"categories_sizes":[],"default_left":[0,0,0,0,0,0,0],"id":3,"left_children":[1,3,5,-1,-1,-1,-1],"loss_changes":[2.45498E3,5.292019E2,4.935078E2,0E0,0E0,0E0,0E0],"parents":[2147483647,0,0,1,1,2,2],"right_children":[2,4,6,-1,-1,-1,-1],"split_conditions":[1.1286121E6,9.972243E5,1.274113E6,-1.7500633E4,-3.0338252E3,3.4161E3,4.085734E4],"split_indices":[0,0,0,0,0,0,0],"split_type":[0,0,0,0,0,0,0],"sum_hessian":[1.1747E4,6.625E3,5.122E3,1.863E3,4.762E3,2.847E3,2.275E3],"tree_param":{"num_deleted":"0","num_feature":"7","num_nodes":"7","size_leaf_vector":"1"}},{"base_weights":[-4.0720504E-2,-4.3812284E-1,3.1326663E-1,-2.4224083E-1,-8.8026226E-2,3.1557653E-2,2.528032E-1],"categories":[],"categories_nodes":[],"categories_segments":[],"categories_sizes":[],"default_left":[0,0,0,0,0,0,0],"id":4,"left_children":[1,3,5,-1,-1,-1,-1],"loss_changes":[1.6480079E3,2.947273E2,6.824431E2,0E0,0E0,0E0,0E0],"parents":[2147483647,0,0,1,1,2,2],"right_children":[2,4,6,-1,-1,-1,-1],"split_conditions":[1.0920056E6,9.899491E5,1.31263E6,-1.303502E4,-3.719972E3,1.532025E3,3.492829E4],"split_indices":[0,0,0,0,0,0,0],"split_type":[0,0,0,0,0,0,0],"sum_hessian":[1.1713E4,5.518E3,6.195E3,1.552E3,3.966E3,4.448E3,1.747E3],"tree_param":{"num_deleted":"0","num_feature":"7","num_nodes":"7","size_leaf_vector":"1"}},{"base_weights":[-1.5438417E-2,-1.4261612E-1,7.6167375E-1,-1.824359E-1,-5.428461E-4,1.6994819E-1,2.59944E-1],"categories":[],"categories_nodes":[],"categories_segments":[],"categories_sizes":[],"default_left":[0,0,0,0,0,0,0],"id":5,"left_children":[1,3,5,-1,-1,-1,-1],"loss_changes":[1.1588073E3,6.604402E2,3.324115E1,0E0,0E0,0E0,0E0],"parents":[2147483647,0,0,1,1,2,2],"right_children":[2,4,6,-1,-1,-1,-1],"split_conditions":[1.323929E6,1.01028506E6,1.383285E6,-7.9019067E3,-2.5650002E1,1.15419375E4,3.3203703E4],"split_indices":[0,0,0,0,0,0,0],"split_type":[0,0,0,0,0,0,0],"sum_hessian":[1.1723E4,1.0075E4,1.648E3,2.339E3,7.736E3,5.78E2,1.07E3],"tree_param":{"num_deleted":"0","num_feature":"7","num_nodes":"7","size_leaf_vector":"1"}},{"base_weights":[9.37287E-4,-9.916147E-2,6.941256E-1,-1.1499281E-1,1.3933944E-2,1.2284483E-1,2.2392E-1],"categories":[],"categories_nodes":[],"categories_segments":[],"categories_sizes":[],"default_left":[0,0,0,0,0,0,0],"id":6,"left_children":[1,3,5,-1,-1,-1,-1],"loss_changes":[8.14398E2,4.2435144E2,2.1730957E1,0E0,0E0,0E0,0E0],"parents":[2147483647,0,0,1,1,2,2],"right_children":[2,4,6,-1,-1,-1,-1],"split_conditions":[1.341785E6,1.03794075E6,1.365283E6,-4.907372E3,7.17525E2,6.8916E3,2.0275988E4],"split_indices":[0,0,0,0,0,0,0],"split_type":[0,0,0,0,0,0,0],"sum_hessian":[1.1735E4,1.0255E4,1.48E3,3.474E3,6.781E3,2.31E2,1.249E3],"tree_param":{"num_deleted":"0","num_feature":"7","num_nodes":"7","size_leaf_vector":"1"}},{"base_weights":[2.8171418E-3,-8.376554E-2,5.9425133E-1,-1.8149862E-1,-6.6309227E-3,1.2372671E-1,2.4147399E-1],"categories":[],"categories_nodes":[],"categories_segments":[],"categories_sizes":[],"default_left":[0,0,0,0,0,0,0],"id":7,"left_children":[1,3,5,-1,-1,-1,-1],"loss_changes":[5.998998E2,3.2842847E2,5.6971497E1,0E0,0E0,0E0,0E0],"parents":[2147483647,0,0,1,1,2,2],"right_children":[2,4,6,-1,-1,-1,-1],"split_conditions":[1.341785E6,9.7821356E5,1.4140421E6,-7.6375786E3,-2.61375E2,6.5798066E3,2.31648E4],"split_indices":[0,0,0,0,0,0,0],"split_type":[0,0,0,0,0,0,0],"sum_hessian":[1.1713E4,1.0218E4,1.495E3,1.08E3,9.138E3,8.04E2,6.91E2],"tree_param":{"num_deleted":"0","num_feature":"7","num_nodes":"7","size_leaf_vector":"1"}},{"base_weights":[7.559488E-3,-5.836388E-2,5.4310346E-1,-1.7233251E-1,-4.4556013E-3,1.2380953E-1,2.3253275E-1],"categories":[],"categories_nodes":[],"categories_segments":[],"categories_sizes":[],"default_left":[0,0,0,0,0,0,0],"id":8,"left_children":[1,3,5,-1,-1,-1,-1],"loss_changes":[4.1101562E2,2.3276532E2,3.8285126E1,0E0,0E0,0E0,0E0],"parents":[2147483647,0,0,1,1,2,2],"right_children":[2,4,6,-1,-1,-1,-1],"split_conditions":[1.3605665E6,9.7009525E5,1.4405241E6,-6.508294E3,-1.9119376E2,6.2229565E3,2.0539389E4],"split_indices":[0,0,0,0,0,0,0],"split_type":[0,0,0,0,0,0,0],"sum_hessian":[1.164E4,1.0365E4,1.275E3,8.05E2,9.56E3,8.18E2,4.57E2],"tree_param":{"num_deleted":"0","num_feature":"7","num_nodes":"7","size_leaf_vector":"1"}},{"base_weights":[1.1461808E-2,-1.7012182E-1,1.3261087E-1,-7.592115E-2,-2.4590164E-3,2.4432002E-2,1.6531415E-1],"categories":[],"categories_nodes":[],"categories_segments":[],"categories_sizes":[],"default_left":[0,0,0,0,0,0,0],"id":9,"left_children":[1,3,5,-1,-1,-1,-1],"loss_changes":[2.572092E2,6.284375E1,1.5011572E2,0E0,0E0,0E0,0E0],"parents":[2147483647,0,0,1,1,2,2],"right_children":[2,4,6,-1,-1,-1,-1],"split_conditions":[1.0678806E6,1.135375E1,1.410285E6,-2.6314875E3,-2.0437502E2,1.2375E3,1.0888163E4],"split_indices":[0,6,0,0,0,0,0],"split_type":[0,0,0,0,0,0,0],"sum_hessian":[1.169E4,4.678E3,7.012E3,3.093E3,1.585E3,6.249E3,7.63E2],"tree_param":{"num_deleted":"0","num_feature":"7","num_nodes":"7","size_leaf_vector":"1"}},{"base_weights":[-1.1176066E-3,-2.8429154E-2,5.119048E-1,-5.8369678E-2,9.894607E-3,1.7377359E-1,-3.0508475E-2],"categories":[],"categories_nodes":[],"categories_segments":[],"categories_sizes":[],"default_left":[0,0,0,0,0,0,0],"id":10,"left_children":[1,3,5,-1,-1,-1,-1],"loss_changes":[1.6299556E2,1.126945E2,2.4355148E1,0E0,0E0,0E0,0E0],"parents":[2147483647,0,0,1,1,2,2],"right_children":[2,4,6,-1,-1,-1,-1],"split_conditions":[1.4241391E6,7.7875E0,3.0775E2,-2.3559282E3,4.8286877E2,1.0240275E4,-2.214244E3],"split_indices":[0,6,5,0,0,0,0],"split_type":[0,0,0,0,0,0,0],"sum_hessian":[1.1631E4,1.1044E4,5.87E2,2.98E3,8.064E3,5.29E2,5.8E1],"tree_param":{"num_deleted":"0","num_feature":"7","num_nodes":"7","size_leaf_vector":"1"}},{"base_weights":[5.5053765E-3,-4.4546852E-1,3.2255124E-2,-1.7569444E-1,-5.045455E-2,7.1722694E-2,-7.50349E-3],"categories":[],"categories_nodes":[],"categories_segments":[],"categories_sizes":[],"default_left":[0,0,0,0,0,0,0],"id":11,"left_children":[1,3,5,-1,-1,-1,-1],"loss_changes":[1.4025185E2,2.5205841E1,1.2999321E2,0E0,0E0,0E0,0E0],"parents":[2147483647,0,0,1,1,2,2],"right_children":[2,4,6,-1,-1,-1,-1],"split_conditions":[9.6337106E5,1.2454386E1,7.025E1,-6.3418877E3,-1.812525E3,3.4437375E3,-3.3995627E2],"split_indices":[0,4,3,0,0,0,0],"split_type":[0,0,0,0,0,0,0],"sum_hessian":[1.1624E4,6.5E2,1.0974E4,4.31E2,2.19E2,2.379E3,8.595E3],"tree_param":{"num_deleted":"0","num_feature":"7","num_nodes":"7","size_leaf_vector":"1"}},{"base_weights":[1.4812934E-2,-6.564378E-2,1.0740943E-1,-2.0076923E-1,-1.5888907E-2,2.410086E-2,1.420635E-1],"categories":[],"categories_nodes":[],"categories_segments":[],"categories_sizes":[],"default_left":[0,0,0,0,0,0,0],"id":12,"left_children":[1,3,5,-1,-1,-1,-1],"loss_changes":[8.802147E1,4.8352776E1,5.4411167E1,0E0,0E0,0E0,0E0],"parents":[2147483647,0,0,1,1,2,2],"right_children":[2,4,6,-1,-1,-1,-1],"split_conditions":[1.117785E6,9.2978506E5,1.4533974E6,-9.450731E3,-6.36E2,1.2934501E3,8.1680254E3],"split_indices":[0,0,0,0,0,0,0],"split_type":[0,0,0,0,0,0,0],"sum_hessian":[1.1813E4,6.321E3,5.492E3,1.29E2,6.192E3,5.115E3,3.77E2],"tree_param":{"num_deleted":"0","num_feature":"7","num_nodes":"7","size_leaf_vector":"1"}},{"base_weights":[7.49255E-3,-4.5153756E-2,1.0794751E-1,1.455E-1,-1.7781034E-2,2.5499193E-2,1.0868264E-1],"categories":[],"categories_nodes":[],"categories_segments":[],"categories_sizes":[],"default_left":[0,0,0,0,0,0,0],"id":13,"left_children":[1,3,5,-1,-1,-1,-1],"loss_changes":[6.211928E1,5.7706688E1,2.3544365E1,0E0,0E0,0E0,0E0],"parents":[2147483647,0,0,1,1,2,2],"right_children":[2,4,6,-1,-1,-1,-1],"split_conditions":[1.174285E6,1.0015375E3,1.459361E6,6.806063E3,-6.758813E2,1.1243625E3,7.4705254E3],"split_indices":[0,1,0,0,0,0,0],"split_type":[0,0,0,0,0,0,0],"sum_hessian":[1.1744E4,7.706E3,4.038E3,1.99E2,7.507E3,3.705E3,3.33E2],"tree_param":{"num_deleted":"0","num_feature":"7","num_nodes":"7","size_leaf_vector":"1"}},{"base_weights":[-5.5290917E-3,-3.976744E-1,9.35817E-3,-1.6277602E-1,2.631579E-3,2.938827E-2,-1.6435856E-2],"categories":[],"categories_nodes":[],"categories_segments":[],"categories_sizes":[],"default_left":[0,0,0,0,0,0,0],"id":14,"left_children":[1,3,5,-1,-1,-1,-1],"loss_changes":[6.86349E1,2.5331367E1,6.438084E1,0E0,0E0,0E0,0E0],"parents":[2147483647,0,0,1,1,2,2],"right_children":[2,4,6,-1,-1,-1,-1],"split_conditions":[9.531594E5,1.27168865E1,7.85E1,-5.053772E3,1.504125E2,1.3717125E3,-6.4803754E2],"split_indices":[0,4,3,0,0,0,0],"split_type":[0,0,0,0,0,0,0],"sum_hessian":[1.1755E4,4.29E2,1.1326E4,3.16E2,1.13E2,4.756E3,6.57E3],"tree_param":{"num_deleted":"0","num_feature":"7","num_nodes":"7","size_leaf_vector":"1"}},{"base_weights":[-1.1073254E-3,-1.9457364E-1,2.277294E-2,-6.736167E-2,1.977273E-1,7.654624E-4,9.770642E-2],"categories":[],"categories_nodes":[],"categories_segments":[],"categories_sizes":[],"default_left":[0,0,0,0,0,0,0],"id":15,"left_children":[1,3,5,-1,-1,-1,-1],"loss_changes":[5.424355E1,3.314654E1,6.401539E1,0E0,0E0,0E0,0E0],"parents":[2147483647,0,0,1,1,2,2],"right_children":[2,4,6,-1,-1,-1,-1],"split_conditions":[9.8278506E5,1.8706886E1,9.85E1,-1.8410907E3,3.60855E3,5.50125E1,4.687444E3],"split_indices":[0,4,2,0,0,0,0],"split_type":[0,0,0,0,0,0,0],"sum_hessian":[1.1739E4,1.289E3,1.045E4,1.246E3,4.3E1,9.797E3,6.53E2],"tree_param":{"num_deleted":"0","num_feature":"7","num_nodes":"7","size_leaf_vector":"1"}},{"base_weights":[5.152426E-4,1.6020115E-1,-2.1162473E-2,-3.891892E-2,6.1341062E-2,-1.3154407E-2,4.4962533E-2],"categories":[],"categories_nodes":[],"categories_segments":[],"categories_sizes":[],"default_left":[0,0,0,0,0,0,0],"id":16,"left_children":[1,3,5,-1,-1,-1,-1],"loss_changes":[4.0314026E1,1.7892796E1,3.979293E1,0E0,0E0,0E0,0E0],"parents":[2147483647,0,0,1,1,2,2],"right_children":[2,4,6,-1,-1,-1,-1],"split_conditions":[6.4E1,1.00578506E6,1.356285E6,-1.1905688E3,3.0667876E3,-5.305875E2,2.5569563E3],"split_indices":[3,0,0,0,0,0,0],"split_type":[0,0,0,0,0,0,0],"sum_hessian":[1.1644E4,1.391E3,1.0253E4,1.84E2,1.207E3,9.053E3,1.2E3],"tree_param":{"num_deleted":"0","num_feature":"7","num_nodes":"7","size_leaf_vector":"1"}},{"base_weights":[-3.2983762E-3,-1.2632863E-2,3.054755E-1,-2.1924198E-2,1.0940954E-2,1.8701299E-1,6.4206645E-2],"categories":[],"categories_nodes":[],"categories_segments":[],"categories_sizes":[],"default_left":[0,0,0,0,0,0,0],"id":17,"left_children":[1,3,5,-1,-1,-1,-1],"loss_changes":[3.408353E1,3.40711E1,9.95496E0,0E0,0E0,0E0,0E0],"parents":[2147483647,0,0,1,1,2,2],"right_children":[2,4,6,-1,-1,-1,-1],"split_conditions":[1.4533974E6,1.00965E3,2.36875E2,-8.4675006E2,4.5183752E2,1.0262663E4,4.0664626E3],"split_indices":[0,1,5,0,0,0,0],"split_type":[0,0,0,0,0,0,0],"sum_hessian":[1.1823E4,1.1477E4,3.46E2,5.144E3,6.333E3,7.6E1,2.7E2],"tree_param":{"num_deleted":"0","num_feature":"7","num_nodes":"7","size_leaf_vector":"1"}},{"base_weights":[4.2329833E-4,-1.0445927E-2,2.9453683E-1,-8.9045934E-2,-9.4509457E-4,1.5982533E-1,3.1088083E-3],"categories":[],"categories_nodes":[],"categories_segments":[],"categories_sizes":[],"default_left":[0,0,0,0,0,0,0],"id":18,"left_children":[1,3,5,-1,-1,-1,-1],"loss_changes":[3.776351E1,2.3800058E1,2.8493801E1,0E0,0E0,0E0,0E0],"parents":[2147483647,0,0,1,1,2,2],"right_children":[2,4,6,-1,-1,-1,-1],"split_conditions":[9.6333336E1,9.475219E5,1.0040975E3,-2.3782031E3,-2.5462502E1,6.796219E3,2.449875E2],"split_indices":[3,0,1,0,0,0,0],"split_type":[0,0,0,0,0,0,0],"sum_hessian":[1.1811E4,1.1391E4,4.2E2,2.82E2,1.1109E4,2.28E2,1.92E2],"tree_param":{"num_deleted":"0","num_feature":"7","num_nodes":"7","size_leaf_vector":"1"}},{"base_weights":[4.806071E-3,-1.1054266E-2,1.9453552E-1,3.1283423E-2,-1.0443979E-2,3.680739E-2,1.613924E-1],"categories":[],"categories_nodes":[],"categories_segments":[],"categories_sizes":[],"default_left":[0,0,0,0,0,0,0],"id":19,"left_children":[1,3,5,-1,-1,-1,-1],"loss_changes":[3.5690945E1,2.999765E1,2.2510815E1,0E0,0E0,0E0,0E0],"parents":[2147483647,0,0,1,1,2,2],"right_children":[2,4,6,-1,-1,-1,-1],"split_conditions":[9.7E1,6.65E1,2.675E2,1.4188501E3,-3.7202814E2,1.5208876E3,6.345825E3],"split_indices":[2,3,5,0,0,0,0],"split_type":[0,0,0,0,0,0,0],"sum_hessian":[1.1859E4,1.0945E4,9.14E2,1.869E3,9.076E3,7.57E2,1.57E2],"tree_param":{"num_deleted":"0","num_feature":"7","num_nodes":"7","size_leaf_vector":"1"}},{"base_weights":[-2.118644E-3,-6.375343E-2,3.9212912E-2,-1.575E-1,-1.55262025E-2,7.6047264E-2,2.005217E-3],"categories":[],"categories_nodes":[],"categories_segments":[],"categories_sizes":[],"default_left":[0,0,0,0,0,0,0],"id":20,"left_children":[1,3,5,-1,-1,-1,-1],"loss_changes":[3.0062548E1,2.619067E1,4.9235916E1,0E0,0E0,0E0,0E0],"parents":[2147483647,0,0,1,1,2,2],"right_children":[2,4,6,-1,-1,-1,-1],"split_conditions":[1.018E1,9.357744E5,1.455E2,-5.55E3,-5.695125E2,3.1786877E3,6.3862503E1],"split_indices":[6,0,5,0,0,0,0],"split_type":[0,0,0,0,0,0,0],"sum_hessian":[1.1799E4,4.736E3,7.063E3,1.19E2,4.617E3,9.3E2,6.133E3],"tree_param":{"num_deleted":"0","num_feature":"7","num_nodes":"7","size_leaf_vector":"1"}},{"base_weights":[-6.8817204E-3,3.129197E-2,-7.4880384E-2,-1.5872141E-2,3.339445E-2,-2.8581151E-3,-6.8840586E-2],"categories":[],"categories_nodes":[],"categories_segments":[],"categories_sizes":[],"default_left":[0,0,0,0,0,0,0],"id":21,"left_children":[1,3,5,-1,-1,-1,-1],"loss_changes":[3.0178051E1,5.017594E1,4.2227745E1,0E0,0E0,0E0,0E0],"parents":[2147483647,0,0,1,1,2,2],"right_children":[2,4,6,-1,-1,-1,-1],"split_conditions":[1.7884386E1,1.0584458E6,8.225E1,-5.4703125E2,1.3535625E3,-1.623E2,-2.8861501E3],"split_indices":[4,0,3,0,0,0,0],"split_type":[0,0,0,0,0,0,0],"sum_hessian":[1.1624E4,7.445E3,4.179E3,3.628E3,3.817E3,2.938E3,1.241E3],"tree_param":{"num_deleted":"0","num_feature":"7","num_nodes":"7","size_leaf_vector":"1"}},{"base_weights":[-8.813965E-3,6.111111E-1,-1.1690879E-2,2.0192309E-1,-2.0000002E-1,-4.8791096E-3,1.12500004E-1],"categories":[],"categories_nodes":[],"categories_segments":[],"categories_sizes":[],"default_left":[0,0,0,0,0,0,0],"id":22,"left_children":[1,3,5,-1,-1,-1,-1],"loss_changes":[2.0848787E1,4.7243595E0,2.0576351E1,0E0,0E0,0E0,0E0],"parents":[2147483647,0,0,1,1,2,2],"right_children":[2,4,6,-1,-1,-1,-1],"split_conditions":[9.9925E2,1.143285E6,1.4872685E6,1.2639938E4,-1.463445E4,-1.5579376E2,7.3848003E3],"split_indices":[1,0,0,0,0,0,0],"split_type":[0,0,0,0,0,0,0],"sum_hessian":[1.1685E4,5.3E1,1.1632E4,5.1E1,2E0,1.1497E4,1.35E2],"tree_param":{"num_deleted":"0","num_feature":"7","num_nodes":"7","size_leaf_vector":"1"}},{"base_weights":[3.0967526E-3,-1.8392856E-1,1.2292563E-2,-2.586207E-2,-1.3161291E-1,1.3513514E-1,2.3938294E-3],"categories":[],"categories_nodes":[],"categories_segments":[],"categories_sizes":[],"default_left":[0,0,0,0,0,0,0],"id":23,"left_children":[1,3,5,-1,-1,-1,-1],"loss_changes":[2.0551022E1,1.3904856E1,2.1519712E1,0E0,0E0,0E0,0E0],"parents":[2147483647,0,0,1,1,2,2],"right_children":[2,4,6,-1,-1,-1,-1],"split_conditions":[9.5967444E5,1.196875E1,1.0007125E3,-6.5242505E2,-3.1522502E3,5.89245E3,1.0041563E2],"split_indices":[0,6,1,0,0,0,0],"split_type":[0,0,0,0,0,0,0],"sum_hessian":[1.1947E4,5.59E2,1.1388E4,4.05E2,1.54E2,1.1E2,1.1278E4],"tree_param":{"num_deleted":"0","num_feature":"7","num_nodes":"7","size_leaf_vector":"1"}},{"base_weights":[-7.5220102E-3,8.967736E-3,-1.2491325E-1,-8.877199E-3,1.9535553E-2,-3.013006E-2,-2.1206897E-1],"categories":[],"categories_nodes":[],"categories_segments":[],"categories_sizes":[],"default_left":[0,0,0,0,0,0,0],"id":24,"left_children":[1,3,5,-1,-1,-1,-1],"loss_changes":[2.264748E1,2.2213522E1,2.0458633E1,0E0,0E0,0E0,0E0],"parents":[2147483647,0,0,1,1,2,2],"right_children":[2,4,6,-1,-1,-1,-1],"split_conditions":[1.01395E3,1.010375E3,1.3605665E6,-3.3311252E2,7.970157E2,-1.1916001E3,-1.0835101E4],"split_indices":[1,1,0,0,0,0,0],"split_type":[0,0,0,0,0,0,0],"sum_hessian":[1.1698E4,1.0258E4,1.44E3,6.082E3,4.176E3,1.383E3,5.7E1],"tree_param":{"num_deleted":"0","num_feature":"7","num_nodes":"7","size_leaf_vector":"1"}},{"base_weights":[-0E0,5.7504617E-2,-2.8132662E-2,1.1881188E-1,8.426484E-3,-8.722467E-2,-6.061412E-3],"categories":[],"categories_nodes":[],"categories_segments":[],"categories_sizes":[],"default_left":[0,0,0,0,0,0,0],"id":25,"left_children":[1,3,5,-1,-1,-1,-1],"loss_changes":[1.8668926E1,3.7741398E1,1.612762E1,0E0,0E0,0E0,0E0],"parents":[2147483647,0,0,1,1,2,2],"right_children":[2,4,6,-1,-1,-1,-1],"split_conditions":[1.64625E2,1.0047E3,3.0925E0,6.6952505E3,3.2805002E2,-2.2006125E3,-2.373E2],"split_indices":[5,1,6,0,0,0,0],"split_type":[0,0,0,0,0,0,0],"sum_hessian":[1.1538E4,3.79E3,7.748E3,3.02E2,3.488E3,2.26E2,7.522E3],"tree_param":{"num_deleted":"0","num_feature":"7","num_nodes":"7","size_leaf_vector":"1"}},{"base_weights":[1.715413E-3,1.0134771E-1,-1.7134115E-2,-6.357616E-2,3.8709678E-2,-3.368938E-2,1.0454115E-2],"categories":[],"categories_nodes":[],"categories_segments":[],"categories_sizes":[],"default_left":[0,0,0,0,0,0,0],"id":26,"left_children":[1,3,5,-1,-1,-1,-1],"loss_changes":[2.1897593E1,1.6115183E1,4.8506557E1,0E0,0E0,0E0,0E0],"parents":[2147483647,0,0,1,1,2,2],"right_children":[2,4,6,-1,-1,-1,-1],"split_conditions":[1.003875E3,4.4125E1,1.0096E3,-2.2020938E3,1.4117063E3,-1.4564625E3,3.5124377E2],"split_indices":[1,2,1,0,0,0,0],"split_type":[0,0,0,0,0,0,0],"sum_hessian":[1.1658E4,1.854E3,9.804E3,1.5E2,1.704E3,3.463E3,6.341E3],"tree_param":{"num_deleted":"0","num_feature":"7","num_nodes":"7","size_leaf_vector":"1"}},{"base_weights":[6.5221074E-3,1.7420086E-4,2.3006135E-1,-6.294257E-4,1.8139535E-1,-7.857144E-2,9.052632E-2],"categories":[],"categories_nodes":[],"categories_segments":[],"categories_sizes":[],"default_left":[0,0,0,0,0,0,0],"id":27,"left_children":[1,3,5,-1,-1,-1,-1],"loss_changes":[1.6752747E1,1.5770936E1,1.157723E1,0E0,0E0,0E0,0E0],"parents":[2147483647,0,0,1,1,2,2],"right_children":[2,4,6,-1,-1,-1,-1],"split_conditions":[9.6916664E1,1.5172312E6,9.5967444E5,-2.5687502E1,8.790844E3,-2.1644438E3,2.667919E3],"split_indices":[3,0,0,0,0,0,0],"split_type":[0,0,0,0,0,0,0],"sum_hessian":[1.1805E4,1.148E4,3.25E2,1.1438E4,4.2E1,4.1E1,2.84E2],"tree_param":{"num_deleted":"0","num_feature":"7","num_nodes":"7","size_leaf_vector":"1"}},{"base_weights":[2.0462102E-3,-4.9308795E-3,2.1447721E-1,1.1881188E-1,-2.558408E-3,7.232877E-2,-2.6666668E-1],"categories":[],"categories_nodes":[],"categories_segments":[],"categories_sizes":[],"default_left":[0,0,0,0,0,0,0],"id":28,"left_children":[1,3,5,-1,-1,-1,-1],"loss_changes":[1.7385197E1,1.6384146E1,1.1169373E1,0E0,0E0,0E0,0E0],"parents":[2147483647,0,0,1,1,2,2],"right_children":[2,4,6,-1,-1,-1,-1],"split_conditions":[1.4533974E6,5.075E1,3.2375E2,4.763213E3,-9.474375E1,3.3018938E3,-1.6171895E4],"split_indices":[0,3,5,0,0,0,0],"split_type":[0,0,0,0,0,0,0],"sum_hessian":[1.1728E4,1.1356E4,3.72E2,1E2,1.1256E4,3.64E2,8E0],"tree_param":{"num_deleted":"0","num_feature":"7","num_nodes":"7","size_leaf_vector":"1"}},{"base_weights":[-5.020422E-3,2.6664862E-2,-5.864834E-2,-1.6474335E-2,2.0611156E-2,6.018809E-2,-2.3721276E-2],"categories":[],"categories_nodes":[],"categories_segments":[],"categories_sizes":[],"default_left":[0,0,0,0,0,0,0],"id":29,"left_children":[1,3,5,-1,-1,-1,-1],"loss_changes":[1.9970747E1,2.5341007E1,2.3128843E1,0E0,0E0,0E0,0E0],"parents":[2147483647,0,0,1,1,2,2],"right_children":[2,4,6,-1,-1,-1,-1],"split_conditions":[1.7704386E1,1.02001356E6,1.03015344E6,-4.6777502E2,7.6704376E2,2.6019844E3,-1.1442001E3],"split_indices":[4,0,0,0,0,0,0],"split_type":[0,0,0,0,0,0,0],"sum_hessian":[1.1751E4,7.387E3,4.364E3,2.512E3,4.875E3,3.18E2,4.046E3],"tree_param":{"num_deleted":"0","num_feature":"7","num_nodes":"7","size_leaf_vector":"1"}},{"base_weights":[6.860475E-3,-1.3522013E-1,1.9518116E-2,-2.9856117E-2,-1.1404959E-1,1.9019207E-2,-7.351291E-3],"categories":[],"categories_nodes":[],"categories_segments":[],"categories_sizes":[],"default_left":[0,0,0,0,0,0,0],"id":30,"left_children":[1,3,5,-1,-1,-1,-1],"loss_changes":[2.0973845E1,8.3043995E0,2.0685877E1,0E0,0E0,0E0,0E0],"parents":[2147483647,0,0,1,1,2,2],"right_children":[2,4,6,-1,-1,-1,-1],"split_conditions":[4.01625E0,1.014625E3,8.1416664E1,-7.4866876E2,-4.5331313E3,8.6242505E2,-1.9076251E2],"split_indices":[6,1,3,0,0,0,0],"split_type":[0,0,0,0,0,0,0],"sum_hessian":[1.166E4,9.53E2,1.0707E4,8.33E2,1.2E2,5.362E3,5.345E3],"tree_param":{"num_deleted":"0","num_feature":"7","num_nodes":"7","size_leaf_vector":"1"}},{"base_weights":[-3.2217042E-3,-2.1782178E-1,2.4362656E-3,-8.72093E-2,5.8695655E-2,-8.5265125E-4,7.6595746E-2],"categories":[],"categories_nodes":[],"categories_segments":[],"categories_sizes":[],"default_left":[0,0,0,0,0,0,0],"id":31,"left_children":[1,3,5,-1,-1,-1,-1],"loss_changes":[1.4322028E1,9.186958E0,1.5341883E1,0E0,0E0,0E0,0E0],"parents":[2147483647,0,0,1,1,2,2],"right_children":[2,4,6,-1,-1,-1,-1],"split_conditions":[9.446061E5,1.3509386E1,9.725E1,-1.947525E3,4.504744E3,-3.6206253E1,2.765972E3],"split_indices":[0,4,3,0,0,0,0],"split_type":[0,0,0,0,0,0,0],"sum_hessian":[1.1794E4,3.02E2,1.1492E4,2.57E2,4.5E1,1.1258E4,2.34E2],"tree_param":{"num_deleted":"0","num_feature":"7","num_nodes":"7","size_leaf_vector":"1"}},{"base_weights":[3.9474815E-3,2.51938E-1,-1.6672517E-3,1.4274193E-1,1.3333335E-2,5.5898535E-3,-2.2307076E-2],"categories":[],"categories_nodes":[],"categories_segments":[],"categories_sizes":[],"default_left":[0,0,0,0,0,0,0],"id":32,"left_children":[1,3,5,-1,-1,-1,-1],"loss_changes":[1.6226063E1,1.1963278E1,1.6817404E1,0E0,0E0,0E0,0E0],"parents":[2147483647,0,0,1,1,2,2],"right_children":[2,4,6,-1,-1,-1,-1],"split_conditions":[2.7918863E0,6.0625E1,1.0128125E3,3.6754502E3,4.05825E2,2.0318439E2,-8.9941876E2],"split_indices":[4,5,1,0,0,0,0],"split_type":[0,0,0,0,0,0,0],"sum_hessian":[1.1652E4,2.57E2,1.1395E4,1.23E2,1.34E2,8.908E3,2.487E3],"tree_param":{"num_deleted":"0","num_feature":"7","num_nodes":"7","size_leaf_vector":"1"}},{"base_weights":[-1.0715491E-2,1.1363637E-1,-1.8046994E-2,7.363637E-2,-5.4380666E-3,5.031306E-4,-2.8933333E-2],"categories":[],"categories_nodes":[],"categories_segments":[],"categories_sizes":[],"default_left":[0,0,0,0,0,0,0],"id":33,"left_children":[1,3,5,-1,-1,-1,-1],"loss_changes":[1.0807352E1,1.1467853E1,1.7308107E1,0E0,0E0,0E0,0E0],"parents":[2147483647,0,0,1,1,2,2],"right_children":[2,4,6,-1,-1,-1,-1],"split_conditions":[5.875E1,1.4175E2,1.01285E3,2.8234688E3,-3.539719E2,2.0962502E1,-9.8085004E2],"split_indices":[3,5,1,0,0,0,0],"split_type":[0,0,0,0,0,0,0],"sum_hessian":[1.1851E4,6.59E2,1.1192E4,3.29E2,3.3E2,8.943E3,2.249E3],"tree_param":{"num_deleted":"0","num_feature":"7","num_nodes":"7","size_leaf_vector":"1"}},{"base_weights":[4.1036163E-3,-3.0690113E-2,4.1093476E-2,-2.2736978E-2,3.7918217E-2,2.9544016E-2,-9.31158E-3],"categories":[],"categories_nodes":[],"categories_segments":[],"categories_sizes":[],"default_left":[0,0,0,0,0,0,0],"id":34,"left_children":[1,3,5,-1,-1,-1,-1],"loss_changes":[1.5055477E1,4.271474E1,2.3473526E1,0E0,0E0,0E0,0E0],"parents":[2147483647,0,0,1,1,2,2],"right_children":[2,4,6,-1,-1,-1,-1],"split_conditions":[1.010325E3,1.2672436E6,1.012975E3,-7.770188E2,2.174794E3,1.0837876E3,-4.6105313E2],"split_indices":[1,0,1,0,0,0,0],"split_type":[0,0,0,0,0,0,0],"sum_hessian":[1.1696E4,6.027E3,5.669E3,4.683E3,1.344E3,3.157E3,2.512E3],"tree_param":{"num_deleted":"0","num_feature":"7","num_nodes":"7","size_leaf_vector":"1"}},{"base_weights":[8.5984524E-5,-9.582041E-3,1.5750371E-1,-1.4482759E-1,-1.7384107E-3,9.0084985E-2,-0E0],"categories":[],"categories_nodes":[],"categories_segments":[],"categories_sizes":[],"default_left":[0,0,0,0,0,0,0],"id":35,"left_children":[1,3,5,-1,-1,-1,-1],"loss_changes":[1.7701424E1,1.9634813E1,1.5134634E1,0E0,0E0,0E0,0E0],"parents":[2147483647,0,0,1,1,2,2],"right_children":[2,4,6,-1,-1,-1,-1],"split_conditions":[9.5583336E1,9.219586E5,1.0044375E3,-3.6998064E3,-6.10875E1,3.2709377E3,-1.4156251E0],"split_indices":[3,0,1,0,0,0,0],"split_type":[0,0,0,0,0,0,0],"sum_hessian":[1.1629E4,1.0957E4,6.72E2,8.6E1,1.0871E4,3.52E2,3.2E2],"tree_param":{"num_deleted":"0","num_feature":"7","num_nodes":"7","size_leaf_vector":"1"}},{"base_weights":[3.2354193E-3,4.1284405E-2,-2.9701397E-2,2.542373E-3,6.572438E-2,4.689379E-2,-1.3711625E-2],"categories":[],"categories_nodes":[],"categories_segments":[],"categories_sizes":[],"default_left":[0,0,0,0,0,0,0],"id":36,"left_children":[1,3,5,-1,-1,-1,-1],"loss_changes":[1.4720207E1,3.1790634E1,1.875016E1,0E0,0E0,0E0,0E0],"parents":[2147483647,0,0,1,1,2,2],"right_children":[2,4,6,-1,-1,-1,-1],"split_conditions":[2.26875E2,1.4485E1,9.9996E5,1.479375E2,3.124744E3,1.02023444E3,-5.695875E2],"split_indices":[5,6,0,0,0,0,0],"split_type":[0,0,0,0,0,0,0],"sum_hessian":[1.1744E4,5.449E3,6.295E3,4.601E3,8.48E2,4.98E2,5.797E3],"tree_param":{"num_deleted":"0","num_feature":"7","num_nodes":"7","size_leaf_vector":"1"}},{"base_weights":[4.003407E-3,1.70466E-2,-6.6776134E-2,-1.5309934E-3,3.3492822E-2,-7.4875206E-2,6.845966E-3],"categories":[],"categories_nodes":[],"categories_segments":[],"categories_sizes":[],"default_left":[0,0,0,0,0,0,0],"id":37,"left_children":[1,3,5,-1,-1,-1,-1],"loss_changes":[1.0839404E1,2.0773338E1,2.9929873E1,0E0,0E0,0E0,0E0],"parents":[2147483647,0,0,1,1,2,2],"right_children":[2,4,6,-1,-1,-1,-1],"split_conditions":[7.9E1,6.75E1,8.6375E1,-6.83625E1,1.3138876E3,-2.72835E3,2.646375E2],"split_indices":[2,2,2,0,0,0,0],"split_type":[0,0,0,0,0,0,0],"sum_hessian":[1.1739E4,9.913E3,1.826E3,8.033E3,1.88E3,6E2,1.226E3],"tree_param":{"num_deleted":"0","num_feature":"7","num_nodes":"7","size_leaf_vector":"1"}},{"base_weights":[1.0051964E-2,3.75E-1,6.7892745E-3,-7.826087E-2,1.6463415E-1,1.0697154E-2,-8.025265E-3],"categories":[],"categories_nodes":[],"categories_segments":[],"categories_sizes":[],"default_left":[0,0,0,0,0,0,0],"id":38,"left_children":[1,3,5,-1,-1,-1,-1],"loss_changes":[1.3975222E1,1.163534E1,1.1267325E1,0E0,0E0,0E0,0E0],"parents":[2147483647,0,0,1,1,2,2],"right_children":[2,4,6,-1,-1,-1,-1],"split_conditions":[5.075E1,1.0475E1,1.6489386E1,-2.652E3,8.060588E3,3.2092502E2,-3.5671875E2],"split_indices":[3,6,4,0,0,0,0],"split_type":[0,0,0,0,0,0,0],"sum_hessian":[1.1738E4,1.03E2,1.1635E4,2.2E1,8.1E1,6.253E3,5.382E3],"tree_param":{"num_deleted":"0","num_feature":"7","num_nodes":"7","size_leaf_vector":"1"}}]},"name":"gbtree"},"learner_model_param":{"base_score":"1.1050744E6","boost_from_average":"1","num_class":"0","num_feature":"7","num_target":"1"},"objective":{"name":"reg:absoluteerror"}},"version":[2,0,0]}