tree
version=v3
num_class=1
num_tree_per_iteration=1
label_index=0
max_feature_idx=6
objective=regression
feature_names=load_kw_lag168 pressure_kpa_lag168 cloud_cover_pct_lag168 humidity_pct_lag168 temperature_c_lag168 wind_direction_deg_lag168 wind_speed_kmh_lag168
feature_infos=[845471.35809999995:1605192.0430000001] [994:1020.06875] [0:100] [33.333333330000002:100] [-6.4181137829999999:36.05188622] [0.5:357.5] [0:91.497500000000002]
tree_sizes=783 759 752 752 758 764 759 758 758 758 762 761 756 753 755 763 754 756 763 756 758 742 759 759 741 746 733 754 736 751

Tree=0
num_leaves=7
num_cat=0
split_feature=0 0 0 0 0 0
split_gain=3.12897e+14 4.42001e+13 3.87631e+13 7.05414e+12 4.82648e+12 4.59613e+12
threshold=1175293.1070000001 1315398.2990000003 1049852.7205000003 1107672.1865000003 996399.21611853514 1410245.2105000003
decision_type=2 2 2 2 2 2
left_child=2 -2 4 -4 -1 -3
right_child=1 5 3 -5 -6 -7
leaf_value=1107795.7129025648 1158718.8265428105 1182463.5025779044 1127596.1363252171 1139932.6596769714 1117712.2513079273 1197248.6375303736
leaf_weight=3645 4606 2014 4059 3413 4255 1444
leaf_count=3645 4606 2014 4059 3413 4255 1444
internal_value=1.13964e+06 1.17155e+06 1.1229e+06 1.13323e+06 1.11314e+06 1.18864e+06
internal_weight=0 8064 15372 7472 7900 3458
internal_count=23436 8064 15372 7472 7900 3458
is_linear=0
shrinkage=1


Tree=1
num_leaves=7
num_cat=0
split_feature=0 0 0 0 0 0
split_gain=2.01706e+14 2.79093e+13 2.54637e+13 5.74378e+12 3.29421e+12 2.3298e+12
threshold=1183507.1820685354 1075510.8835000002 1327372.4410000003 1011094.9490000001 1256839.0020000001 1424286.3260000001
decision_type=2 2 2 2 2 2
left_child=1 3 4 -1 -2 -4
right_child=2 -3 5 -5 -6 -7
leaf_value=-24427.742707643269 12577.301454215763 -1961.0882987890855 36103.448441544751 -14800.21872641419 23672.678249321554 47323.002935793629
leaf_weight=4760 2766 5808 2013 5172 1746 1171
leaf_count=4760 2766 5808 2013 5172 1746 1171
internal_value=0 -12974.1 26534.9 -19414.3 16870.9 40229.7
internal_weight=0 15740 7696 9932 4512 3184
internal_count=23436 15740 7696 9932 4512 3184
is_linear=0
shrinkage=0.2


Tree=2
num_leaves=7
num_cat=0
split_feature=0 0 0 0 0 0
split_gain=1.30217e+14 2.20977e+13 1.29945e+13 2.78682e+12 2.75068e+12 2.45604e+12
threshold=1156773.263 1307322.2550000001 1037714.3430000002 1227838.0930685352 1095643.9700000002 1386997.4110000001
decision_type=2 2 2 2 2 2
left_child=2 3 -1 -2 -4 -3
right_child=1 5 4 -5 -6 -7
leaf_value=-17967.212410296543 6551.1267391918591 25330.633691513525 -9306.2741584216928 15797.379695083524 -1655.2387533670744 35766.529607307777
leaf_weight=6884 2862 1650 4339 2395 3316 1990
leaf_count=6884 2862 1650 4339 2395 3316 1990
internal_value=0 19057.5 -11662.1 10763.6 -5991.99 31036
internal_weight=0 8897 14539 5257 7655 3640
internal_count=23436 8897 14539 5257 7655 3640
is_linear=0
shrinkage=0.2


Tree=3
num_leaves=7
num_cat=0
split_feature=0 0 0 0 0 0
split_gain=8.38705e+13 1.39696e+13 8.58006e+12 2.7759e+12 2.38609e+12 1.33727e+12
threshold=1203286.5200000003 1066713.5815000003 1354840.942 983178.3875500001 1131038.0205000003 1272794.8150000002
decision_type=2 2 2 2 2 2
left_child=1 3 5 -1 -3 -2
right_child=2 4 -4 -5 -6 -7
leaf_value=-18424.228538796404 9912.7289643452241 -4360.6972829982296 27420.505588576136 -10734.247938401981 2983.3606654657387 17028.590676886528
leaf_weight=2613 2486 4058 2632 6672 3138 1837
leaf_count=2613 2486 4058 2632 6672 3138 1837
internal_value=0 -7772.3 18417.7 -12898.4 -1158.13 12936.5
internal_weight=0 16481 6955 9285 7196 4323
internal_count=23436 16481 6955 9285 7196 4323
is_linear=0
shrinkage=0.2


Tree=4
num_leaves=7
num_cat=0
split_feature=0 0 0 0 0 0
split_gain=5.38112e+13 8.18799e+12 6.45396e+12 1.64555e+12 1.35926e+12 9.30964e+11
threshold=1167067.5730000001 1303385.9895000001 1029913.5375000001 1112170.3370000001 1453479.1785000002 971727.42835000006
decision_type=2 2 2 2 2 2
left_child=2 -2 5 -4 -3 -1
right_child=1 4 3 -5 -6 -7
leaf_value=-15983.970769311936 7229.7482637364437 17910.111507833972 -5547.2099609402994 349.05585595652394 27583.037667100696 -10564.434290056279
leaf_weight=1770 4702 3012 5996 2767 720 4469
leaf_count=1770 4702 3012 5996 2767 720 4469
internal_value=0 12781.5 -7185.66 -3685.41 19776.3 -12102
internal_weight=0 8434 15002 8763 3732 6239
internal_count=23436 8434 15002 8763 3732 6239
is_linear=0
shrinkage=0.2


Tree=5
num_leaves=7
num_cat=0
split_feature=0 0 0 0 0 0
split_gain=3.52593e+13 5.83628e+12 3.72252e+12 1.50643e+12 5.68345e+11 5.19592e+11
threshold=1203286.5200000003 1083463.0695000002 1359768.2985000003 991756.68206853513 1244316.1770000004 1136743.2680000004
decision_type=2 2 2 2 2 2
left_child=1 3 4 -1 -2 -3
right_child=2 5 -4 -5 -6 -7
leaf_value=-11445.204449378951 5369.0988093893529 -1841.9125246790911 18040.133651732198 -6271.1247114105881 10113.143086990085 1885.2174292054567
leaf_weight=3272 1565 3135 2541 7212 2849 2862
leaf_count=3272 1565 3135 2541 7212 2849 2862
internal_value=0 -5039.44 11941.8 -7885.93 8431.12 -63.1822
internal_weight=0 16481 6955 10484 4414 5997
internal_count=23436 16481 6955 10484 4414 5997
is_linear=0
shrinkage=0.2


Tree=6
num_leaves=7
num_cat=0
split_feature=0 0 0 0 0 0
split_gain=2.25899e+13 4.04871e+12 2.26787e+12 7.41268e+11 6.13857e+11 3.78793e+11
threshold=1208917.4935000001 1061799.3005000001 1364332.6070000001 974661.66605000012 1129515.5080000001 1453479.1785000002
decision_type=2 2 2 2 2 2
left_child=1 3 -2 -1 -3 -4
right_child=2 4 5 -5 -6 -7
leaf_value=-10303.782783582412 6986.1261878909927 -2193.6702787151962 12998.796839141405 -5897.1504974017935 1392.0981315720062 18458.403262787924
leaf_weight=1956 4322 4334 1729 6961 3414 720
leaf_count=1956 4322 4334 1729 6961 3414 720
internal_value=0 -3957.94 9741.4 -6863.77 -613.674 14603.9
internal_weight=0 16665 6771 8917 7748 2449
internal_count=23436 16665 6771 8917 7748 2449
is_linear=0
shrinkage=0.2


Tree=7
num_leaves=7
num_cat=0
split_feature=0 0 0 0 2 0
split_gain=1.45435e+13 2.97247e+12 1.1844e+12 6.82224e+11 3.92674e+11 3.78556e+11
threshold=1223439.6980000001 1043299.1010000001 1374172.1905000003 1112170.3370000001 87.437500000000014 963794.94810000015
decision_type=2 2 2 2 2 2
left_child=1 5 4 -3 -2 -1
right_child=2 3 -4 -5 -6 -7
leaf_value=-9131.3763557597904 5552.6736146491648 -2405.7953291250788 11939.02193269616 919.57242260834926 12314.803681749043 -5373.8865035366016
leaf_weight=1304 3576 4890 2263 4982 380 6041
leaf_count=1304 3576 4890 2263 4982 380 6041
internal_value=0 -2994.37 8289.76 -727.616 6202.22 -6040.98
internal_weight=0 17217 6219 9872 3956 7345
internal_count=23436 17217 6219 9872 3956 7345
is_linear=0
shrinkage=0.2


Tree=8
num_leaves=7
num_cat=0
split_feature=0 0 0 6 0 1
split_gain=9.37447e+12 1.98699e+12 1.18451e+12 4.78189e+11 4.01275e+11 2.83277e+11
threshold=1150411.0220000001 1276460.8770000001 1021788.7160000001 10.911250000000001 1414017.5320000001 1013.8156250000001
decision_type=2 2 2 2 2 2
left_child=2 -2 -1 -4 -3 -6
right_child=1 4 3 -5 5 -7
leaf_value=-5477.7449588603704 2175.7924200067532 6788.1338669958568 -3179.0100898306018 -206.93328850769396 11382.353590274091 -7661.6449218750004
leaf_weight=5591 4796 3024 4486 4186 1321 32
leaf_count=5591 4796 3024 4486 4186 1321 32
internal_value=0 4987.83 -3207.83 -1744.38 8069.05 10931.9
internal_weight=0 9173 14263 8672 4377 1353
internal_count=23436 9173 14263 8672 4377 1353
is_linear=0
shrinkage=0.2


Tree=9
num_leaves=7
num_cat=0
split_feature=0 0 6 0 3 2
split_gain=6.149e+12 1.47588e+12 4.50789e+11 4.02325e+11 3.35898e+11 3.09298e+11
threshold=1237407.0615000001 1092398.9925000004 10.195625000000001 1414017.5320000001 76.208333335000006 85.312500000000014
decision_type=2 2 2 2 2 2
left_child=1 2 -1 5 -4 -2
right_child=3 -3 4 -5 -6 -7
leaf_value=-4333.358908011719 4188.6357602046928 504.91567366282266 1052.2887549026625 8745.5530114911871 -2786.3221270767676 9540.0022989574645
leaf_weight=6437 3827 6730 1253 1353 3349 487
leaf_count=6437 3827 6730 1253 1353 3349 487
internal_value=0 -1829.51 -3252.71 5736.48 -1741.17 4792.74
internal_weight=0 17769 11039 5667 4602 4314
internal_count=23436 17769 11039 5667 4602 4314
is_linear=0
shrinkage=0.2


Tree=10
num_leaves=7
num_cat=0
split_feature=0 0 0 5 3 6
split_gain=4.00709e+12 8.33704e+11 4.94547e+11 3.72207e+11 2.60726e+11 2.46103e+11
threshold=1200837.9070000004 1019470.0560000001 1340269.7670000002 299.06250000000006 79.208333335000006 10.911250000000001
decision_type=2 2 2 2 2 2
left_child=1 -1 -2 -4 5 -3
right_child=2 4 3 -5 -6 -7
leaf_value=-3748.6382889032234 2583.9733979183716 -1003.9595954971351 6990.9574027113676 885.51305072696641 -1492.7268510103831 2030.3119507832635
leaf_weight=5405 4142 2149 2429 478 6705 2128
leaf_count=5405 4142 2149 2429 478 6705 2128
internal_value=0 -1715.21 3987.39 5987.04 -714.418 505.727
internal_weight=0 16387 7049 2907 10982 4277
internal_count=23436 16387 7049 2907 10982 4277
is_linear=0
shrinkage=0.2


Tree=11
num_leaves=7
num_cat=0
split_feature=0 0 6 0 1 3
split_gain=2.64597e+12 6.04442e+11 3.90443e+11 2.41673e+11 2.21255e+11 1.82933e+11
threshold=1140708.1820000003 1287787.6790000002 8.9781250000000004 930166.43110000016 1010.9843750000001 80.291666665000022
decision_type=2 2 2 2 2 2
left_child=2 5 3 -1 -3 -2
right_child=1 4 -4 -5 -6 -7
leaf_value=-10370.871206593234 2212.3755566070349 5446.2093119448818 -797.18378269037385 -2726.5953463026563 2351.6162507399486 -101.02518397719332
leaf_weight=170 3064 2693 7479 6154 1407 2469
leaf_count=170 3064 2693 7479 6154 1407 2469
internal_value=0 2543.82 -1775.31 -2932.09 4384.24 1180.06
internal_weight=0 9633 13803 6324 4100 5533
internal_count=23436 9633 13803 6324 4100 5533
is_linear=0
shrinkage=0.2


Tree=12
num_leaves=7
num_cat=0
split_feature=0 0 0 3 3 2
split_gain=1.6987e+12 5.09299e+11 2.07454e+11 1.99725e+11 1.94319e+11 2.29529e+11
threshold=1237407.0615000001 1023101.6820000001 1453479.1785000002 94.458333335000006 80.291666665000022 68.812500000000014
decision_type=2 2 2 2 2 2
left_child=1 -1 3 -2 -3 -6
right_child=2 4 -4 -5 5 -7
leaf_value=-2523.0758837326848 2252.9311943112825 669.77678393172391 6186.9892710283066 7927.219930354694 -2091.1912630149159 247.30807594181374
leaf_weight=5683 4685 5368 720 262 3423 3295
leaf_count=5683 4685 5368 720 262 3423 3295
internal_value=0 -961.593 3015.1 2553.45 -227.363 -944.22
internal_weight=0 17769 5667 4947 12086 6718
internal_count=23436 17769 5667 4947 12086 6718
is_linear=0
shrinkage=0.2


Tree=13
num_leaves=7
num_cat=0
split_feature=0 4 0 0 5 1
split_gain=1.15676e+12 2.65516e+11 2.39398e+11 1.9103e+11 1.772e+11 1.77076e+11
threshold=1146227.8750000002 9.483136217000002 1276460.8770000001 953543.96010000014 298.06250000000006 999.0975000000002
decision_type=2 2 2 2 2 2
left_child=1 3 -2 -1 -4 -3
right_child=2 5 4 -5 -6 -7
leaf_value=-6766.524042404928 775.15719386112266 8462.7513052699087 3468.1344526891626 -2200.0282064194575 369.31011441981542 -808.37622734558363
leaf_weight=446 4980 83 3437 2054 940 11496
leaf_count=446 4980 83 3437 2054 940 11496
internal_value=0 -1145.49 1723.57 -3014.69 2802.63 -741.919
internal_weight=0 14079 9357 2500 4377 11579
internal_count=23436 14079 9357 2500 4377 11579
is_linear=0
shrinkage=0.2


Tree=14
num_leaves=7
num_cat=0
split_feature=0 0 6 5 4 3
split_gain=7.88452e+11 2.23152e+11 1.37513e+11 1.96254e+11 1.49701e+11 1.55357e+11
threshold=1092398.9925000004 1272794.8150000002 11.326875000000003 261.43750000000006 17.645636220000004 73.958333335000006
decision_type=2 2 2 2 2 2
left_child=2 -2 -1 -4 -5 -6
right_child=1 -3 3 4 5 -7
leaf_value=-1753.6572787147747 457.58674998993712 2224.8501307981824 -1206.7989001887879 4617.0585250918612 3033.537376851049 -2904.8179452548843
leaf_weight=7114 7928 4469 2744 476 348 357
leaf_count=7114 7928 4469 2744 476 348 357
internal_value=0 1094.67 -1229.33 -279.003 1876.69 26.4553
internal_weight=0 12397 11039 3925 1181 705
internal_count=23436 12397 11039 3925 1181 705
is_linear=0
shrinkage=0.2


Tree=15
num_leaves=7
num_cat=0
split_feature=0 6 5 0 0 1
split_gain=5.09274e+11 1.7931e+11 1.75773e+11 1.33195e+11 1.31693e+11 1.23409e+11
threshold=1101519.7860000001 8.2081250000000008 165.68750000000003 962004.5891000001 1472438.6400000004 1000.5912500000001
decision_type=2 2 2 2 2 2
left_child=3 -2 -3 -1 -4 -5
right_child=1 2 4 5 -6 -7
leaf_value=-2927.388052259173 -1046.8002359052896 3060.0434538027725 680.86375966359708 5720.1085809739971 4416.1132403691618 -784.85329011649776
leaf_weight=1211 1600 1742 8107 118 396 10262
leaf_count=1211 1600 1742 8107 118 396 10262
internal_value=0 922.268 1229.78 -942.478 854.821 -710.905
internal_weight=0 11845 10245 11591 8503 10380
internal_count=23436 11845 10245 11591 8503 10380
is_linear=0
shrinkage=0.2


Tree=16
num_leaves=7
num_cat=0
split_feature=6 1 0 5 5 6
split_gain=3.67534e+11 1.66366e+11 3.52912e+11 2.43447e+11 1.51249e+11 1.33675e+11
threshold=10.354375000000003 1008.7012500000002 1295138.4310000003 135.68750000000003 160.31250000000003 14.586875000000001
decision_type=2 2 2 2 2 2
left_child=-1 2 4 -4 -2 -3
right_child=1 5 3 -5 -6 -7
leaf_value=-945.90707717327973 3039.3394905188907 451.53758106986902 21376.400651041666 2230.643980873057 -1060.8515054416082 2256.0440795394566
leaf_weight=9659 387 3157 27 1651 5133 3422
leaf_count=9659 387 3157 27 1651 5133 3422
internal_value=0 663.172 -1.27402 2538.71 -773.392 1390.13
internal_weight=0 13777 7198 1678 5520 6579
internal_count=23436 13777 7198 1678 5520 6579
is_linear=0
shrinkage=0.2


Tree=17
num_leaves=7
num_cat=0
split_feature=6 3 0 1 2 5
split_gain=2.47898e+11 1.26724e+11 1.90491e+11 1.1445e+11 1.0633e+11 1.14823e+11
threshold=9.036875000000002 72.958333335000006 1472438.6400000004 1011.6756250000001 98.437500000000014 275.06250000000006
decision_type=2 2 2 2 2 2
left_child=-1 3 4 -2 -3 -6
right_child=1 2 -4 -5 5 -7
leaf_value=-919.9860496040634 2618.1083636033427 -294.05183420670471 4649.4433109595075 562.45782116539829 922.55264663052026 6587.1980682373051
leaf_weight=7811 1744 9377 355 2860 1125 164
leaf_count=7811 1744 9377 355 2860 1125 164
internal_value=0 459.905 91.7703 1341.14 -59.9242 1643.27
internal_weight=0 15625 11021 4604 10666 1289
internal_count=23436 15625 11021 4604 10666 1289
is_linear=0
shrinkage=0.2


Tree=18
num_leaves=7
num_cat=0
split_feature=0 3 3 0 4 5
split_gain=2.0639e+11 1.12895e+11 1.13226e+11 1.3646e+11 1.46246e+11 1.07378e+11
threshold=1007367.9005000001 94.875000000000014 82.208333335000006 1364332.6070000001 17.885636220000006 282.43750000000006
decision_type=2 2 2 2 2 2
left_child=-1 2 5 4 -4 -2
right_child=1 -3 3 -5 -6 -7
leaf_value=-1220.1886303497893 1151.4838907360372 2280.2743549025035 -138.19240139531507 2078.0366628569395 -2219.6484112565936 -161.27636041528268
leaf_weight=4484 5969 1074 4991 788 1851 4279
leaf_count=4484 5969 1074 4991 788 1851 4279
internal_value=0 288.694 169.052 -414.259 -701.299 603.348
internal_weight=0 18952 17878 7630 6842 10248
internal_count=23436 18952 17878 7630 6842 10248
is_linear=0
shrinkage=0.2


Tree=19
num_leaves=7
num_cat=0
split_feature=0 2 0 4 1 6
split_gain=1.50072e+11 1.02697e+11 1.24249e+11 9.38699e+10 9.29242e+10 1.13412e+11
threshold=1089575.4930000002 59.687500000000007 1502124.9405000003 9.483136217000002 1008.3768750000002 23.446875000000002
decision_type=2 2 2 2 2 2
left_child=3 4 -3 -1 5 -2
right_child=1 2 -4 -5 -6 -7
leaf_value=-1693.4162665996002 -2091.316178753832 1134.0663351616965 10082.041307043652 -243.69111877354669 373.64519633108534 2816.0540631894073
leaf_weight=2255 1276 4218 63 8600 6803 221
leaf_count=2255 1276 4218 63 8600 6803 221
internal_value=0 470.105 1265.75 -544.855 59.7273 -1366.85
internal_weight=0 12581 4281 10855 8300 1497
internal_count=23436 12581 4281 10855 8300 1497
is_linear=0
shrinkage=0.2


Tree=20
num_leaves=7
num_cat=0
split_feature=6 5 2 1 5 2
split_gain=1.23552e+11 1.40127e+11 1.09783e+11 1.08076e+11 9.85601e+10 1.3536e+11
threshold=11.484375000000002 148.18750000000003 99.937500000000014 1011.4256250000001 259.81250000000006 74.937500000000014
decision_type=2 2 2 2 2 2
left_child=2 3 -1 -2 -3 -6
right_child=1 4 -4 -5 5 -7
leaf_value=-578.77485192931488 5150.0741563199754 -452.98525015865783 3595.4154581942298 1198.3971908536166 302.36929265015266 2768.6128293598399
leaf_weight=10889 396 4989 258 920 4896 1088
leaf_count=10889 396 4989 258 920 4896 1088
internal_value=0 437.356 -482.162 2387.5 203.473 750.777
internal_weight=0 12289 11147 1316 10973 5984
internal_count=23436 12289 11147 1316 10973 5984
is_linear=0
shrinkage=0.2


Tree=21
num_leaves=7
num_cat=0
split_feature=0 1 0 4 1 3
split_gain=9.70805e+10 1.0041e+11 6.79857e+10 7.17242e+10 6.66068e+10 8.83144e+10
threshold=986785.66910000017 999.0975000000002 1518992.8815000004 22.798136220000004 1012.9137500000001 89.791666665000022
decision_type=2 2 2 2 2 2
left_child=4 -2 -3 -4 5 -1
right_child=1 2 3 -5 -6 -7
leaf_value=810.28254673920833 8687.0229278009592 105.84029192586357 11927.283932495118 564.91211334228524 -2544.936949732763 -1831.7159532305388
leaf_weight=1057 55 20391 40 50 872 971
leaf_count=1057 55 20391 40 50 872 971
internal_value=0 152.966 130.049 5614.86 -1083.21 -454.698
internal_weight=0 20536 20481 90 2900 2028
internal_count=23436 20536 20481 90 2900 2028
is_linear=0
shrinkage=0.2


Tree=22
num_leaves=7
num_cat=0
split_feature=6 5 0 1 0 4
split_gain=8.23113e+10 7.83477e+10 1.32592e+11 1.02184e+11 1.19791e+11 1.05016e+11
threshold=8.6018750000000015 218.06250000000003 1053267.6530000002 1009.3231250000001 1295138.4310000003 26.373136220000003
decision_type=2 2 2 2 2 2
left_child=-1 2 -2 4 5 -3
right_child=1 3 -4 -5 -6 -7
leaf_value=-565.11292292970188 -416.32845144844697 -901.83773345317866 1766.3839600386409 652.84047527798805 885.61968367120539 -6663.7496110652055
leaf_weight=7160 1798 4735 2923 4969 1721 130
leaf_count=7160 1798 4735 2923 4969 1721 130
internal_value=0 248.6 935.095 -31.88 -548.487 -1055.8
internal_weight=0 16276 4721 11555 6586 4865
internal_count=23436 16276 4721 11555 6586 4865
is_linear=0
shrinkage=0.2


Tree=23
num_leaves=7
num_cat=0
split_feature=1 0 6 3 1 4
split_gain=8.51185e+10 1.51487e+11 8.2456e+10 7.66063e+10 9.35715e+10 1.03844e+11
threshold=1014.0818750000001 1410245.2105000003 14.966875000000002 81.875000000000014 1002.2268750000002 17.885636220000006
decision_type=2 2 2 2 2 2
left_child=3 2 -2 -1 -5 -6
right_child=1 -3 -4 4 5 -7
leaf_value=549.68403231907234 -1397.1521846718283 -15430.40881368703 1559.5173983939421 2110.6709744300374 -24.809113970725768 -1534.0054243848444
leaf_weight=9655 2233 29 454 648 8060 2357
leaf_count=9655 2233 29 454 648 8060 2357
internal_value=0 -1052.76 -897.588 137.997 -221.229 -366.287
internal_weight=0 2716 2687 20720 11065 10417
internal_count=23436 2716 2687 20720 11065 10417
is_linear=0
shrinkage=0.2


Tree=24
num_leaves=7
num_cat=0
split_feature=1 3 0 6 0 3
split_gain=5.91666e+10 8.39325e+10 9.75131e+10 7.11289e+10 6.39056e+10 1.4485e+11
threshold=1013.4806250000001 59.041666665000008 1441061.7010000001 19.681250000000002 1502124.9405000003 61.208333335000006
decision_type=2 2 2 2 2 2
left_child=4 3 -3 -2 -1 -6
right_child=1 2 -4 -5 5 -7
leaf_value=107.93299946202042 619.24674163121381 -1050.8933794046939 -15059.643459472658 7392.391922218213 -10093.780143554688 6373.6332349712357
leaf_weight=19362 613 3200 20 69 25 147
leaf_count=19362 613 3200 20 69 25 147
internal_value=0 -711.014 -1137.9 1304.51 142.028 3980.11
internal_weight=0 3902 3220 682 19534 172
internal_count=23436 3902 3220 682 19534 172
is_linear=0
shrinkage=0.2


Tree=25
num_leaves=7
num_cat=0
split_feature=6 4 2 3 0 0
split_gain=5.36448e+10 4.80071e+10 1.10203e+11 1.46761e+11 9.97658e+10 8.60688e+10
threshold=5.6318750000000009 23.340636220000004 18.187500000000004 75.208333335000006 1050918.3215000003 1029913.5375000001
decision_type=2 2 2 2 2 2
left_child=-1 -2 3 -3 5 -4
right_child=1 2 4 -5 -6 -7
leaf_value=-767.46059163012205 3.4085674662602914 390.36871909711186 3870.8402332305909 -6118.2260571503066 1671.7704279407267 17670.823551993537
leaf_weight=3153 17763 894 48 164 1385 29
leaf_count=3153 17763 894 48 164 1385 29
internal_value=0 119.302 936.213 -618.525 2061.32 9068.24
internal_weight=0 20283 2520 1058 1462 77
internal_count=23436 20283 2520 1058 1462 77
is_linear=0
shrinkage=0.2


Tree=26
num_leaves=7
num_cat=0
split_feature=0 4 3 2 6 5
split_gain=4.85667e+10 6.66776e+10 6.04218e+10 5.79525e+10 1.30919e+11 7.53602e+10
threshold=958101.62310000008 7.918136217225606 98.208333335000006 29.562500000000004 7.1831250000000013 83.312500000000014
decision_type=2 2 2 2 2 2
left_child=1 -1 -2 4 -3 -6
right_child=2 3 -4 -5 5 -7
leaf_value=-3141.0559863427843 27.333760123010364 -2046.852763730004 3211.2824822263601 -1153.210040193665 1069.6771620008681 14327.922177318816
leaf_weight=458 22170 84 241 409 27 47
leaf_count=458 22170 84 241 409 27 47
internal_value=0 -1346.25 61.5728 103.519 3356.7 9490.45
internal_weight=0 1025 22411 567 158 74
internal_count=23436 1025 22411 567 158 74
is_linear=0
shrinkage=0.2


Tree=27
num_leaves=7
num_cat=0
split_feature=1 3 0 4 2 2
split_gain=4.33415e+10 3.54805e+10 8.2322e+10 7.86529e+10 6.87883e+10 1.25557e+11
threshold=999.0975000000002 88.208333335000006 1248775.7270000002 16.745636220000005 73.062500000000014 75.687500000000014
decision_type=2 2 2 2 2 2
left_child=-1 4 3 -3 -2 -6
right_child=1 2 -4 -5 5 -7
leaf_value=4481.6117494095206 -3.7369747939031819 -394.02390014204184 1289.8067197402072 -2504.8559164875824 2911.3957249885952 -419.11872102743956
leaf_weight=86 15042 4698 966 831 936 877
leaf_count=86 15042 4698 966 831 936 877
internal_value=0 -16.5061 -413.658 -711.279 136.534 1300.33
internal_weight=0 23350 6495 5529 16855 1813
internal_count=23436 23350 6495 5529 16855 1813
is_linear=0
shrinkage=0.2


Tree=28
num_leaves=7
num_cat=0
split_feature=6 5 0 5 3 4
split_gain=3.5648e+10 4.32618e+10 1.13903e+11 4.75834e+10 4.39117e+10 3.7815e+10
threshold=26.324375000000003 276.81250000000006 1084786.9970000002 236.43750000000003 63.958333335000006 25.473136220000004
decision_type=2 2 2 2 2 2
left_child=5 3 -3 -2 -4 -1
right_child=1 2 4 -5 -6 -7
leaf_value=-92.819738477843316 4599.7446020507814 17423.244607560533 9805.9405878906255 -1280.1059839313157 542.96620731860139 1088.7303187199643
leaf_weight=21853 75 23 25 207 113 1140
leaf_count=21853 75 23 25 207 113 1140
internal_value=0 1777.06 4392.78 283.684 2221.04 -34.2381
internal_weight=0 443 161 282 138 22993
internal_count=23436 443 161 282 138 22993
is_linear=0
shrinkage=0.2


Tree=29
num_leaves=7
num_cat=0
split_feature=5 0 1 6 1 5
split_gain=3.36295e+10 8.46223e+10 9.24929e+10 8.62566e+10 9.46161e+10 8.16672e+10
threshold=282.43750000000006 1340269.7670000002 1014.4062500000001 16.629375000000003 1005.3606250000001 259.81250000000006
decision_type=2 2 2 2 2 2
left_child=1 5 3 4 -3 -1
right_child=-2 2 -4 -5 -6 -7
leaf_value=-182.2802498331294 -407.99849857353377 9883.4911813131203 -5238.7998762702946 645.53900973692816 2624.653895806031 1219.6929776408456
leaf_weight=13671 6009 82 80 1123 579 1892
leaf_count=13671 6009 82 80 1123 579 1892
internal_value=0 140.682 1414.14 1712.48 3525.15 -11.8418
internal_weight=0 17427 1864 1784 661 15563
internal_count=23436 17427 1864 1784 661 15563
is_linear=0
shrinkage=0.2


end of trees

feature_importances:
load_kw_lag168=90
wind_speed_kmh_lag168=18
pressure_kpa_lag168=17
humidity_pct_lag168=17
wind_direction_deg_lag168=16
cloud_cover_pct_lag168=11
temperature_c_lag168=11

parameters:
[boosting: gbdt]
[objective: regression]
[metric: l1]
[tree_learner: serial]
[device_type: cpu]
[data: ]
[valid: ]
[num_iterations: 100]
[learning_rate: 0.2]
[num_leaves: 7]
[num_threads: 0]
[deterministic: 0]
[force_col_wise: 0]
[force_row_wise: 0]
[histogram_pool_size: -1]
[max_depth: 6]
[min_data_in_leaf: 20]
[min_sum_hessian_in_leaf: 0.001]
[bagging_fraction: 0.5]
[pos_bagging_fraction: 1]
[neg_bagging_fraction: 1]
[bagging_freq: 0]
[bagging_seed: 3]
[feature_fraction: 1]
[feature_fraction_bynode: 1]
[feature_fraction_seed: 2]
[extra_trees: 0]
[extra_seed: 6]
[early_stopping_round: 0]
[first_metric_only: 0]
[max_delta_step: 0]
[lambda_l1: 0]
[lambda_l2: 0]
[linear_lambda: 0]
[min_gain_to_split: 0]
[drop_rate: 0.1]
[max_drop: 50]
[skip_drop: 0.5]
[xgboost_dart_mode: 0]
[uniform_drop: 0]
[drop_seed: 4]
[top_rate: 0.2]
[other_rate: 0.1]
[min_data_per_group: 100]
[max_cat_threshold: 32]
[cat_l2: 10]
[cat_smooth: 10]
[max_cat_to_onehot: 4]
[top_k: 20]
[monotone_constraints: ]
[monotone_constraints_method: basic]
[monotone_penalty: 0]
[feature_contri: ]
[forcedsplits_filename: ]
[refit_decay_rate: 0.9]
[cegb_tradeoff: 1]
[cegb_penalty_split: 0]
[cegb_penalty_feature_lazy: ]
[cegb_penalty_feature_coupled: ]
[path_smooth: 0]
[interaction_constraints: ]
[verbosity: -1]
[saved_feature_importance_type: 0]
[linear_tree: 0]
[max_bin: 255]
[max_bin_by_feature: ]
[min_data_in_bin: 3]
[bin_construct_sample_cnt: 200000]
[data_random_seed: 1]
[is_enable_sparse: 1]
[enable_bundle: 1]
[use_missing: 1]
[zero_as_missing: 0]
[feature_pre_filter: 1]
[pre_partition: 0]
[two_round: 0]
[header: 0]
[label_column: ]
[weight_column: ]
[group_column: ]
[ignore_column: ]
[categorical_feature: ]
[forcedbins_filename: ]
[precise_float_parser: 0]
[objective_seed: 5]
[num_class: 1]
[is_unbalance: 0]
[scale_pos_weight: 1]
[sigmoid: 1]
[boost_from_average: 1]
[reg_sqrt: 0]
[alpha: 0.9]
[fair_c: 1]
[poisson_max_delta_step: 0.7]
[tweedie_variance_power: 1.5]
[lambdarank_truncation_level: 30]
[lambdarank_norm: 1]
[label_gain: ]
[eval_at: ]
[multi_error_top_k: 1]
[auc_mu_weights: ]
[num_machines: 1]
[local_listen_port: 12400]
[time_out: 120]
[machine_list_filename: ]
[machines: ]
[gpu_platform_id: -1]
[gpu_device_id: -1]
[gpu_use_dp: 0]
[num_gpu: 1]

end of parameters

pandas_categorical:[]
